tree
version=v4
num_class=1
num_tree_per_iteration=1
label_index=0
max_feature_idx=13
objective=lambdarank
feature_names=Overlap_word-level Overlap_subword-level Transfer_lang_dataset_size Target_lang_dataset_size Transfer_over_target_size_ratio Transfer_lang_TTR Target_lang_TTR Transfer_target_TTR_distance GENETIC SYNTACTIC FEATURAL PHONOLOGICAL INVENTORY GEOGRAPHIC
feature_infos=[4.3251875634222231e-05:0.18988547396267541] [0.0047161030096183002:0.27096335660878701] [3317:214111] [3317:214111] [0.015491964448346799:64.54959300572807] [0.017032063752969898:0.94998301496263282] [0.017032063752969898:0.94998301496263282] [1.1870853535025483e-09:3000.4270736553231] [0.125:1] [0:0.92000000000000004] [0:1] [0:1] [0:0.70279999999999998] [0:1]
tree_sizes=1784 1781 1803 1804 1795 1811 1817 1789 1809 1787 1806 1817 1801 1796 1807 1820 1799 1797 1807 1813 1813 1826 1816 1805 1812 1808 1830 1815 1805 1818 1798 1815 1821 1809 1808 1818 1811 1817 1815 1812 1816 1822 1826 1818 1817 1829 1818 1824 1824 1831 1820 1835 1823 1832 1842 1843 1840 1823 1820 1827 1826 1825 1833 1836 1831 1825 1831 1827 1841 1831 1835 1831 1841 1829 1837 1825 1838 1845 1833 1823 1833 1831 1840 1836 1837 1825 1832 1829 1829 1833 1830 1841 1837 1828 1847 1831 1839 1844 1831 1827

Tree=0
num_leaves=16
num_cat=0
split_feature=1 4 4 3 2 5 2 12 1 7 7 1 11 3 12
split_gain=28.353 19.9414 30.7999 11.2284 7.60228 7.26569 5.62496 5.01591 4.97751 3.99541 4.29398 3.9052 3.4968 3.41231 2.83754
threshold=0.049523988628167807 6.7812082453949225 0.15479543112800861 115293.00000000001 135612.50000000003 0.11764643188621171 184261.00000000003 0.45045000000000007 0.021091717776893951 0.52278904902018131 0.26370469581570205 0.072844263959061711 0.54050000000000009 181506.50000000003 0.49240000000000006
decision_type=2 2 2 2 2 2 2 2 2 2 2 2 2 2 2
left_child=1 2 3 -1 -3 7 -6 -4 -5 10 -8 14 -10 -14 -2
right_child=11 4 5 8 6 -7 9 -9 12 -11 -12 -13 13 -15 -16
leaf_value=-0.19748130349742932 -0.041002274730863375 -0.093863206142218228 0.07874871632176185 0.082860852799377036 0.14690552607536606 -0.18334504255680431 -0.11621173489040718 -0.1129378548863981 -0.12981708434536515 -0.1730234724757363 0.11852232358130654 0.18401132672954457 0.10472965518801192 -0.13497096338028239 0.11179341616637262
leaf_weight=2.0477888077148263 1.5740854458417723 2.4982302686548783 1.8903132509440208 12.85610385835753 8.2459922229463682 15.747185120329958 1.0639004565891803 4.9132498435501475 2.177104152593528 0.944930562051013 2.9132772184675559 6.7293125123833306 2.1138470469741155 0.82595031792880025 5.3337741831346648
leaf_count=115 96 135 73 337 196 899 42 420 54 112 59 64 46 29 132
internal_value=0 -0.0303928 -0.0658904 0.0243819 0.0660681 -0.146035 0.0964101 -0.0596793 0.0496603 0.0118152 0.0557306 0.129793 -0.0337552 0.0373846 0.0769761
internal_weight=0 58.2379 42.5715 20.0208 15.6663 22.5507 13.1681 6.80356 17.973 4.92211 3.97718 13.6372 5.1169 2.9398 6.90786
internal_count=2809 2517 1973 581 544 1392 409 493 466 213 101 292 129 75 228
is_linear=0
shrinkage=0.1


Tree=1
num_leaves=16
num_cat=0
split_feature=8 9 0 12 8 5 3 7 1 4 4 2 1 1 2
split_gain=33.7888 25.2063 20.2177 18.2891 15.1196 14.8764 15.0521 13.3424 15.6441 19.8708 11.6418 11.5828 7.6822 13.1611 7.64182
threshold=0.51665000000000016 0.49500000000000005 0.0015943373911356501 0.44405000000000006 0.96875000000000011 0.19348666312824433 175411.00000000003 8.8749729977953269 0.06215702796176286 1.9816950721476945 0.12691252885761992 21428.500000000004 0.096777078674585224 0.060560128975898055 183118.50000000003
decision_type=2 2 2 2 2 2 2 2 2 2 2 2 2 2 2
left_child=5 3 4 -2 -3 12 -7 8 -4 -10 -9 -5 13 -1 -6
right_child=1 2 7 11 14 6 -8 10 9 -11 -12 -13 -14 -15 -16
leaf_value=0.11649271039608894 -0.090483990048671081 -0.11771088210363728 -0.10084243085345657 -0.14804598827930759 0.038817183555194264 -0.19373144566263234 0.14764016654940487 0.092166159249476812 -0.18749126567092578 0.16212080585032479 -0.18801125811986594 0.13656212690687297 0.16238451360833062 -0.11793072037536156 -0.11190691590607078
leaf_weight=9.9010057314299065 5.4922886500135091 8.2334675197489542 61.999081156915054 1.5469287419691706 47.89084584848024 3.3608741397038093 2.0979082500562072 7.9982721586711687 2.3750376636162391 5.1527580730617046 1.8206233482342211 18.909542645793408 16.54360243678093 3.1590339653193942 3.6179296195041379
leaf_count=55 100 160 1432 28 448 35 9 94 35 8 90 114 20 23 158
internal_value=0 -0.0189406 -0.0358208 0.0715389 0.00811733 0.0891525 -0.0625362 -0.0689034 -0.0843137 0.0518174 0.0402156 0.11504 0.117123 0.0597891 0.0282305
internal_weight=0 165.037 139.088 25.9488 59.7422 35.0624 5.45878 79.3458 69.5269 7.5278 9.8189 20.4565 29.6036 13.06 51.5088
internal_count=2809 2667 2425 242 766 142 44 1659 1475 43 184 142 98 78 606
is_linear=0
shrinkage=0.1


Tree=2
num_leaves=16
num_cat=0
split_feature=1 0 9 4 4 6 12 11 7 6 1 8 1 7 4
split_gain=38.0983 19.0089 15.456 20.7901 11.365 9.9424 10.9203 9.92633 9.83783 7.18147 6.83952 6.66973 6.66443 6.41844 6.19666
threshold=0.049523988628167807 0.0067480648890272006 0.60500000000000009 0.022010278282414603 8.2541835980662039 0.15248835447197218 0.64835000000000009 0.62860000000000005 2.9588173102638424 0.095990568966833958 0.0092115837794993025 0.81665000000000021 0.072844263959061711 75.284853203593272 32.679514016552041
decision_type=2 2 2 2 2 2 2 2 2 2 2 2 2 2 2
left_child=1 2 5 -4 8 9 10 -8 -5 -1 -7 -2 13 -13 -3
right_child=11 14 3 4 -6 6 7 -9 -10 -11 -12 12 -14 -15 -16
leaf_value=0.024972244930729554 0.10890511881525052 -0.14277777788227572 0.12868306843684796 -0.13737062322152394 -0.0087554198782224361 -0.15825362446534541 -0.14484198926724587 0.10338138708259181 -0.032207686045840456 -0.093957711367080629 0.095650984510842876 -0.030925585616475973 0.12576891278254532 0.18731283089292672 0.13368516604188294
leaf_weight=11.125224799383433 28.085000640712678 15.306962605565786 6.2628180570900431 23.106936325319111 23.966986896004528 1.1038391478359724 4.4070697829592964 2.5392756969667971 14.463739959290249 9.3396764553617668 27.2886359738186 11.819992267992347 5.3835897929966441 1.5210351049900062 0.85608770139515478
leaf_count=157 100 523 24 720 285 29 87 27 238 200 223 176 14 2 4
internal_value=0 -0.026151 -0.0128152 -0.0448961 -0.0625617 0.0261626 0.0582839 -0.0541025 -0.0968856 -0.0293045 0.0857797 0.0780835 0.0318542 -0.00604382 -0.128135
internal_weight=0 139.767 123.604 67.8005 61.5377 55.8037 35.3388 6.94635 37.5707 20.4649 28.3925 46.8096 18.7246 13.341 16.1631
internal_count=2809 2517 1990 1267 1243 723 366 114 958 357 252 292 192 178 527
is_linear=0
shrinkage=0.1


Tree=3
num_leaves=16
num_cat=0
split_feature=8 7 9 4 4 4 13 5 5 5 12 4 1 9 11
split_gain=25.3182 12.9125 12.9518 9.67223 8.72591 9.14319 6.86086 7.03221 9.40791 12.8798 8.19171 7.20446 6.6072 6.31173 6.09214
threshold=0.70715000000000006 0.084637693011627671 0.56500000000000006 0.026988386449934704 1.7327328169207625 0.31281583872184721 0.15000000000000005 0.21750072081203178 0.12847706258482833 0.070716342126032811 0.60365000000000013 4.0163265580160532 0.012032960015343401 0.36500000000000005 0.87170000000000003
decision_type=2 2 2 2 2 2 2 2 2 2 2 2 2 2 2
left_child=13 -2 4 14 5 -3 -5 8 9 10 -8 -12 -6 -1 -4
right_child=1 2 3 6 12 -7 7 -9 -10 -11 11 -13 -14 -15 -16
leaf_value=-0.11424816811184142 -0.1068987962655284 0.025513744731804223 -0.032800983864189892 -0.10648008687788479 -0.13389214651964523 -0.13561082101053215 -0.075900585843843807 -0.08611128797318722 0.061024310863081056 -0.12945480681634178 -0.17496738960802802 0.10839264795539885 0.087330734291127074 0.080349178411016658 0.11605042139769249
leaf_weight=1.7456234153360117 15.218315460253505 13.243560127913954 4.764167318120597 15.071715435944496 1.434220809489491 4.7977487496100357 5.8164191863033947 15.897122998721896 13.282383985817431 10.218077321071176 1.0112389447167496 7.9616409260779619 23.010704359039664 36.896110421977937 6.5022142231464386
leaf_count=14 510 149 43 393 30 185 142 443 181 271 33 49 150 200 16
internal_value=0 -0.020004 -0.00925377 -0.0328233 0.035418 -0.0173343 -0.0468016 -0.0302024 -0.00699015 -0.0431153 0.0165376 0.0764581 0.0743513 0.0715583 0.0531063
internal_weight=0 138.23 123.011 80.525 42.4862 18.0413 69.2586 54.1869 38.2898 25.0074 14.7893 8.97288 24.4449 38.6417 11.2664
internal_count=2809 2595 2085 1571 514 334 1512 1119 676 495 224 82 180 214 59
is_linear=0
shrinkage=0.1


Tree=4
num_leaves=16
num_cat=0
split_feature=1 0 7 9 1 2 2 5 2 3 2 1 1 13 7
split_gain=23.2094 15.4066 9.16957 8.31944 8.24591 7.34439 7.16221 7.01519 6.31835 8.91788 6.14176 6.1195 9.31933 8.34653 6.05328
threshold=0.049523988628167807 0.0017060993219082503 0.26370469581570205 0.43500000000000005 0.0089915948990452015 142059.00000000003 183118.50000000003 0.084210986107070104 142059.00000000003 115293.00000000001 159538.50000000003 0.011904395419161601 0.013917710118652102 0.25000000000000006 0.0099815045809607001
decision_type=2 2 2 2 2 2 2 2 2 2 2 2 2 2 2
left_child=1 4 -3 7 5 -1 8 -4 9 -6 -7 -11 -13 -14 -2
right_child=14 2 3 -5 6 10 -8 -9 -10 11 -12 12 13 -15 -16
leaf_value=-0.11762188050779672 -0.066491872064540117 -0.11748608847483094 0.14249284107311558 -0.049731651922304776 -0.13159522430542908 0.1292992007420439 -0.072525317208208637 -0.12801378711127229 0.10141538007780884 0.082153848944561694 -0.071751777859124774 -0.12878628531235237 -0.16618196975160388 0.13281298197709726 0.070422468887358688
leaf_weight=7.9854547884315235 3.4909983817487946 18.270190146751702 4.2724797669798127 37.881817433051765 3.4356306325644281 3.0233549177646637 5.7010773438960305 1.2360617183148859 14.109563043341039 14.373345888685437 3.0545196384191513 4.3824619976803643 1.1965445484966037 4.2491769874468446 43.057602632790804
leaf_count=262 38 674 9 974 99 5 156 30 58 85 58 76 9 22 254
internal_value=0 -0.0227333 -0.0580574 -0.0330341 0.0126766 -0.0545756 0.0326099 0.0817939 0.0469675 0.0191703 0.0282583 0.0405729 -0.0202376 0.0671172 0.0601543
internal_weight=0 123.172 61.6605 43.3904 61.5111 14.0633 47.4478 5.50854 41.7467 27.6372 6.07787 24.2015 9.82818 5.44572 46.5486
internal_count=2809 2517 1687 1013 830 325 505 39 349 291 63 192 107 31 292
is_linear=0
shrinkage=0.1


Tree=5
num_leaves=16
num_cat=0
split_feature=8 7 9 4 9 4 4 12 1 10 6 5 11 0 9
split_gain=20.2666 9.96464 8.6345 8.53145 7.10352 5.74952 12.1052 7.34707 6.12159 5.37717 6.06514 5.10586 4.89557 4.62233 5.89846
threshold=0.51665000000000016 0.084637693011627671 0.56500000000000006 0.022010278282414603 0.6150000000000001 8.0763354615913325 0.12691252885761992 0.61245000000000005 0.06215702796176286 0.55000000000000016 0.25719065303168004 0.22979774810171641 0.60420000000000007 0.0014643044623656504 0.47500000000000003
decision_type=2 2 2 2 2 2 2 2 2 2 2 2 2 2 2
left_child=4 -2 11 -4 -1 6 7 -5 -8 -7 12 13 -11 -3 -15
right_child=1 2 3 5 -6 9 8 -9 -10 10 -12 -13 -14 14 -16
leaf_value=0.031748707771168304 -0.091220573068219263 0.098841181784742743 0.087737936593581756 0.031123292877458564 0.13108833560279914 0.12673695962189144 -0.12793050642224307 -0.094324060043497554 0.062537054607199577 0.05439744945083283 -0.084467957032847013 -0.047522727549985308 -0.10718772809265104 0.065097038162337237 -0.03031079577093598
leaf_weight=16.359356019645933 15.738324406556783 10.750418815761803 5.9173085857182732 15.42591231595725 12.85429867915809 3.0161155108362463 19.965970151126388 6.6948465425521126 1.8431943785399187 10.723526178859176 8.0140600707381946 7.3689841795712701 2.2723027784377328 13.991275135427715 12.070085598155854
leaf_count=110 541 45 22 214 32 19 819 160 16 116 172 135 50 106 252
internal_value=0 -0.0164766 -0.00651209 -0.0274268 0.0754591 -0.0374548 -0.0589659 -0.00684334 -0.111833 0.00187678 -0.0160478 0.0284587 0.0261445 0.0436687 0.0209098
internal_weight=0 133.792 118.054 73.8732 29.2137 67.9559 43.9299 22.1208 21.8092 24.026 21.0099 44.1808 12.9958 36.8118 26.0614
internal_count=2809 2667 2126 1588 142 1566 1209 374 835 357 338 538 166 403 358
is_linear=0
shrinkage=0.1


Tree=6
num_leaves=16
num_cat=0
split_feature=1 0 1 1 7 11 7 2 12 1 9 0 12 11 12
split_gain=19.2414 6.94906 9.81139 6.48801 6.40412 7.09929 6.37289 6.20746 5.98157 5.86041 5.33599 7.52568 4.49572 3.93913 3.64374
threshold=0.075643113836319262 0.0017060993219082503 0.049523988628167807 0.0089915948990452015 0.40965858140877426 0.87170000000000003 0.26370469581570205 142059.00000000003 0.49240000000000006 0.009423448816595752 0.6150000000000001 0.0067480648890272006 0.50785000000000013 0.37835000000000008 0.53530000000000011
decision_type=2 2 2 2 2 2 2 2 2 2 2 2 2 2 2
left_child=1 3 6 7 -5 9 -3 -1 -4 -6 11 12 -8 -9 -10
right_child=-2 2 8 4 5 -7 10 13 14 -11 -12 -13 -14 -15 -16
leaf_value=-0.10929929636472634 0.092260981988388502 -0.10617574888808815 -0.069239856528664295 0.082852241719776482 0.10470216381969424 0.088514724835905931 0.071199578849992812 0.10348439010996098 0.10929768005830465 -0.048391992646479948 -0.083907937291720178 -0.11406777296651144 -0.019960681912244621 -0.066914976465068429 0.015934294556396528
leaf_weight=7.306144019123165 19.768511110916734 16.666590946726501 5.4116770438849953 15.836008695885537 2.9123866986483398 7.2188118770718566 9.2692418266087824 3.1887749023735523 6.6669145505875376 17.675950072705746 13.716225716751067 5.3524991413578382 12.993273912928997 2.3611848168075085 11.206985587254165
leaf_count=262 56 674 102 126 19 37 82 15 22 323 462 201 268 48 112
internal_value=0 -0.0132372 -0.0319607 0.0136995 0.0320916 0.00318371 -0.0539748 -0.0487369 0.0228704 -0.0267356 -0.0329251 -0.00760225 0.0179949 0.0309894 0.0507586
internal_weight=0 137.783 81.2834 56.4993 43.6432 27.8071 57.9978 12.8561 23.2856 20.5883 41.3312 27.615 22.2625 5.54996 17.8739
internal_count=2809 2753 1923 830 505 379 1687 325 236 342 1013 551 350 63 134
is_linear=0
shrinkage=0.1


Tree=7
num_leaves=16
num_cat=0
split_feature=1 4 4 2 3 2 9 1 0 2 3 4 5 3 5
split_gain=14.4664 6.45074 23.4616 16.9042 9.18074 6.99069 5.18024 3.3465 5.08441 3.15485 4.07615 5.07173 3.08392 2.91075 2.87617
threshold=0.072844263959061711 0.15479543112800861 1.6088234372060948 105794.50000000001 115293.00000000001 183118.50000000003 0.57500000000000007 0.051822364333256703 0.029694267408348754 44732.500000000007 159538.50000000003 0.61638877487671939 0.12847706258482833 173219.50000000003 0.077848848747769164
decision_type=2 2 2 2 2 2 2 2 2 2 2 2 2 2 2
left_child=1 4 7 -4 -1 12 -7 -3 -9 13 -11 -12 14 -2 -5
right_child=9 2 3 5 -6 6 -8 8 -10 10 11 -13 -14 -15 -16
leaf_value=-0.1438554845955454 -0.17961577449258181 -0.12381403833833791 -0.12931921762484644 0.053486821124824308 0.034043091888714141 0.025159836017452426 -0.082388419990188921 0.02810443462007069 -0.15808090603457298 0.11246243259185701 0.10302032296780506 -0.16410339533871757 0.09071176665504678 0.058850891908189165 -0.020702194157267019
leaf_weight=3.1388495964929453 0.85334180667996706 20.967109592631463 8.0078703118488175 16.531560438685123 38.266446877270937 9.617484889924528 8.3817704943940026 3.9701008135452858 2.3260824978351593 15.330902375280859 1.5770771913230412 1.293937614187598 12.818870504386721 1.2790958546102045 7.6408383212983599
leaf_count=119 12 1015 333 146 480 125 217 43 74 24 4 19 58 5 135
internal_value=0 -0.0121236 -0.0271151 0.00642402 0.020557 0.0261913 -0.0249225 -0.104615 -0.0406805 0.0785018 0.0919838 -0.0173697 0.0510623 -0.0365768 0.0300358
internal_weight=0 131.667 90.2617 62.9984 41.4053 54.9905 17.9993 27.2633 6.29618 20.3344 18.2019 2.87101 36.9913 2.13244 24.1724
internal_count=2809 2745 2146 1014 599 681 342 1132 117 64 47 23 339 17 281
is_linear=0
shrinkage=0.1


Tree=8
num_leaves=16
num_cat=0
split_feature=8 7 7 5 12 4 5 2 9 6 2 9 13 7 6
split_gain=12.6501 5.50945 5.51001 6.40827 5.38111 4.54498 3.77099 3.75459 3.53084 4.22874 3.57949 2.97222 5.82023 6.38267 4.89792
threshold=0.51665000000000016 0.084637693011627671 0.22466516380314283 0.15400711659458274 0.48600000000000004 0.022010278282414603 0.31697542618930957 188529.50000000003 0.6150000000000001 0.095990568966833958 105794.50000000001 0.62500000000000011 0.45000000000000007 0.55647538655589435 0.31697542618930957
decision_type=2 2 2 2 2 2 2 2 2 2 2 2 2 2 2
left_child=8 -2 3 4 -3 -4 11 -6 9 -1 -11 14 -13 -14 -7
right_child=1 2 5 -5 7 6 -8 -9 -10 10 -12 12 13 -15 -16
leaf_value=-0.10420886970308581 -0.072352179052955018 -0.066819909612164149 0.070422269748176378 -0.12527101333486473 0.084397475944762823 -0.017437992703056838 -0.080598669973501236 -0.13681098938406827 0.10842719515968871 -0.043000745385108924 0.086809816158704214 -0.079659978776752474 -0.14587862909600866 0.056716358235899517 0.062622413801972837
leaf_weight=1.9560648053884531 13.89901782106608 3.1499991891905728 5.5126169770956031 2.2012152113020411 17.485844506882135 33.457010700367391 10.088455264456568 0.80250426800921459 10.839175961911677 2.8170659262686959 8.6371094826608878 15.861094621941449 1.9255634434521187 8.0816832976415736 9.9033421259373409
leaf_count=23 541 59 22 109 147 661 333 33 32 46 41 495 72 98 97
internal_value=0 -0.0130759 -0.00548033 0.0372147 0.0538981 -0.0173782 -0.0234804 0.0746907 0.0659839 0.0316781 0.0548839 -0.0151567 -0.041983 0.0177337 0.000847504
internal_weight=0 122.368 108.469 23.6396 21.4383 84.8298 79.3171 18.2883 24.2494 13.4102 11.4542 69.2287 25.8683 10.0072 43.3604
internal_count=2809 2667 2126 348 239 1778 1756 180 142 110 87 1423 665 170 758
is_linear=0
shrinkage=0.1


Tree=9
num_leaves=16
num_cat=0
split_feature=1 4 2 3 3 4 2 2 7 6 3 5 9 6 5
split_gain=11.7278 4.99789 19.7409 12.5138 7.04149 4.01888 4.52325 3.85581 3.35784 3.18251 2.78815 2.76281 2.97438 4.07823 3.24516
threshold=0.06631212643873087 0.15479543112800861 105794.50000000001 115293.00000000001 115293.00000000001 1.5743993097939 149092.50000000003 183118.50000000003 0.52278904902018131 0.66824636590960973 100579.00000000001 0.12847706258482833 0.53500000000000014 0.31697542618930957 0.077848848747769164
decision_type=2 2 2 2 2 2 2 2 2 2 2 2 2 2 2
left_child=1 4 -3 7 -1 6 10 11 -9 -10 -2 12 -4 14 -14
right_child=5 2 3 -5 -6 -7 -8 8 9 -11 -12 -13 13 -15 -16
leaf_value=-0.13743546003017204 -0.13548200789885864 -0.11006884915227376 0.065319930438505536 -0.11201754191932699 0.027831904382352786 0.10867756494884628 -0.14883671724443479 0.0094456981492216704 -0.12520638155030245 0.091769505883018812 0.075136653591347274 0.07723122551820101 0.047717858102652083 -0.12154997569236162 -0.064358476193839984
leaf_weight=2.7611153265461317 0.70785832405090587 20.718441538047045 8.8211158253252524 8.2236748719587904 38.882962997071445 11.81917707249522 1.3712767334654925 11.933390446007254 4.0600403239950529 0.81103941239416588 5.6080256700515747 12.356070496141909 9.0736783742904645 2.6055504418909541 3.6118950825184575
leaf_count=119 10 979 56 448 479 26 32 177 147 9 24 61 93 57 92
internal_value=0 -0.0113504 -0.0256469 0.00279519 0.0168742 0.0720714 0.0157886 0.0205187 -0.0191137 -0.0890797 0.0515314 0.0387812 0.0190779 -0.00759814 0.015807
internal_weight=0 123.859 82.2149 61.4965 41.6441 19.5063 7.68716 53.2728 16.8045 4.87108 6.31588 36.4683 24.1122 15.2911 12.6856
internal_count=2809 2717 2119 1140 598 92 66 692 333 156 34 359 298 242 185
is_linear=0
shrinkage=0.1


Tree=10
num_leaves=16
num_cat=0
split_feature=8 7 2 2 3 3 0 7 12 12 0 3 12 1 11
split_gain=10.1589 4.20686 4.24716 4.3782 11.0579 7.53711 7.05882 2.88642 5.65697 4.16176 3.05297 3.80186 2.78639 2.71951 2.64487
threshold=0.70715000000000006 0.084637693011627671 188529.50000000003 142059.00000000003 115293.00000000001 100579.00000000001 0.052541418066859358 9.3279743194151248 0.59430000000000016 0.59165000000000012 0.0015686440436546501 142059.00000000003 0.5716500000000001 0.0087888953880507024 0.60420000000000007
decision_type=2 2 2 2 2 2 2 2 2 2 2 2 2 2 2
left_child=-1 -2 3 4 6 -5 -3 8 9 10 12 -12 13 -6 -9
right_child=1 2 -4 5 7 -7 -8 14 -10 -11 11 -13 -14 -15 -16
leaf_value=0.054344253811613723 -0.071926314884440942 -0.1116722410476214 -0.062660895377517442 0.043984399594209349 -0.12300952967844779 -0.13155859623426547 0.084795139672707937 0.010935316031990376 -0.074930380804412375 0.16548593155752664 0.091394757076500743 -0.093800463177116822 -0.16138136249416496 0.080672489753467996 0.097019984678784574
leaf_weight=27.570162187330425 11.081481810659168 14.059621098451318 12.057828944176434 29.994635881856084 0.72187205962837264 2.6630520052276543 2.1021645367145529 8.4385933494195324 8.4765368080697936 1.8862961493432511 1.477171417325734 4.4415272842161357 0.60143445339053858 7.1315025193616748 6.184918586164712
leaf_count=214 510 699 373 237 24 158 6 144 197 5 21 128 16 46 31
internal_value=0 -0.0134594 -0.00699571 0.000616067 -0.0164733 0.0296698 -0.0861177 0.0121238 -0.00869763 0.0258307 0.00750318 -0.04758 0.0460636 0.0619503 0.0473443
internal_weight=0 111.319 100.237 88.1793 55.5216 32.6577 16.1618 39.3599 24.7363 16.2598 14.3735 5.9187 8.45481 7.85337 14.6235
internal_count=2809 2595 2085 1712 1317 395 705 612 437 240 235 149 86 70 175
is_linear=0
shrinkage=0.1


Tree=11
num_leaves=16
num_cat=0
split_feature=1 0 12 0 1 5 7 6 0 11 12 5 5 12 7
split_gain=9.03406 6.41765 5.6054 5.27551 3.47226 4.82366 3.60901 3.18923 2.80543 2.76775 3.46871 3.80648 3.2085 2.72967 3.66363
threshold=0.048841414416846259 0.0023859806535203006 0.48715000000000003 0.0067480648890272006 0.013237600863311202 0.28266589081353183 0.12005608377503436 0.11144249945997386 0.0031168341172316504 0.85980000000000012 0.61535000000000006 0.12847706258482833 0.051478600591620807 0.56230000000000013 3.7034266048339233
decision_type=2 2 2 2 2 2 2 2 2 2 2 2 2 2 2
left_child=1 4 3 8 6 -6 -1 -2 -3 10 11 -8 -12 14 -13
right_child=7 2 -4 -5 5 -7 9 -9 -10 -11 12 13 -14 -15 -16
leaf_value=-0.11522126327305884 0.010841848917684341 -0.099010179117101471 -0.07865214137887945 -0.11317492833518368 0.054139942832520264 -0.13861464000640975 -0.064589743981901079 0.071947733205359451 0.044738708031962005 0.055834454240103006 0.08059732104647338 0.029997902389152554 -0.093779494402753988 0.066865054717245437 -0.11806726965473296
leaf_weight=3.0876488075591615 15.668206407688556 1.543324149679395 22.918146181851625 3.3683786359615615 17.893808233086023 1.3998406790196884 5.8273178907111349 18.777314638718963 11.285494544543324 6.6452134917490175 1.2295637521892766 5.7334382701665181 7.4397768774069846 9.0074895210564119 2.358551955781877
leaf_count=168 199 51 972 174 198 54 139 113 174 63 7 93 226 107 71
internal_value=0 -0.0152485 -0.0468278 -0.00179799 0.00512723 0.0401547 -0.0112247 0.0441525 0.0274455 -0.00282789 -0.0151656 0.00520895 -0.0690478 0.0289956 -0.0131583
internal_weight=0 99.738 39.1153 16.1972 60.6226 19.2936 41.329 34.4455 12.8288 38.2414 31.5961 22.9268 8.66934 17.0995 8.09199
internal_count=2809 2497 1371 399 1126 252 874 312 225 706 643 410 233 271 164
is_linear=0
shrinkage=0.1


Tree=12
num_leaves=16
num_cat=0
split_feature=8 9 4 4 2 3 4 13 7 5 5 13 9 0 9
split_gain=7.50707 3.44012 4.65301 11.7822 3.9922 3.84575 3.60259 3.15007 3.01355 4.29659 4.41238 3.06424 2.3966 2.60145 2.3841
threshold=0.51665000000000016 0.49500000000000005 0.15479543112800861 1.9816950721476945 74438.000000000015 115293.00000000001 1.7327328169207625 0.15000000000000005 0.89967117936187568 0.12847706258482833 0.070716342126032811 0.45000000000000007 0.46500000000000002 0.020195454225554552 0.53500000000000014
decision_type=2 2 2 2 2 2 2 2 2 2 2 2 2 2 2
left_child=-1 6 5 -4 -5 -3 12 -6 9 10 11 -9 -2 -14 -7
right_child=1 2 3 4 7 14 -8 8 -10 -11 -12 -13 13 -15 -16
leaf_value=0.054548157222447026 -0.077315787887882209 -0.12912537320395379 -0.10861790453364661 -0.12055868186942278 -0.051125255800463815 -0.11801501871321962 0.066523051050411369 -0.05171827975058936 -0.12082325814087858 0.075652954441172551 -0.086261071346829976 0.059584030865463544 -0.09177412723675199 0.1021519506837763 0.023201484816757788
leaf_weight=21.142006842419505 3.9506714441813555 1.8778169555589546 16.058518258854747 2.8891689027659586 8.7325391164049488 1.2416788525879372 10.652515420690177 3.5118956994265416 1.4931956636719395 10.380155670456586 4.8811605609953395 8.3656580643728358 1.0219531869515779 2.1408296283334494 32.15400068089366
leaf_count=142 124 106 1045 193 202 30 66 82 78 53 151 72 42 10 413
internal_value=0 -0.0105463 -0.0183582 -0.0361974 -0.00730651 0.0101212 0.0297248 0.00145056 0.0174857 0.0250956 -0.00621908 0.0266747 -0.0253812 0.0394909 0.0179509
internal_weight=0 109.352 91.5858 56.3123 40.2538 35.2735 17.766 37.3646 28.6321 27.1389 16.7587 11.8776 7.11345 3.16278 33.3957
internal_count=2809 2667 2425 1876 831 549 242 638 436 358 305 154 176 52 443
is_linear=0
shrinkage=0.1


Tree=13
num_leaves=16
num_cat=0
split_feature=1 2 7 4 2 3 4 2 0 5 4 9 7 6 5
split_gain=6.71316 2.64221 2.40245 5.59993 6.80082 6.0619 4.93706 4.80231 2.67064 2.5168 4.22537 2.27049 2.2218 2.21723 2.13549
threshold=0.10636029629723491 44732.500000000007 9.3279743194151248 1.8973570371799819 105794.50000000001 92735.000000000015 0.12691252885761992 178460.50000000003 0.024907497247820053 0.12141638936285361 5.8705462981011154 0.42500000000000004 125.50762501375443 0.074828263300649664 0.097936140627007714
decision_type=2 2 2 2 2 2 2 2 2 2 2 2 2 2 2
left_child=2 -2 3 5 -5 -1 12 11 9 14 -11 13 -4 -7 -6
right_child=1 -3 6 4 8 7 -8 -9 -10 10 -12 -13 -14 -15 -16
leaf_value=-0.12264261240437846 -0.053416851966999135 0.10255743367874666 0.056938741624388778 -0.1052183072716661 0.0044600093048820398 -0.1366594447217819 -0.1194911506261019 -0.12510238393599532 0.079307954369643441 -0.12910051938341657 0.057744097864168953 -0.018762724042561036 -0.13625860688208949 0.099839755058287946 -0.074625468319653429
leaf_weight=7.1170994727872303 1.2546797432005394 8.0822486318647844 14.021102579310536 4.6992609673179677 22.054246367886666 0.45903686527162735 1.9804533668793727 4.0824395804665974 6.7141237184405318 1.3180770808830882 14.805772327817975 32.105790009722114 0.62164631672203619 2.9059372982010245 4.0397324841469517
leaf_count=519 12 20 128 286 337 15 154 240 36 32 106 783 15 20 106
internal_value=0 0.0815979 -0.00651593 -0.0123514 0.00969047 -0.0376809 0.0286944 -0.0223931 0.0207259 0.0114093 0.0424701 -0.010572 0.0487367 0.0675774 -0.00778359
internal_weight=0 9.33693 116.925 100.302 53.6312 46.6703 16.6232 39.5532 48.932 42.2178 16.1238 35.4708 14.6427 3.36497 26.094
internal_count=2809 32 2777 2480 903 1577 297 1058 617 581 138 818 143 35 443
is_linear=0
shrinkage=0.1


Tree=14
num_leaves=16
num_cat=0
split_feature=1 6 5 9 3 2 4 1 3 2 6 2 2 4 6
split_gain=5.47393 2.32456 2.06311 2.01019 2.89506 7.23028 3.26294 2.20118 2.41205 2.16999 2.15579 2.08999 2.98404 2.93858 4.00044
threshold=0.075643113836319262 0.10421096847410642 0.058078177218171011 0.58500000000000008 149092.50000000003 115293.00000000001 0.12691252885761992 0.012032960015343401 212965.50000000003 183118.50000000003 0.90013507823645278 175411.00000000003 135612.50000000003 0.31281583872184721 0.32721266157026413
decision_type=2 2 2 2 2 2 2 2 2 2 2 2 2 2 2
left_child=3 2 -2 7 5 -5 -6 8 -1 -7 -8 12 13 -9 -15
right_child=1 -3 -4 4 6 9 10 11 -10 -11 -12 -13 -14 14 -16
leaf_value=-0.088159750319704175 -0.13137011866664111 0.092057093209265278 0.039529874380733861 -0.098964045622739763 0.023152496193946999 0.014292459231699764 -0.093744288969820497 0.028360089064675732 0.14740383119984699 -0.052725258088191708 0.19042174919840404 -0.01774613169874344 0.070044063878998239 -0.10263351152187501 0.12539965800623554
leaf_weight=3.7493328377604476 0.92716441862285082 8.5452058278024179 2.9663731437176466 12.457878422923384 20.786376498639587 16.914581225719306 3.8537915516644707 14.480292496737098 0.49168502958491433 6.7633253023959687 0.28684052266180504 13.837951451539992 11.260174670722334 4.1245200913399449 0.94573283661156882
leaf_count=122 10 26 20 784 248 234 258 232 4 223 17 286 120 222 3
internal_value=0 0.0628766 -0.00116638 -0.00711312 -0.0192117 -0.0372962 0.0070047 0.00799795 -0.0608495 -0.00485039 -0.0740588 0.0145375 0.029037 0.00541893 -0.0600994
internal_weight=0 12.4387 3.89354 109.952 61.0628 36.1358 24.927 48.8897 4.24102 23.6779 4.14063 44.6487 30.8107 19.5505 5.07025
internal_count=2809 56 30 2753 1764 1241 523 989 126 457 275 863 577 457 225
is_linear=0
shrinkage=0.1


Tree=15
num_leaves=16
num_cat=0
split_feature=1 0 12 0 0 0 12 11 11 6 5 13 9 6 1
split_gain=5.46626 4.36747 4.73035 3.52495 3.00184 3.3157 2.58517 2.53532 2.76636 2.39777 3.99094 3.33861 2.32702 2.31153 2.27106
threshold=0.048841414416846259 0.0023859806535203006 0.48715000000000003 0.0067480648890272006 0.00054416247864505008 0.00064657771723520012 0.67135000000000011 0.28375000000000006 0.93950000000000011 0.077848848747769164 0.17738567550977588 0.15000000000000005 0.72500000000000009 0.074828263300649664 0.019810645534267101
decision_type=2 2 2 2 2 2 2 2 2 2 2 2 2 2 2
left_child=1 4 3 13 12 -6 -2 -7 9 11 14 -9 -1 -3 -11
right_child=6 2 -4 -5 5 7 -8 8 -10 10 -12 -13 -14 -15 -16
leaf_value=-0.01866002290845643 0.022303631567208111 -0.13535581081682552 -0.072466624832651941 -0.1011786005052054 0.082041795149520425 -0.048881919246193083 0.095981827461518843 -0.16939539789271885 -0.16194014226385756 0.039442409390923396 -0.062852325506753723 0.088308597011508005 -0.1365288614071116 0.039700789597077506 -0.1118306186858878
leaf_weight=6.7259509647265059 24.112797899171714 0.81170236319303413 19.676494219806045 2.6225512512028208 6.4010565606877199 7.2706183879636219 5.9342370964586726 0.54104816168546932 0.84584899200126429 16.334626014344401 6.2617391170933834 7.0958293005824089 2.2303837868385017 10.665932296309618 1.056642573326825
leaf_count=154 280 34 972 174 71 218 32 12 24 239 267 56 74 191 11
internal_value=0 -0.0125071 -0.0407872 0.00342061 0.00493531 0.0152878 0.0368549 0.00444446 0.0165094 0.0213334 0.00560382 0.0700511 -0.0480127 0.0273207 0.0302515
internal_weight=0 88.5404 33.7767 14.1002 54.7637 45.8074 30.047 39.4064 32.1357 31.2899 23.653 7.63688 8.95633 11.4776 17.3913
internal_count=2809 2497 1371 399 1126 898 312 827 609 585 517 68 228 225 250
is_linear=0
shrinkage=0.1


Tree=16
num_leaves=16
num_cat=0
split_feature=1 2 8 4 4 2 2 3 4 11 9 7 6 12 4
split_gain=4.73827 2.76987 1.8093 2.16973 7.30959 4.93448 2.6027 2.40161 1.90426 1.84735 1.77054 2.43527 2.05749 1.74958 3.2713
threshold=0.075643113836319262 24778.500000000004 0.66250000000000009 0.15479543112800861 1.9417597227581911 135612.50000000003 188529.50000000003 115293.00000000001 0.14564880922385656 0.51400000000000012 0.47500000000000003 0.66442209216629899 0.90013507823645278 0.49365000000000009 1.5743993097939
decision_type=2 2 2 2 2 2 2 2 2 2 2 2 2 2 2
left_child=2 -2 13 7 10 -6 -7 -4 -9 -8 11 -5 -12 14 -1
right_child=1 -3 3 4 5 6 9 8 -10 -11 12 -13 -14 -15 -16
leaf_value=-0.12094029305431518 -0.084348647693906917 0.079005068675689585 -0.12010653032073762 -0.12741774803677572 -0.097407673136009496 0.025566727714815621 -0.097519466396070092 0.0084121515930558298 0.13307184959810411 -0.0028523649228016324 -0.10955755313886467 0.066627642357654657 0.0978845275227999 0.055335261996503571 0.042089956116074474
leaf_weight=1.9480923945084203 1.1585111655294884 9.9793510604649764 1.4096618830226351 1.0799140133894973 4.8225126052275291 27.404292623512447 3.1919649541378003 32.465790980495512 1.2734544221311797 5.819600114133209 11.502408684231337 1.6124424580484626 0.49886386934667903 8.4838076718151552 3.3426413238048553
leaf_count=55 15 41 111 75 339 278 111 458 5 148 1004 28 28 80 33
internal_value=0 0.0620137 -0.00658717 -0.0116956 -0.0239309 -0.00235194 0.0102362 0.00777431 0.0131173 -0.0363842 -0.0844932 -0.0112047 -0.100935 0.0271909 -0.0179391
internal_weight=0 11.1379 104.855 91.0809 55.932 41.2384 36.4159 35.1489 33.7392 9.01157 14.6936 2.69236 12.0013 13.7745 5.29073
internal_count=2809 56 2753 2585 2011 876 537 574 463 259 1135 103 1032 168 88
is_linear=0
shrinkage=0.1


Tree=17
num_leaves=16
num_cat=0
split_feature=1 8 7 7 10 4 2 7 5 4 2 0 9 4 1
split_gain=3.86579 1.79184 1.76999 2.6839 3.03513 2.31177 2.21799 2.14402 1.76265 1.75558 2.7667 2.12611 2.76295 1.71986 1.61634
threshold=0.12279787270998756 0.70715000000000006 0.11044412218262166 0.22466516380314283 0.65000000000000002 0.026988386449934704 188529.50000000003 0.2966994908209834 0.16217379476095542 1.5743993097939 159538.50000000003 0.013087738374669202 0.76500000000000012 29.517499587643812 0.06215702796176286
decision_type=2 2 2 2 2 2 2 2 2 2 2 2 2 2 2
left_child=1 9 5 4 6 -3 8 -5 -4 10 11 12 -1 14 -7
right_child=-2 2 3 7 -6 13 -8 -9 -10 -11 -12 -13 -14 -15 -16
leaf_value=-0.1440855851404132 0.07772568025428267 0.15735636056144414 0.077880018485832272 -0.077001850817235179 -0.11750841495113269 -0.082882615198085277 -0.12703207628087151 -0.0074412866107214475 -0.12363863678617325 0.055719110557272113 -0.14536069356097209 0.055593698244292 0.089151804797898457 0.071484727930480788 0.053742287477747834
leaf_weight=1.4655568981543203 6.0545121878385535 0.52724838256835838 9.2782112872227973 4.7729170741513363 1.1057035150006402 8.8579927687533146 0.61721264803782183 61.855779297184199 0.45534716988913793 8.9761979114264232 1.2494254652410743 4.5766785135492682 0.77726459782570589 0.94849759712815362 0.95973163470625955
leaf_count=54 24 1 110 166 81 552 35 1582 39 71 31 34 6 8 15
internal_value=0 -0.00442186 -0.0100883 -0.00473658 0.0399733 -0.0470915 0.0567961 -0.0124242 0.0684527 0.0252912 -0.00855801 0.0165061 -0.0632556 -0.0571038 -0.0695268
internal_weight=0 106.424 89.3786 78.0852 11.4565 11.2935 10.3508 66.6287 9.73356 17.0451 8.06893 6.8195 2.24282 10.7662 9.81772
internal_count=2809 2785 2589 2013 265 576 184 1748 149 196 125 94 60 575 567
is_linear=0
shrinkage=0.1


Tree=18
num_leaves=16
num_cat=0
split_feature=1 0 3 4 2 3 7 7 4 0 6 11 1 5 0
split_gain=3.26288 3.44126 2.23762 1.80546 3.18581 2.36445 1.7261 1.71273 1.70298 1.50942 2.25315 1.42371 2.28208 1.9768 1.76028
threshold=0.049523988628167807 0.0067480648890272006 5201.0000000000009 1.3213319532462244 142059.00000000003 100579.00000000001 62.344006632611368 0.50526173029655741 0.050511282788444252 0.023850345846023753 0.31697542618930957 0.21055000000000004 0.0089915948990452015 0.051478600591620807 0.00014589658738720004
decision_type=2 2 2 2 2 2 2 2 2 2 2 2 2 2 2
left_child=1 6 -3 4 5 -2 11 9 -7 10 -5 13 14 -1 -13
right_child=3 2 -4 7 -6 8 -8 -9 -10 -11 -12 12 -14 -15 -16
leaf_value=0.052430866104658851 -0.13578310648553829 0.12747472405313617 -0.087297775998028015 -0.062036006569496552 -0.11661598157034642 -0.094665364699641319 -0.13129964983248679 -0.068199867198790828 0.052688321892855543 0.081892609001571595 0.12034295718744151 0.041194207077805231 0.011563196097073852 -0.049975868988826166 -0.079333838791039044
leaf_weight=2.29467645054683 0.84559184778481977 0.51975967176258464 7.2741670785471797 1.9506388939917081 1.9079759335145343 0.86521438509225745 1.0372998327948142 1.0576389972120512 8.3875688752159459 10.448959378525613 1.0377821028232572 1.5936450166627754 55.141020964598283 10.557419376913456 5.0563119994476438
leaf_count=23 21 7 520 34 75 11 62 12 83 54 2 24 1203 474 204
internal_value=0 -0.00970532 -0.0729751 0.0305699 0.00189096 0.0242815 -0.0031895 0.054325 0.0389095 0.0639688 0.00129832 -0.00140918 0.00488937 -0.0316917 -0.0504496
internal_weight=0 83.4743 7.79393 26.5014 12.0064 10.0984 75.6804 14.495 9.25278 13.4374 2.98842 74.6431 61.791 12.8521 6.64996
internal_count=2809 2517 527 292 190 115 1990 102 94 90 36 1928 1431 497 228
is_linear=0
shrinkage=0.1


Tree=19
num_leaves=16
num_cat=0
split_feature=1 4 4 3 2 13 1 0 1 0 0 7 5 3 9
split_gain=3.21013 1.36421 6.25836 4.42601 4.29939 2.39779 2.58467 2.29836 2.06181 1.58148 2.76599 1.55503 2.0263 1.65969 1.43877
threshold=0.12279787270998756 1.8973570371799819 0.31281583872184721 115293.00000000001 100579.00000000001 1.0000000180025095e-35 0.055384453106798702 0.0053953304807753512 0.06215702796176286 0.016778666851224453 0.0044871198274131505 0.89967117936187568 0.12847706258482833 24778.500000000004 0.42500000000000004
decision_type=2 2 2 2 2 2 2 2 2 2 2 2 2 2 2
left_child=1 2 3 -1 -3 7 9 -5 11 10 -7 12 -6 -14 -4
right_child=-2 4 14 5 8 6 -8 -9 -10 -11 -12 -13 13 -15 -16
leaf_value=-0.12021932599477031 0.076650484225513502 -0.10206851433827871 0.0065863742851490562 -0.091411884695586254 -0.0021506983774976811 0.012333245565279614 -0.15170704259675799 0.10397176435437108 0.078369396270716651 0.094577265872304125 -0.093706997831179667 -0.11385282315833965 0.057651718325959937 -0.13237070673486825 -0.086245049043689723
leaf_weight=2.6495291572064152 5.1988074090331784 3.2635933589190236 1.9452459150925268 0.69740496389567752 26.970730489585549 27.924235020298514 1.0373414307832707 4.4039244935847819 4.8535136133432379 2.0091556319966903 2.6974791744723907 0.99997177487239142 10.287503789179024 0.48113485053181726 11.780256664147599
leaf_count=233 24 273 56 19 510 392 15 26 19 19 108 62 64 22 967
internal_value=0 -0.00390674 -0.0145671 0.0048258 0.00863927 0.0133714 0.00369108 0.0772608 0.0169274 0.00863122 0.00299212 0.0092296 0.0124909 0.0491617 -0.0730885
internal_weight=0 102.001 55.1446 41.4191 46.8564 38.7695 33.6682 5.10133 43.5929 32.6309 30.6217 38.7393 37.7394 10.7686 13.7255
internal_count=2809 2785 1835 812 950 579 534 45 677 519 500 658 596 86 1023
is_linear=0
shrinkage=0.1


Tree=20
num_leaves=16
num_cat=0
split_feature=0 8 7 9 4 2 12 7 12 5 12 12 12 2 1
split_gain=2.83833 1.74271 1.34997 1.2847 2.03446 3.59628 2.48256 2.07368 2.3589 1.94918 1.91906 2.0811 2.32482 1.55932 1.55107
threshold=0.074248479538394876 0.51665000000000016 0.23659424953894201 0.58500000000000008 0.12691252885761992 115293.00000000001 0.59815000000000007 3.7034266048339233 0.6281000000000001 0.29992734164281304 0.58650000000000013 0.50635000000000008 0.49240000000000006 197945.50000000003 0.011878917485868102
decision_type=2 2 2 2 2 2 2 2 2 2 2 2 2 2 2
left_child=1 2 -1 9 6 -6 14 -8 -9 10 11 12 -3 -7 -5
right_child=-2 3 -4 4 5 13 7 8 -10 -11 -12 -13 -14 -15 -16
leaf_value=-0.0095357701777566764 0.091644042003050069 -0.013492250744668142 0.057509305062962791 0.062080459474919192 -0.10053024350959126 -0.004941884096613754 -0.12004127158374729 -0.10931990318650087 0.029074742044039315 -0.089621322434877873 0.035184068139957607 -0.061298371565956335 0.081057950284269209 -0.083041817746982577 -0.0071981326189502846
leaf_weight=4.8867172123864275 3.2728513404726973 10.260442278813573 7.7920043501071632 7.3182103745639342 6.700609793886545 17.687015738803897 2.2569701499305648 1.686021765694022 4.5696319327689707 2.0362556092441073 17.246333393501118 5.7224108851514748 3.4834264083765438 2.988347952021285 5.7874298705719411
leaf_count=77 16 281 57 73 737 422 93 39 56 79 354 187 34 197 107
internal_value=0 -0.00298677 0.0316683 -0.00799438 -0.0187554 -0.0368637 0.00417586 -0.0378713 -0.00822534 0.00561185 0.0108939 -0.0106261 0.0104718 -0.0162302 0.0314871
internal_weight=0 100.422 12.6787 87.7431 48.9942 27.376 21.6183 8.51262 6.25565 38.7489 36.7126 19.4663 13.7439 20.6754 13.1056
internal_count=2809 2793 134 2659 1724 1356 368 188 95 935 856 502 315 619 180
is_linear=0
shrinkage=0.1


Tree=21
num_leaves=16
num_cat=0
split_feature=1 0 6 3 7 0 0 7 0 7 0 11 0 0 0
split_gain=2.19779 2.45444 1.58463 1.5718 1.56338 2.3209 1.99969 1.46914 1.26699 1.18791 1.07794 1.26149 1.94599 1.54174 2.34149
threshold=0.049523988628167807 0.0067480648890272006 0.11144249945997386 5201.0000000000009 9.3279743194151248 0.028627688002540053 0.02928845863428885 62.344006632611368 0.064028572076299264 27.117726780503386 0.0063126728196746008 0.093300000000000022 0.00096147835705535012 0.00054416247864505008 0.00064657771723520012
decision_type=2 2 2 2 2 2 2 2 2 2 2 2 2 2 2
left_child=1 7 4 -3 5 -2 -7 10 -4 -5 11 12 -1 -13 -15
right_child=2 3 8 9 -6 6 -8 -9 -10 -11 -12 13 -14 14 -16
leaf_value=0.025415134649436288 -0.11059274040871568 0.11677503475887233 0.036648802961406074 -0.091990573806193077 0.098050561876716916 0.12989978596003354 -0.010823466411189147 -0.12791088694216474 0.11876593107678318 0.052929751475255617 0.060615644106678052 -0.040886977744224062 -0.066319365731896368 0.077808364327317428 0.0019385148601635137
leaf_weight=3.4864871490281057 1.9716771459206954 0.44412981858476897 9.0445694057270867 5.7656426699832082 1.4356519663706411 1.1949792085215447 6.5158975599333644 0.92119952780194481 2.3715786188840857 0.62714153761044134 2.7465512421913436 7.1843724595382801 6.8672857861965895 4.4599071727134278 46.260543718701228
leaf_count=93 53 7 97 499 9 5 121 62 7 21 46 205 370 52 1162
internal_value=0 -0.00787869 0.027538 -0.0651357 0.000667036 -0.0137722 0.0109849 -0.00243616 0.0537077 -0.0777737 -0.000808293 -0.00327984 -0.0354291 0.00246866 0.00860984
internal_weight=0 78.7633 22.5344 6.83691 11.1182 9.68255 7.71088 71.9263 11.4161 6.39278 71.0051 68.2586 10.3538 57.9048 50.7205
internal_count=2809 2517 292 527 188 179 126 1990 104 520 1928 1882 463 1419 1214
is_linear=0
shrinkage=0.1


Tree=22
num_leaves=16
num_cat=0
split_feature=1 0 3 4 12 3 7 1 12 11 9 5 0 6 12
split_gain=1.87377 2.09927 1.5782 1.78777 1.51191 1.18222 1.10034 1.54242 1.3327 1.75914 1.52024 1.48416 1.44293 1.93294 1.6189
threshold=0.049523988628167807 0.0067480648890272006 178460.50000000003 0.55434754190436297 0.54185000000000005 5201.0000000000009 0.084637693011627671 0.0148884919975315 0.59865000000000013 0.62860000000000005 0.89500000000000013 0.29992734164281304 0.0022871137745877003 0.28805296405854558 0.6856000000000001
decision_type=2 2 2 2 2 2 2 2 2 2 2 2 2 2 2
left_child=1 6 -2 4 -4 -3 7 -1 -8 11 -11 12 13 -10 -14
right_child=2 5 3 -5 -6 -7 8 -9 9 10 -12 -13 14 -15 -16
leaf_value=-0.1051013812960937 0.039396354696022602 0.10202977937953268 0.064025071854466153 -0.12456157669514932 -0.088400972867218652 -0.073916883202259684 0.012793635223786695 0.00011966886857764781 0.01722743842951344 0.028170607080140547 -0.18655353076764147 -0.11164557975933516 -0.10464124393448404 -0.092106172798319341 0.041786072977131494
leaf_weight=2.4187699961476019 17.394949983805422 0.40829710243269701 2.0172835970297451 1.3308222214691339 0.96061650570482005 5.9039560395758599 39.739566425094381 3.2855138673912734 8.4770026933401876 8.4962397743947768 0.34303676849231202 2.2071352959610513 3.3936732159927478 1.9981600153259922 0.97110709780827154
leaf_count=245 190 7 18 59 25 520 896 141 138 148 10 121 194 76 21
internal_value=0 -0.00726105 0.0259756 -0.028206 0.0148552 -0.0625361 -0.00236957 -0.0444969 0.00129219 -0.0163643 0.0198375 -0.0351358 -0.0237565 -0.00362819 -0.0720631
internal_weight=0 77.6425 21.7037 4.30872 2.9779 6.31225 71.3302 5.70428 65.6259 25.8864 8.83928 17.0471 14.8399 10.4752 4.36478
internal_count=2809 2517 292 102 43 527 1990 386 1604 708 158 550 429 214 215
is_linear=0
shrinkage=0.1


Tree=23
num_leaves=16
num_cat=0
split_feature=0 8 2 6 12 12 4 4 2 3 0 1 9 9 1
split_gain=1.89582 1.11601 1.92873 2.43962 1.65738 2.22489 1.25343 4.50937 2.73603 1.60447 1.44666 1.8531 3.07226 2.57055 2.48436
threshold=0.074248479538394876 0.70715000000000006 105794.50000000001 0.092972339561743861 0.49365000000000009 0.64080000000000015 0.15479543112800861 1.9816950721476945 135612.50000000003 115293.00000000001 0.00054416247864505008 0.011878917485868102 0.66500000000000015 0.69500000000000006 0.043765840735741711
decision_type=2 2 2 2 2 2 2 2 2 2 2 2 2 2 2
left_child=1 2 4 -4 -1 -6 9 -8 -9 -3 -11 13 -13 -12 -14
right_child=-2 6 3 -5 5 -7 7 8 -10 10 11 12 14 -15 -16
leaf_value=-0.095577318162359454 0.082906714675730714 -0.11659310078093513 -0.14560024277683814 0.061034768632327666 0.089391765903417367 -0.077603584049034613 -0.073420549142203653 -0.081378416087552655 0.0092290048143998625 -0.048578894165010836 -0.028611919332842812 0.023534470911321409 -0.11379576171627388 0.093038369258173381 0.060051629004997692
leaf_weight=2.0891490848734966 2.682248890399932 1.0051389497239132 0.60856305062770744 9.3476686719804984 1.8787905275821688 1.3866249234415589 11.062045661732553 3.7238047483842811 31.729031698778272 3.5380821619182852 2.4317757505923527 15.483785599935802 3.3347931290045372 6.0796447526663542 1.0909197600558398
leaf_count=57 16 111 23 74 7 43 1146 334 533 78 34 229 84 32 8
internal_value=0 -0.002346 0.0223758 0.0484044 -0.0260215 0.0184789 -0.0071084 -0.0176802 -0.000287987 0.00780918 0.0117217 0.0192285 0.00253291 0.058282 -0.0709431
internal_weight=0 94.7898 15.3108 9.95623 5.35456 3.26542 79.479 46.5149 35.4528 32.9641 31.959 28.4209 19.9095 8.51142 4.42571
internal_count=2809 2793 204 97 107 50 2589 2013 867 576 465 387 321 66 92
is_linear=0
shrinkage=0.1


Tree=24
num_leaves=16
num_cat=0
split_feature=1 2 7 10 9 3 7 8 9 0 3 1 9 4 2
split_gain=1.65712 2.05683 1.03023 0.851004 1.83617 1.30209 1.26541 1.15779 1.15119 1.17807 3.10275 2.26116 1.64536 3.03519 2.10026
threshold=0.075643113836319262 24778.500000000004 0.0099815045809607001 0.75000000000000011 0.76500000000000012 204297.00000000003 3.5486244572242027 0.48075000000000007 0.80500000000000016 0.0015943373911356501 204297.00000000003 0.013917710118652102 0.69500000000000006 0.11952443533425382 24778.500000000004
decision_type=2 2 2 2 2 2 2 2 2 2 2 2 2 2 2
left_child=3 -2 -3 8 5 7 -7 -5 9 11 -11 12 14 -14 -1
right_child=1 2 -4 4 -6 6 -8 -9 -10 10 -12 -13 13 -15 -16
leaf_value=-0.060581228132565147 -0.090393688282300697 -0.073012831003020029 0.079143012030868598 0.038085437236176301 0.0092394023582021631 -0.13786332860907458 0.1072198543321318 -0.095265252491251631 -0.092549772897149205 -0.0010923724892834608 -0.11473006284478666 0.066156635757559409 0.094492644561350203 -0.10744545190607345 0.016473311431094827
leaf_weight=6.0427741365274477 0.95436432212591071 0.48254343681037415 5.7189693693071604 0.73987681139260519 7.3948987531475723 0.28941178321838357 0.7743267435580492 5.4254606887698156 1.3022358410526056 42.730307597666979 2.5458664821926495 7.3632940379902712 3.6437418400309971 0.93536948459222902 8.5315965611953271
leaf_count=190 15 8 33 10 175 13 5 363 58 1443 166 66 26 70 168
internal_value=0 0.0462719 0.0673037 -0.00377473 -0.0257954 -0.0616338 0.04054 -0.0792624 0.000630888 0.00232107 -0.00748219 0.0190597 0.000953904 0.053243 -0.0154748
internal_weight=0 7.15588 6.20151 87.7192 14.624 7.22908 1.06374 6.16534 73.0952 71.793 45.2762 26.5168 19.1535 4.57911 14.5744
internal_count=2809 56 41 2753 566 391 18 373 2187 2129 1609 520 454 96 358
is_linear=0
shrinkage=0.1


Tree=25
num_leaves=16
num_cat=0
split_feature=1 1 5 12 2 2 13 2 4 9 3 2 0 0 11
split_gain=1.57935 1.25253 1.18892 1.28782 1.03354 1.30659 2.1059 1.8928 1.74013 1.46015 2.00104 2.78746 1.90675 2.40966 1.86827
threshold=0.048841414416846259 0.044364063058272458 0.23145188058874677 0.67135000000000011 184261.00000000003 181506.50000000003 0.15000000000000005 178460.50000000003 45.584525602364742 0.55500000000000016 149092.50000000003 115293.00000000001 0.0024159608598145507 0.0023228010642337006 0.51400000000000012
decision_type=2 2 2 2 2 2 2 2 2 2 2 2 2 2 2
left_child=1 4 3 -2 5 7 8 9 -7 -1 11 -11 13 -12 -13
right_child=2 -3 -4 -5 -6 6 -8 -9 -10 10 12 14 -14 -15 -16
leaf_value=0.021856273355256684 0.016525348590628347 -0.09229313539081406 -0.15760041939595679 0.084741668382179017 -0.0360913707787466 -0.15164816600438655 0.083488582082350035 -0.13898645495245915 0.11435061547315194 -0.084540154796736641 0.01435285270235896 0.043116284118474735 -0.052318167934027805 0.20126260640558 -0.046495952635465077
leaf_weight=17.484940120717511 16.580709412693984 1.6775775523856271 0.35157344210892816 3.3218923378735772 9.2232689016964269 0.80213802331127115 3.9121370569337159 1.028366146609186 0.35468247532844543 7.4427466377383125 16.336348994867883 4.5759316440671665 4.2928607482463113 0.72015506261959572 4.7327377705369145
leaf_count=413 273 140 11 28 431 30 35 31 1 803 230 60 200 6 117
internal_value=0 -0.00688991 0.024691 0.0279112 -0.00486935 -0.00020082 0.0484388 -0.00455578 -0.0700926 -0.00206874 -0.0130482 -0.0389201 0.00725169 0.0222445 -0.0024446
internal_weight=0 72.5839 20.2542 19.9026 70.9063 61.683 5.06896 56.6141 1.15682 55.5857 38.1008 16.7514 21.3494 17.0565 9.30867
internal_count=2809 2497 312 301 2357 1926 66 1860 31 1829 1416 980 436 236 177
is_linear=0
shrinkage=0.1


Tree=26
num_leaves=16
num_cat=0
split_feature=8 7 7 4 9 9 5 7 5 0 1 1 1 3 9
split_gain=1.31311 0.968842 1.28946 1.03454 0.975052 1.34181 1.05501 1.09679 2.36581 1.87443 2.32785 2.24191 2.45502 2.64024 1.48324
threshold=0.16025000000000003 0.029537530137968553 0.035840335337126251 0.042989431289489059 0.47500000000000003 0.52500000000000013 0.66824636590960973 8.2616314145082335 0.31697542618930957 0.0015432465555008503 0.013917710118652102 0.013533401803892403 0.013566256856357551 142059.00000000003 0.7350000000000001
decision_type=2 2 2 2 2 2 2 2 2 2 2 2 2 2 2
left_child=-1 3 -3 -2 -4 -6 7 8 9 10 -7 -11 -13 -14 -9
right_child=1 2 4 -5 5 6 -8 14 -10 11 -12 12 13 -15 -16
leaf_value=0.081064465477602266 0.08471588922002711 0.084737696002407159 0.027027152938871275 -0.060749393686495491 -0.05917338853496721 -0.00070232217127829961 -0.10090782116474194 0.046613830726365608 -0.10257298503739687 -0.10929399109351301 0.071282936689369567 0.14024930474458136 -0.00017134544939316384 -0.08150235082812067 -0.025723268719269721
leaf_weight=1.9553609769791354 0.54967408254742522 1.7893914466258127 10.744603464729151 4.4228492435067892 4.3394157721195361 15.804967805626804 1.057337796781211 9.5422398345544917 2.4564215714344746 2.5126146182883558 6.276195458136498 1.0390240596607352 19.680290061864074 5.0069258578587315 4.0324587030336252
leaf_count=12 6 44 201 302 154 399 141 139 150 185 45 9 632 328 62
internal_value=0 -0.00177594 0.000754718 -0.0446693 -0.001067 -0.00527424 -0.00180449 -0.000225231 -0.00674575 -0.00206785 0.0197583 -0.0191346 -0.010329 -0.0166665 0.0251256
internal_weight=0 89.2544 84.2819 4.97252 82.4925 71.7479 67.4085 66.3511 52.7764 50.32 22.0812 28.2389 25.7262 24.6872 13.5747
internal_count=2809 2797 2489 308 2445 2244 2090 1949 1748 1598 444 1154 969 960 201
is_linear=0
shrinkage=0.1


Tree=27
num_leaves=16
num_cat=0
split_feature=1 0 6 1 12 7 0 0 7 7 12 3 12 11 7
split_gain=1.28517 1.27079 1.10555 1.59104 2.07194 1.20966 1.21298 1.03354 1.10826 1.5464 1.3163 1.43245 1.54991 1.37298 1.29404
threshold=0.049523988628167807 0.0067480648890272006 0.11144249945997386 0.055384453106798702 0.54185000000000005 0.15454638653823313 0.044926726505575158 0.0063126728196746008 0.11044412218262166 0.12805315666093633 0.59865000000000013 5201.0000000000009 0.59025000000000005 0.40720000000000006 0.27518074642163876
decision_type=2 2 2 2 2 2 2 2 2 2 2 2 2 2 2
left_child=1 7 3 4 -2 6 -5 8 -1 -10 11 -11 14 -14 -13
right_child=2 -3 -4 5 -6 -7 -8 -9 9 10 -12 12 13 -15 -16
leaf_value=-0.0451776718178327 0.11000948336652856 -0.052447965978685979 0.047444505423289818 0.064732649066160622 -0.06607160201578316 -0.073185357172090029 -0.055556177190628477 0.059427733132356268 0.08224006005593823 -0.072315175569798051 -0.023006597690885436 0.051955206079640028 -0.12538270289780448 0.09638576845279323 -0.0041943983011616939
leaf_weight=6.1599050470395005 2.235913211014124 5.4853741246042764 9.4029690464958531 1.9348827828653159 0.95314761158078898 3.1676491894759238 1.4791635670699177 2.6014222854282698 2.171543894102796 2.0421603156719348 21.569830109132454 5.0314286295324626 0.30600829981267397 3.1826954302377999 22.277380201499909
leaf_count=424 21 527 104 25 33 63 46 51 42 78 655 105 10 34 591
internal_value=0 -0.00621738 0.022967 -0.000589151 0.0573823 -0.0286783 0.0126165 -0.0023364 -0.00489732 -0.000512055 -0.00381478 0.00879083 0.0141689 0.0769336 0.00615072
internal_weight=0 70.8277 19.1737 9.77076 3.18906 6.5817 3.41405 65.3424 62.741 56.581 54.4095 32.8397 30.7975 3.4887 27.3088
internal_count=2809 2517 292 188 54 134 71 1990 1939 1515 1473 818 740 44 696
is_linear=0
shrinkage=0.1


Tree=28
num_leaves=16
num_cat=0
split_feature=1 1 7 7 7 10 5 4 4 3 9 12 4 4 12
split_gain=1.49329 1.65412 1.3821 1.2801 2.12765 1.1976 1.17165 1.04822 0.9737 2.55322 2.28897 1.35883 2.65193 1.68198 1.89651
threshold=0.038852185799669606 0.023718266891933803 0.084637693011627671 9.3279743194151248 0.89967117936187568 0.8500000000000002 0.047250632210540607 0.028134877681244203 4.1554604124831593 74438.000000000015 0.68500000000000016 0.61245000000000005 0.018275342596420104 0.018275342596420104 0.59165000000000012
decision_type=2 2 2 2 2 2 2 2 2 2 2 2 2 2 2
left_child=1 2 6 4 5 -2 -1 -8 9 -4 -10 13 -13 -11 -15
right_child=3 -3 8 -5 -6 -7 7 -9 10 11 -12 12 -14 14 -16
leaf_value=0.50458235581154132 0.016429530623773083 -0.05985020767800138 -0.10752344048686757 0.081309023679005332 -0.081123965445037874 0.1183677912932601 0.12077492538587904 -0.072013247743461364 0.034979372018733787 -0.2231589231409136 -0.044701846136663378 0.076661258774543189 -0.062344911895090706 0.00062790914956711602 0.076149734677530778
leaf_weight=0.037110749632119133 18.069233697606261 5.6174647315638131 2.4537214878946534 3.0761228254996231 2.1877932664938262 1.2310092346742738 0.30154162645339955 4.358148661442101 16.909900361904878 0.2996906340122284 4.5821010342333457 1.7104966603219489 6.9443385658087209 16.975128749152649 4.1351442739833137
leaf_count=1 452 300 320 38 115 12 1 376 280 3 162 8 254 438 49
internal_value=0 -0.00800959 -0.00304917 0.0209743 0.012337 0.0229314 -0.0550801 -0.0595374 0.00147549 -0.00944008 0.0179913 -0.00143507 -0.0348725 0.0120818 0.0154214
internal_weight=0 64.3248 58.7073 24.5642 21.488 19.3002 4.6968 4.65969 54.0105 32.5185 21.492 30.0648 8.65484 21.41 21.1103
internal_count=2809 2192 1892 617 579 464 378 377 1514 1072 442 752 262 490 487
is_linear=0
shrinkage=0.1


Tree=29
num_leaves=16
num_cat=0
split_feature=0 0 0 12 0 3 7 12 5 4 9 12 4 1 9
split_gain=1.11927 0.922385 1.5696 1.38652 1.30484 1.18902 1.21152 1.07864 0.982737 1.82101 0.927385 1.56914 1.3897 1.49893 1.20156
threshold=0.074248479538394876 0.00054416247864505008 0.00064657771723520012 0.51980000000000015 0.00083836061553700008 204297.00000000003 0.42121634918252265 0.52435000000000009 0.21750072081203178 0.022010278282414603 0.36500000000000005 0.33875000000000005 0.029728689027916505 0.032854890339664704 0.62500000000000011
decision_type=2 2 2 2 2 2 2 2 2 2 2 2 2 2 2
left_child=1 3 8 -1 -4 6 -5 -8 -3 -10 -6 12 -12 -14 -13
right_child=-2 2 4 5 10 -7 7 -9 9 -11 11 14 13 -15 -16
leaf_value=-0.12966177996819159 0.073873279459387972 0.08884843654583964 -0.07620967773543072 0.011746891230728666 -0.065303446269169799 0.073583740786907173 0.11171520067559476 -0.1148341519219792 0.11395771246523041 -0.099336411561774557 0.14923246269305046 0.0067307056791926865 -0.045570325930576847 0.08071338258618746 -0.023287870896373394
leaf_weight=1.2988951331935812 2.0041246358305207 3.1970099096652111 2.3093911961186668 2.3465979581233114 2.10032939701341 1.1936150109395383 0.23477650061249766 2.0043896667193621 0.7082555294036863 0.92048237449489534 1.2110496331006277 45.500186928431503 1.6503657127032059 2.183369409176521 18.861663642921485
leaf_count=48 16 23 96 70 58 14 2 94 2 46 3 1283 104 49 901
internal_value=0 -0.00172714 0.00138493 -0.0363034 -0.00222727 -0.0153214 -0.0384623 -0.0910805 0.0566385 -0.00658561 0.000162068 0.00214313 0.0558492 0.0263501 -0.00206644
internal_weight=0 85.7204 78.6421 7.07827 73.8164 5.77938 4.58576 2.23917 4.82575 1.62874 71.507 69.4066 5.04478 3.83374 64.3619
internal_count=2809 2793 2565 228 2494 180 166 96 71 48 2398 2340 156 153 2184
is_linear=0
shrinkage=0.1


Tree=30
num_leaves=16
num_cat=0
split_feature=8 9 4 4 4 8 9 9 9 1 12 4 2 2 6
split_gain=1.05756 1.40744 1.1512 0.823084 1.30978 1.18734 0.8191 1.6457 1.75379 2.4669 1.21019 1.17553 1.15398 1.13076 1.04913
threshold=0.44950000000000007 0.60500000000000009 1.8973570371799819 33.486712699992772 28.593011116135596 0.96875000000000011 0.47500000000000003 0.53500000000000014 0.54500000000000015 0.012509593808582402 0.42295000000000005 0.18390017112789703 204297.00000000003 188529.50000000003 0.28805296405854558
decision_type=2 2 2 2 2 2 2 2 2 2 2 2 2 2 2
left_child=1 2 -1 4 6 -6 10 -8 9 -9 14 -11 -13 -12 -2
right_child=3 -3 -4 -5 5 -7 7 8 -10 11 13 12 -14 -15 -16
leaf_value=-0.058213263794643567 -0.094119297858301088 0.08051852829347432 0.048043139272164054 -0.050116883322476748 -0.10037457786735988 0.071117732561149449 -0.060133693732740905 -0.15163189300240679 -0.0094176725194775116 0.10221213270685384 0.051654287490197882 -0.080943142525891756 0.10887718781912883 -0.071457797485117838 0.07731919901195905
leaf_weight=2.0366544190328559 1.3941634811926622 3.6410192856565118 2.0418386873789132 3.6073306880425653 0.45196925662457932 3.78228417597711 5.6595810463186345 0.54588877991773088 50.01911459560506 3.5984798008576035 7.2436205184785631 0.82505644834600367 0.52346651162952185 0.83171530999243248 0.47979832347482432
leaf_count=42 70 28 18 107 15 38 223 19 2017 17 109 57 9 33 7
internal_value=0 0.0353268 -0.00501753 -0.00345361 -0.00121979 0.0528124 -0.00443665 -0.00876469 -0.0035275 0.0501093 0.0221736 0.0723709 -0.00725913 0.0389744 -0.0502252
internal_weight=0 7.71951 4.07849 78.9625 75.3551 4.23425 71.1209 61.1716 55.512 5.49289 9.9493 4.947 1.34852 8.07534 1.87396
internal_count=2809 88 60 2721 2614 53 2561 2342 2119 102 219 83 66 142 77
is_linear=0
shrinkage=0.1


Tree=31
num_leaves=16
num_cat=0
split_feature=1 4 0 4 3 1 12 7 5 7 13 7 5 0 5
split_gain=0.994062 1.31161 1.07575 1.3301 1.10949 1.09893 1.5793 1.15652 1.00541 1.56626 1.45613 1.35761 1.25219 1.61615 0.954476
threshold=0.075643113836319262 1.1141154649762803 0.029694267408348754 1.9417597227581911 59058.500000000007 0.051822364333256703 0.49240000000000006 0.11044412218262166 0.074828263300649664 0.61128695584649628 0.45000000000000007 0.12805315666093633 0.077848848747769164 0.0015154450926045504 0.047250632210540607
decision_type=2 2 2 2 2 2 2 2 2 2 2 2 2 2 2
left_child=2 -2 5 -4 -5 7 -7 14 9 11 -11 -9 13 -10 -1
right_child=1 -3 3 4 -6 6 -8 8 12 10 -12 -13 -14 -15 -16
leaf_value=0.27957494318752929 -0.018521211830297035 0.080345826096366618 -0.12387275936862396 -0.097770503236672662 0.072355716549309876 -0.05956711012596777 0.064303686883927846 0.14704385925742655 -0.1446168236050891 -0.050923540511890422 0.045899704718421454 -0.080157450232490046 0.002254978980648577 0.09231930426108137 -0.046609512567368269
leaf_weight=0.090875819325446083 2.2378444112837306 3.3513428810983896 1.6069043334573501 0.63524203561246373 0.96668837312608957 1.2902477513998736 5.0884116748347878 0.27814476937055399 0.32111467421054785 2.6239666971378028 3.8064535509329289 4.8297335803508759 47.979391073924489 2.7820029719732702 6.9899632154265419
leaf_count=1 35 21 102 11 9 34 54 2 9 96 49 203 1585 29 569
internal_value=0 0.0407606 -0.00287327 -0.0595899 0.00489253 -0.000481131 0.0392476 -0.00411686 0.00021463 -0.0264464 0.00639047 -0.0677854 0.0062367 0.0678008 -0.0424232
internal_weight=0 5.58919 79.2891 3.20883 1.60193 76.0803 6.37866 69.7016 62.6208 11.5383 6.43042 5.10788 51.0825 3.10312 7.08084
internal_count=2809 56 2753 122 20 2631 88 2543 1973 350 145 205 1623 38 570
is_linear=0
shrinkage=0.1


Tree=32
num_leaves=16
num_cat=0
split_feature=8 4 12 9 0 11 1 0 10 11 12 10 5 9 4
split_gain=0.935021 1.04133 0.965023 0.789556 0.98124 0.652517 1.9382 1.87651 1.64655 1.69705 1.44375 1.43712 1.5025 1.391 1.35757
threshold=0.70715000000000006 1.1141154649762803 0.38325000000000004 0.6150000000000001 0.013087738374669202 0.27065000000000006 0.011123874675463353 0.028627688002540053 0.75000000000000011 0.85980000000000012 0.38325000000000004 0.65000000000000002 0.074828263300649664 0.71500000000000008 28.593011116135596
decision_type=2 2 2 2 2 2 2 2 2 2 2 2 2 2 2
left_child=1 2 -1 4 -4 6 13 10 11 -10 -8 14 -13 -2 -7
right_child=5 -3 3 -5 -6 8 7 -9 9 -11 -12 12 -14 -15 -16
leaf_value=-0.1459272741264476 0.072643436472935016 0.048589411879439541 -0.13237835216292335 0.063068969804592409 0.0038090498451464638 -0.0067601823446141801 -0.01059654839801576 0.07969743635948999 -0.09439529147829033 0.0025655765014862913 -0.093031353444575235 -0.11912813204907409 0.06112356792520756 -0.084069482675902779 0.048879870451433584
leaf_weight=0.47028069710358789 2.7424267680617045 7.56940220692195 0.66199083207175169 1.5463731470517812 2.6345890159718692 37.656459620106034 3.4497359872329962 1.0536827768664796 3.5038376778829834 3.7232178068952635 5.5307522643124685 0.49748850171454151 6.5642757704481483 0.71381731494329859 4.9631601232103995
leaf_count=25 66 95 34 19 41 1328 121 22 245 107 415 22 149 48 72
internal_value=0 0.0247695 -0.00916515 0.0041153 -0.0235389 -0.00453269 -0.0243064 -0.0465522 0.000154768 -0.0444432 -0.0613651 0.00664235 0.0484252 0.0402776 -0.000280761
internal_weight=0 12.8826 5.31323 4.84295 3.29658 70.3989 13.4904 10.0342 56.9084 7.22706 8.98049 49.6814 7.06176 3.45624 42.6196
internal_count=2809 214 119 94 75 2595 672 558 1923 352 536 1571 171 114 1400
is_linear=0
shrinkage=0.1


Tree=33
num_leaves=16
num_cat=0
split_feature=4 3 2 1 2 4 9 0 3 12 1 5 12 3 7
split_gain=0.757679 3.10158 2.55083 1.89308 1.56137 1.14088 1.05612 0.842285 0.978235 1.04816 0.862429 1.66144 1.71765 1.56389 1.59163
threshold=1.9417597227581911 92735.000000000015 142059.00000000003 0.06215702796176286 100579.00000000001 1.2679744310420125 0.57500000000000007 0.00047839007588730006 201973.00000000003 0.59615000000000007 0.011904395419161601 0.29992734164281304 0.48600000000000004 204297.00000000003 0.56809161077333248
decision_type=2 2 2 2 2 2 2 2 2 2 2 2 2 2 2
left_child=1 -1 7 4 -2 -4 -7 8 -3 -10 -9 13 -13 -12 -15
right_child=3 2 5 -5 -6 6 -8 10 9 -11 11 12 -14 14 -16
leaf_value=-0.10192156038727046 -0.091578781775418228 -0.1265914226682878 -0.10949071567020617 0.073834121658312254 0.0078122849225510235 0.045736737803245393 -0.10498676206153079 0.039348157350363899 0.045904102000376673 -0.11494408495868975 0.025721707430345804 0.056379507549906553 -0.089568154978490855 0.0093098341387911638 -0.12519824971888072
leaf_weight=3.2962310588918617 1.669940019724893 0.96509886113926713 2.8875161865726104 4.2229190440848461 29.530400848132558 1.2360225971788166 0.74515896104276169 8.5651457700878364 1.3298836965113876 0.58261983189731825 18.503247829386972 1.0694145597517479 3.2784728584811091 2.1376893408596511 1.4949223604053257
leaf_count=555 264 47 332 28 654 44 63 103 13 19 446 27 95 70 49
internal_value=0 -0.00845199 -0.00125265 0.0109974 0.00249256 -0.0693936 -0.0109532 0.00749474 -0.0445144 -0.00309625 0.0117648 0.00284406 -0.0536706 0.0139446 -0.046044
internal_weight=0 46.0914 42.7952 35.4233 31.2003 4.8687 1.98118 37.9265 2.8776 1.9125 35.0489 26.4837 4.34789 22.1359 3.63261
internal_count=2809 1863 1308 946 918 439 107 869 79 32 790 687 122 565 119
is_linear=0
shrinkage=0.1


Tree=34
num_leaves=16
num_cat=0
split_feature=0 6 0 0 12 3 6 2 8 5 4 3 2 4 2
split_gain=0.79126 0.672027 0.507042 0.999363 0.696306 0.731037 0.893418 0.86289 0.750501 0.618545 0.608259 2.544 1.56305 1.09736 1.03025
threshold=0.064028572076299264 0.11764643188621171 0.00047839007588730006 0.00064657771723520012 0.45045000000000007 201973.00000000003 0.22979774810171641 24778.500000000004 0.8660500000000001 0.81372517904785802 1.9816950721476945 92735.000000000015 142059.00000000003 1.2679744310420125 100579.00000000001
decision_type=2 2 2 2 2 2 2 2 2 2 2 2 2 2 2
left_child=2 -2 -1 4 -4 6 8 -8 -6 10 11 -5 -13 -14 -12
right_child=1 -3 3 9 5 -7 7 -9 -10 -11 14 12 13 -15 -16
leaf_value=-0.031615278169242617 0.0070177683252360956 0.11481475340717376 -0.18282260661716257 -0.10964230513868667 0.078344129884960409 0.10019181001488459 -0.14246118200360844 0.084664074916760645 -0.095344952785672565 -0.11372341293950819 -0.073317758445170453 0.0041130666720246636 -0.11223463707216819 -0.0076901005015850054 0.013142452410561526
leaf_weight=5.2878392434213302 1.2346529080532485 1.087924428284168 0.13271483685821195 2.4162151541677295 0.34651510161347687 1.796670703217387 0.18507962580770243 1.7385631361976264 0.88197006331756733 0.49876200221478839 1.4501254302449549 30.836597578134388 2.0961372732417649 1.9270992419915272 27.786046232562512
leaf_count=204 25 7 6 502 5 8 28 19 29 69 227 754 284 97 545
internal_value=0 0.0575112 -0.0017262 0.0004661 0.0432217 0.0492837 0.0202667 0.0628117 -0.046353 -0.0027761 -0.00194413 -0.0104133 -0.00353547 -0.0621586 0.00885399
internal_weight=0 2.32258 77.3803 72.0925 5.08151 4.9488 3.15213 1.92364 1.22849 67.011 66.5122 37.276 34.8598 4.02324 29.2362
internal_count=2809 32 2777 2573 95 89 81 47 34 2478 2409 1637 1135 381 772
is_linear=0
shrinkage=0.1


Tree=35
num_leaves=16
num_cat=0
split_feature=8 6 5 4 4 5 5 0 4 2 4 9 11 9 9
split_gain=0.681586 0.685236 0.612195 0.549997 1.04521 0.818667 1.61253 0.586957 0.923294 0.633101 0.624004 0.74681 0.684138 0.589572 1.4696
threshold=0.51665000000000016 0.11144249945997386 0.19348666312824433 33.486712699992772 28.593011116135596 0.12847706258482833 0.051478600591620807 0.00040897536135915008 0.0257989674347632 197945.50000000003 2.115197960299485 0.54500000000000015 0.46690000000000004 0.47500000000000003 0.53500000000000014
decision_type=2 2 2 2 2 2 2 2 2 2 2 2 2 2 2
left_child=1 2 -1 4 7 6 -6 8 -2 13 -11 12 -12 -9 -15
right_child=3 -3 -4 -5 5 -7 -8 9 -10 10 11 -13 -14 14 -16
leaf_value=-0.0016344200620702631 0.017651766824490194 0.042818937439018198 -0.16140992340969973 -0.044137211307556531 0.070253741694777619 0.10522920798476632 -0.11319542667905361 0.027127613347855895 -0.096828037188406699 -0.10949649478531175 -0.099737598519609699 -0.065754984167602268 0.067707062984854668 -0.060220138605106166 0.0018321518531750705
leaf_weight=2.1694415565580116 1.2189145414158695 6.5332442799117416 0.26961445901542891 3.1568199102766803 1.467140009626746 1.5605127522721884 0.71153490617871273 7.2024135104147708 1.6693361223442478 0.99003884964622457 0.30806479183957014 1.592413804028183 1.1734576467424629 4.1788106272579162 44.03879379137652
leaf_count=37 20 96 9 106 12 11 29 168 115 158 14 88 13 186 1747
internal_value=0 0.0259334 -0.0192961 -0.00335915 -0.001412 0.0499416 0.010341 -0.00449062 -0.0485147 -0.00235303 -0.0404503 -0.0182123 0.032889 0.000440662 -0.00354565
internal_weight=0 8.9723 2.43906 69.2683 66.1114 3.73919 2.17867 62.3722 2.88825 59.484 4.06398 3.07394 1.48152 55.42 48.2176
internal_count=2809 142 46 2667 2561 52 41 2509 135 2374 273 115 27 2101 1933
is_linear=0
shrinkage=0.1


Tree=36
num_leaves=16
num_cat=0
split_feature=1 1 7 12 11 4 8 4 12 1 1 9 9 9 6
split_gain=0.617221 1.07563 1.02213 0.909759 1.30101 1.14385 1.6605 1.28992 1.04476 1.11651 0.823743 2.33786 0.807314 0.805834 1.18083
threshold=0.038852185799669606 0.023718266891933803 27.117726780503386 0.64080000000000015 0.62860000000000005 1.8973570371799819 0.93540000000000012 0.53676221164692606 0.39755000000000007 0.053653567588892302 0.020475040927647705 0.66500000000000015 0.89500000000000013 0.55500000000000016 0.16217379476095542
decision_type=2 2 2 2 2 2 2 2 2 2 2 2 2 2 2
left_child=1 10 3 4 5 6 7 -2 -7 -10 -1 -12 -3 -11 -15
right_child=2 12 -4 -5 -6 8 -8 -9 9 13 11 -13 -14 14 -16
leaf_value=-0.0046447970431277522 0.046093767629236199 -0.059106653865568987 0.10336189598340031 0.040847171187055414 -0.11828950562172687 0.10504288686501964 -0.10618216791094007 -0.078687045478563866 -0.052564350523154925 0.074987449576112156 0.090529409592006102 -0.10346581393019612 0.14714031366185776 -0.1322044814255966 0.095867745937310206
leaf_weight=47.739461236284114 2.7082861133385481 4.6203465394210061 1.2237601284869004 6.1982377165695643 0.94988522399216968 1.4934772440465165 1.894575719023124 1.1935588544001801 1.8351057223044334 2.4123227372765546 2.6856553864199664 0.80813495314214367 0.19791713729500759 0.53092988952994336 0.39656833559274673
leaf_count=1830 37 298 14 148 54 13 169 80 68 19 26 36 2 13 2
internal_value=0 -0.00546275 0.014695 0.00916258 -0.00547722 0.00311967 -0.029372 0.00792381 0.0313626 0.0100986 -0.00121452 0.0456571 -0.0506348 0.0445296 -0.0346882
internal_weight=0 56.0515 20.8367 19.6129 13.4147 12.4648 5.79642 3.90184 6.6684 5.17493 51.2333 3.49379 4.81826 3.33982 0.927498
internal_count=2809 2192 617 603 455 401 286 117 115 102 1892 62 300 34 15
is_linear=0
shrinkage=0.1


Tree=37
num_leaves=16
num_cat=0
split_feature=9 13 1 1 6 0 10 4 1 11 0 9 3 9 4
split_gain=1.07048 0.63186 0.609892 1.27216 0.705017 1.51143 0.883062 1.35892 1.75735 1.47476 0.972119 0.726667 0.693595 0.626018 0.617433
threshold=0.87500000000000011 0.15000000000000005 0.038852185799669606 0.023718266891933803 0.05405981031122141 0.029694267408348754 0.65000000000000002 1.8973570371799819 0.053653567588892302 0.58540000000000003 0.0040949573948111514 0.40500000000000008 194170.00000000003 0.52500000000000013 4.400461287170498
decision_type=2 2 2 2 2 2 2 2 2 2 2 2 2 2 2
left_child=2 -2 3 -1 5 -4 7 9 14 -6 -11 -12 -8 -5 -9
right_child=1 -3 4 13 6 -7 12 8 -10 10 11 -13 -14 -15 -16
leaf_value=0.00074405578687356119 0.067186927805431104 -0.11494560883159205 0.10766816452898841 0.012163609657000208 -0.12540842284893328 -0.067134189229711816 0.045606621945905194 -0.1095178700444754 0.06246704479933235 0.16328387905689909 0.070263026743641196 -0.056792455314612758 -0.11677194337231199 -0.075671033173312197 -0.0067233049314672838
leaf_weight=49.468356881057844 0.22657028259709378 1.1957449502078814 2.0028060578042672 1.0634023561724451 1.6556049220962465 0.65687579521909345 6.1466207721969104 0.91987198486458543 3.9818358132615685 0.30147107690572772 0.5891257040202621 1.9080518232658503 0.27481742715463031 3.4246285051922314 1.6018256141105665
leaf_count=1855 8 31 31 38 154 40 141 41 39 2 8 95 13 260 53
internal_value=0 -0.0859325 0.00165177 -0.00388097 0.0165491 0.0644963 0.00921137 -0.00804442 0.0210995 -0.0505967 -0.00634014 -0.026818 0.0386573 -0.0548593 -0.044221
internal_weight=0 1.42232 73.9953 53.9564 20.0389 2.65968 17.3792 10.9578 6.50353 4.45425 2.79865 2.49718 6.42144 4.48803 2.5217
internal_count=2809 39 2770 2153 617 71 546 392 133 259 105 103 154 298 94
is_linear=0
shrinkage=0.1


Tree=38
num_leaves=16
num_cat=0
split_feature=0 4 4 3 7 7 0 11 11 3 2 1 3 2 11
split_gain=0.638759 0.574301 0.422887 2.45657 0.971636 1.11466 0.851627 0.72924 1.56876 1.24837 1.06232 1.14176 1.99769 1.03049 1.02617
threshold=0.064028572076299264 1.0571845466701182 3.866789368337384 44732.500000000007 0.41403453371476012 0.029537530137968553 0.047966254476653258 0.53270000000000006 0.42740000000000011 184261.00000000003 5201.0000000000009 0.011203507305499452 197945.50000000003 8723.5000000000018 0.54050000000000009
decision_type=2 2 2 2 2 2 2 2 2 2 2 2 2 2 2
left_child=2 -2 3 -1 5 -4 7 8 9 13 -11 -12 -13 -5 -9
right_child=1 -3 4 6 -6 -7 -8 14 -10 10 11 12 -14 -15 -16
leaf_value=-0.097012097489963436 -0.0083175299534319156 0.099822821666303685 -0.12656109091449724 -0.11218871457040465 -0.013213293342880031 0.029891676889169185 -0.093997061500184637 0.11591187365417072 -0.081800545048745121 -0.14517447057893215 0.1070677897678146 0.0872024144092923 -0.060077425257298783 -0.011686458807219021 0.007259011473893605
leaf_weight=2.8682195118162772 0.83413824625313227 1.1941286143846808 0.4698957145446937 1.2479353733360747 11.761359995231031 14.743559808877761 0.97070377785712381 0.90041750110686081 2.9638887597247949 0.31699180416762818 1.8541211811825631 1.7770484383217993 1.9117160526802761 5.5910390802891925 25.101494032540359
leaf_count=560 17 15 48 80 367 308 41 4 144 8 13 42 95 274 793
internal_value=0 0.0553494 -0.00154892 -0.0074301 0.00837199 0.0250593 -0.00140363 0.000753616 -0.0162923 -0.00100279 0.0328692 0.0430513 0.0108741 -0.0300255 0.0110215
internal_weight=0 2.02827 72.4784 45.5036 26.9748 15.2135 42.6354 41.6647 15.6627 12.6989 5.85988 5.54289 3.68876 6.83897 26.0019
internal_count=2809 32 2777 2054 723 356 1494 1453 656 512 158 150 137 354 797
is_linear=0
shrinkage=0.1


Tree=39
num_leaves=16
num_cat=0
split_feature=9 6 13 9 12 1 11 2 3 4 7 3 7 9 8
split_gain=0.459073 0.961419 0.602274 0.468839 1.24713 1.46419 0.802333 0.74858 1.26064 0.760203 0.688497 1.81847 1.75565 1.67957 1.84217
threshold=0.85500000000000009 0.05405981031122141 0.15000000000000005 0.78500000000000014 0.52285000000000015 0.0097947843135383506 0.62860000000000005 5201.0000000000009 201973.00000000003 0.026988386449934704 5.3458944188088848 170053.50000000003 0.63183377450491129 0.55500000000000016 0.81665000000000021
decision_type=2 2 2 2 2 2 2 2 2 2 2 2 2 2 2
left_child=3 -2 -3 7 -5 -6 -7 8 -1 -9 12 -12 -11 14 -14
right_child=1 2 -4 4 5 6 -8 9 -10 10 11 -13 13 -15 -16
leaf_value=-0.10898944574547352 0.059451537704079641 0.018110611426905569 -0.12638356255307603 -0.095999734933339298 -0.083934676874729081 0.1519959197054509 0.043100771190569188 0.080295324080581126 0.017331136515294509 0.0063040547187302627 -0.064575223312980809 0.042108304044289981 -0.12371260733245074 -0.064288033135149289 0.033285565767406461
leaf_weight=1.6388200198416591 0.61498630139976684 0.389258462935686 1.1140393575769847 0.6169286065269256 0.59313133265823159 1.172904351144098 1.5990407278295604 1.2083682259544719 1.5253742709755895 38.725836112163961 1.9445580421015609 8.9589955792762321 0.89430685434490431 8.1265254246536625 4.5490124432835719
leaf_count=138 6 10 76 56 31 17 32 10 19 1542 129 179 19 431 114
internal_value=0 -0.045879 -0.0889688 0.0013582 0.0347029 0.058665 0.089178 -0.0006068 -0.0480936 0.00172612 0.000223875 0.0230822 -0.00454204 -0.0354948 0.00749165
internal_weight=0 2.11828 1.5033 71.5538 3.98201 3.36508 2.77195 67.5718 3.16419 64.4076 63.1992 10.9036 52.2957 13.5698 5.44332
internal_count=2809 92 86 2717 136 80 49 2581 157 2424 2414 308 2106 564 133
is_linear=0
shrinkage=0.1


Tree=40
num_leaves=16
num_cat=0
split_feature=8 4 2 12 3 12 7 12 12 3 12 6 5 12 0
split_gain=0.435973 0.770558 0.666332 0.599951 0.833097 0.462097 0.786273 0.42266 1.41766 2.12412 1.01717 1.77832 1.28142 0.937302 0.893705
threshold=0.70715000000000006 1.0571845466701182 50793.500000000007 0.49365000000000009 184261.00000000003 0.64080000000000015 0.087172326043365569 0.59865000000000013 0.59025000000000005 173219.50000000003 0.64080000000000015 0.056121854755729013 0.051478600591620807 0.59035000000000015 0.017231579359103102
decision_type=2 2 2 2 2 2 2 2 2 2 2 2 2 2 2
left_child=1 3 -3 4 -1 -5 -7 8 -2 13 12 -12 14 -10 -9
right_child=7 2 -4 5 -6 6 -8 10 9 -11 11 -13 -14 -15 -16
leaf_value=-0.12138226289369225 -0.0035148198301763137 -0.12925789518290959 0.046786001691714332 0.064647228047238867 0.013107792419308867 0.064051938989733881 -0.095871564186251479 0.056771923814829511 0.1124015634949473 0.099707291497991096 -0.14443567278416608 0.01073825211937611 -0.060663113507046243 -0.10836475543668594 -0.13033003288771627
leaf_weight=0.96475000469945171 34.223871086898725 0.22277348022907961 6.1656789188273251 1.1427268562838437 0.88137724949046969 0.56163734639994778 0.67923500633332878 1.7452657943358665 0.24595173937268444 3.1500593023374677 0.77992438618093629 13.91677895199973 6.9503092789673246 0.88186840183334425 0.29903392121195782
leaf_count=43 1434 17 84 14 18 10 28 37 2 28 40 569 421 55 9
internal_value=0 0.0187274 0.0406471 -0.0143796 -0.0571741 0.0187652 -0.0234878 -0.00319731 0.00326933 0.0575439 -0.0137065 0.00250349 -0.0401928 -0.0602207 0.0294032
internal_weight=0 10.6182 6.38845 4.22973 1.84613 2.3836 1.24087 62.1931 38.5018 4.27788 23.6913 14.6967 8.99461 1.12782 2.0443
internal_count=2809 214 101 113 61 52 38 2595 1519 85 1076 609 467 57 46
is_linear=0
shrinkage=0.1


Tree=41
num_leaves=16
num_cat=0
split_feature=1 2 3 0 4 0 12 12 12 1 4 3 3 6 7
split_gain=0.498706 0.781177 0.846928 0.594612 0.758538 0.635173 0.779661 0.703505 0.877112 0.666554 0.575408 0.568493 0.517434 0.510451 0.467472
threshold=0.075643113836319262 44732.500000000007 173219.50000000003 0.029694267408348754 1.9417597227581911 0.016778666851224453 0.49240000000000006 0.5375000000000002 0.60665000000000013 0.050897129717150401 2.8735718117726194 178460.50000000003 59058.500000000007 0.092972339561743861 62.344006632611368
decision_type=2 2 2 2 2 2 2 2 2 2 2 2 2 2 2
left_child=3 2 -2 5 -5 9 10 -8 -9 14 -7 -10 -6 -3 -1
right_child=1 13 -4 4 12 6 7 8 11 -11 -12 -13 -14 -15 -16
leaf_value=-0.0013647691253851969 -0.16296747255724664 -0.031380328168647241 0.02890285073399014 -0.10944106258586883 -0.083052046354997813 -0.10443637440047343 0.10421546253596969 -0.1028286844382687 0.051906806973328473 -0.10125310928004486 0.070203882017265296 -0.1156834214552772 0.05470605970688739 0.077649144405453563 -0.087907610972396563
leaf_weight=57.789797787379939 0.36955997021868725 0.51715113781392608 0.60943138226866722 1.1506157211260863 0.42808614205569007 0.65938199043739487 1.4573293253779409 0.48694554879330132 3.0893944439594638 0.68875017645768721 0.26427873456850648 0.2165991028305142 0.75097689172253013 2.5307740643620491 0.63097058865241606
leaf_count=2343 12 16 4 102 11 65 22 32 59 20 5 15 9 24 70
internal_value=0 0.034188 -0.0435264 -0.00203617 -0.0516788 -0.000264647 0.0302559 0.0451611 0.0224712 -0.00345249 -0.0544681 0.0409268 0.00468979 0.0591498 -0.00229947
internal_weight=0 4.02692 0.978991 67.6131 2.32968 65.2834 6.17393 5.25027 3.79294 59.1095 0.923661 3.30599 1.17906 3.04793 58.4208
internal_count=2809 56 16 2753 122 2631 198 128 106 2433 70 74 20 40 2413
is_linear=0
shrinkage=0.1


Tree=42
num_leaves=16
num_cat=0
split_feature=8 8 12 4 4 4 5 5 3 10 12 7 1 9 12
split_gain=0.787474 0.40097 0.490493 0.397524 0.393146 1.05209 0.760876 1.15832 0.631972 0.829779 1.32853 1.77704 1.17136 0.99119 1.20116
threshold=0.13395000000000004 0.51665000000000016 0.38740000000000002 19.959411844691616 33.486712699992772 28.593011116135596 0.12847706258482833 0.051478600591620807 6915.5000000000009 0.65000000000000002 0.59845000000000015 0.61128695584649628 0.010796336555473003 0.54500000000000015 0.6281000000000001
decision_type=2 2 2 2 2 2 2 2 2 2 2 2 2 2 2
left_child=-1 2 -2 -4 5 8 7 -7 -3 -10 11 -11 -13 -12 -15
right_child=1 4 3 -5 -6 6 -8 -9 9 10 13 12 -14 14 -16
leaf_value=-0.097827964019024008 0.071000269226085391 -0.050839571512827836 -0.0030176424194697294 0.071671367835196648 -0.037685741409420548 0.071002574230014256 0.11226058922482461 -0.097898046319427945 -0.0088257392961347374 -0.088180819667839166 0.046185692525448893 -0.0066253808706421159 0.10051739571229668 -0.097488452200882036 -0.0018246784891348948
leaf_weight=0.81342561542987724 1.6783162495121349 2.6107827576342961 4.4442695531761274 0.84868820197880257 2.8475025939987963 1.1954656830057495 1.3774309786967931 0.61487765330821265 37.50453221105272 0.76763454591855662 2.952364469296298 1.3522639863658694 4.1576746871578507 1.6547220624634045 6.3465798843535595
leaf_count=8 24 299 102 8 106 12 11 29 1532 81 59 32 62 108 336
internal_value=0 0.00113109 0.0238947 0.00895821 -0.00137264 0.000335507 0.0562515 0.013636 -0.00277274 -0.000480056 0.0176847 0.0543632 0.0742221 -0.00333585 -0.0216086
internal_weight=0 70.3531 6.97127 5.29296 63.3818 60.5343 3.18777 1.81034 57.3466 54.7358 17.2312 6.27757 5.50994 10.9537 8.0013
internal_count=2809 2801 134 110 2667 2561 52 41 2509 2210 678 175 94 503 444
is_linear=0
shrinkage=0.1


Tree=43
num_leaves=16
num_cat=0
split_feature=1 4 2 4 3 7 2 7 2 2 4 9 6 7 11
split_gain=0.422458 0.471255 0.317026 0.336295 1.98769 0.859492 0.869719 0.801864 0.794131 1.38306 1.18123 1.32042 0.872703 0.695723 0.650591
threshold=0.12279787270998756 1.0571845466701182 212965.50000000003 3.866789368337384 50793.500000000007 0.43286162749133178 183118.50000000003 0.029537530137968553 181506.50000000003 175411.00000000003 13.074836483006633 0.52500000000000013 0.31697542618930957 0.50030753953315765 0.53270000000000006
decision_type=2 2 2 2 2 2 2 2 2 2 2 2 2 2 2
left_child=2 -2 3 4 -1 7 8 -5 9 10 11 -7 13 -12 -6
right_child=1 -3 -4 5 14 6 -8 -9 -10 -11 12 -13 -14 -15 -16
leaf_value=-0.088600725744131636 -0.0080372067770874463 0.088620104226666011 -0.071070302797096016 -0.12421881125578622 -0.016958295126760017 0.10046479226611445 -0.056569324515954693 0.028425199964672129 0.11954326391639543 -0.14969403287866234 -0.066328846761107008 -0.12068445213820611 -0.052004644625652921 0.075213345499360873 0.0094767853594125828
leaf_weight=2.7294008727185419 0.92134582251310293 1.1146616861224172 0.64600361662451078 0.35293597675627353 14.85045941773569 0.35708930320106258 3.206467651296407 13.816174636711365 0.56907759606838215 0.58944245520979155 0.3909377641975883 1.1068379728822035 0.87993155140429724 3.1087696835165843 24.953809744212776
leaf_count=596 13 11 52 45 644 3 163 307 2 18 11 71 39 36 798
internal_value=0 0.0448802 -0.00135258 -0.000679478 -0.00604659 0.00868494 -0.0134365 0.024623 0.00631528 -0.00370111 0.0110252 -0.0667405 0.037019 0.0594023 -0.000385802
internal_weight=0 2.03601 67.5573 66.9113 42.5337 24.3777 10.2086 14.1691 7.00209 6.43301 5.84357 1.46393 4.37964 3.49971 39.8043
internal_count=2809 24 2785 2733 2038 695 343 352 180 178 160 74 86 47 1442
is_linear=0
shrinkage=0.1


Tree=44
num_leaves=16
num_cat=0
split_feature=8 2 2 7 6 13 9 11 4 3 9 2 6 5 12
split_gain=0.364349 0.345455 0.328486 1.14272 1.49688 1.05055 0.878629 0.869898 0.838654 1.08346 0.779262 0.740193 0.692264 0.765871 0.628436
threshold=0.23335000000000003 105794.50000000001 175411.00000000003 0.47085621546158418 0.48395817784086875 0.15000000000000005 0.6150000000000001 0.093300000000000022 8.0763354615913325 14509.000000000002 0.48500000000000004 178460.50000000003 0.31697542618930957 0.15400711659458274 0.49240000000000006
decision_type=2 2 2 2 2 2 2 2 2 2 2 2 2 2 2
left_child=1 -1 8 5 -5 7 -6 14 9 -2 -7 -12 13 -13 -4
right_child=2 -3 3 4 6 10 -8 -9 -10 -11 11 12 -14 -15 -16
leaf_value=-0.012792503770900718 -0.10661053636025711 0.07695337958015934 -0.076489481291289754 -0.097096542204715378 0.066482616407633963 -0.13183807900084968 -0.087042862290876266 -0.06210267114707451 0.03017609544329743 -0.00074842136258470107 -0.13809968352472221 0.038114479354491165 0.11757874313894612 -0.088272976623282068 0.087421679427197529
leaf_weight=0.67940146708860893 0.99065646348753844 1.163295082747936 0.32973373879213042 3.0347851569531477 1.2077524773776529 0.29715846164617676 0.53919643349945534 3.2047911267727613 9.1493952032178623 40.134483206114965 0.24253424000926305 5.2065626116236672 0.97604158613830794 0.5280842923093586 0.80486611882224679
leaf_count=11 373 11 19 267 20 20 29 158 223 1467 11 141 9 30 20
internal_value=0 0.0438641 -0.0012128 -0.0135155 -0.0546467 0.00345446 0.0190969 -0.0354622 0.00279348 -0.00329852 0.0267463 0.0335237 0.0397264 0.0264759 0.0397863
internal_weight=0 1.8427 66.646 16.3715 4.78173 11.5898 1.74695 4.33939 50.2745 41.1251 7.25038 6.95322 6.71069 5.73465 1.1346
internal_count=2809 22 2787 724 316 408 49 197 2063 1840 211 191 180 171 39
is_linear=0
shrinkage=0.1


Tree=45
num_leaves=16
num_cat=0
split_feature=8 4 12 11 3 5 0 7 4 2 7 12 0 9 3
split_gain=0.396678 0.780293 0.769239 0.502556 0.414491 0.447216 0.429979 0.410616 0.375507 1.94106 1.0531 0.813388 1.39247 0.934236 0.792723
threshold=0.66250000000000009 1.0571845466701182 0.38325000000000004 0.60420000000000007 175411.00000000003 0.11764643188621171 0.024907497247820053 0.12805315666093633 0.15479543112800861 44732.500000000007 0.9584941284993117 0.46865000000000007 0.00083836061553700008 0.53500000000000014 201973.00000000003
decision_type=2 2 2 2 2 2 2 2 2 2 2 2 2 2 2
left_child=1 2 -1 -3 6 -6 -4 -8 11 -10 14 12 -2 -13 -11
right_child=8 3 4 -5 5 -7 7 -9 9 10 -12 13 -14 -15 -16
leaf_value=-0.15255767818337837 -0.18922065689911485 0.072831212513391905 -0.10985008238231611 0.012012631934656194 -0.090999043574193694 0.048837691024871441 0.066097118990230408 -0.067677981430508252 -0.098537455166674448 0.0035295589317118716 -0.090147130463678726 -0.081940045457707597 0.059423196883023124 0.0033341896420656806 -0.09632324942731646
leaf_weight=0.37006114749237751 0.23847745265811937 2.8189905290491879 0.55849764862796314 2.6227455959888175 0.26499424199573685 1.6700400253757832 0.47450404241681099 0.44428432639688253 2.3142376430332687 27.513956697308465 1.3378882631659497 1.3697459802497203 4.0551129156374373 20.706057228846475 0.81871971557848056
leaf_count=23 6 50 37 49 16 22 5 8 644 998 247 45 72 454 133
internal_value=0 0.0192703 -0.0156158 0.0435186 -0.000764656 0.0296877 -0.0406529 0.00140956 -0.00304608 -0.0103298 -0.00344976 0.00578867 0.0456129 -0.00195685 0.000644146
internal_weight=0 9.22412 3.78238 5.44174 3.41232 1.93503 1.47729 0.918788 58.3542 31.9848 29.6706 26.3694 4.29359 22.0758 28.3327
internal_count=2809 210 111 99 88 38 50 13 2599 2022 1378 577 78 499 1131
is_linear=0
shrinkage=0.1


Tree=46
num_leaves=16
num_cat=0
split_feature=0 4 7 5 5 3 4 4 6 6 7 2 9 6 4
split_gain=0.402151 0.297877 0.296926 1.16512 0.971445 0.690156 0.813807 0.929034 0.83137 1.12222 0.734542 0.672686 0.624904 1.38692 0.818609
threshold=0.074248479538394876 1.0571845466701182 2.6088937411392146 0.18586265588824694 0.26146560649407896 115293.00000000001 0.10307142721604547 0.07379827656128897 0.077848848747769164 0.047250632210540607 3.5486244572242027 22859.500000000004 0.57500000000000007 0.070716342126032811 0.11530458232936543
decision_type=2 2 2 2 2 2 2 2 2 2 2 2 2 2 2
left_child=2 -2 4 -4 12 -5 7 10 9 -8 -7 -10 14 -14 -1
right_child=1 -3 3 5 -6 6 8 -9 11 -11 -12 -13 13 -15 -16
leaf_value=0.054834009140919383 -0.0094481924454783046 0.10013147618912882 -0.087692564509799592 -0.08380033917971591 -0.066605098449219816 -0.14246458498423742 0.1011419923969734 -0.14086450966816166 0.11957529063567628 -0.097370917600535734 0.018010356601612015 -0.056829202005249546 -0.12285894858487255 -0.0076516458765294908 0.0019372412800289921
leaf_weight=3.4997401387663585 0.3878876557573665 0.68821831326931715 1.1409570304676915 0.65517975302646192 2.4381339174869927 0.29226941894739589 0.53437422809656643 0.39934808667749244 1.9772619437426331 0.60967978741973639 11.850694834720342 0.24270276282913972 1.0956970877014125 22.557274963590316 17.834201803052565
leaf_count=47 8 8 74 163 294 11 14 12 10 53 175 35 96 1157 652
internal_value=0 0.0606329 -0.00100184 0.0100499 -0.00512714 0.0167835 0.0209266 0.00921227 0.0646018 -0.00464786 0.0141479 0.100289 -0.00179525 -0.0129885 0.0106147
internal_weight=0 1.07611 65.1275 17.7025 47.425 16.5615 15.9063 12.5423 3.36402 1.14405 12.143 2.21996 44.9869 23.653 21.3339
internal_count=2809 16 2793 547 2246 473 310 198 112 67 186 45 1952 1253 699
is_linear=0
shrinkage=0.1


Tree=47
num_leaves=16
num_cat=0
split_feature=12 6 12 8 7 5 7 12 4 12 7 1 3 13 6
split_gain=0.30727 0.821195 0.543995 0.883426 0.793909 0.786514 0.949482 0.787395 0.69963 0.612567 0.598576 0.710168 0.747273 0.495288 0.488268
threshold=0.64080000000000015 0.056121854755729013 0.59865000000000013 0.77500000000000013 0.068541034713040516 0.051478600591620807 10.733896614421637 0.61140000000000005 0.018275342596420104 0.61485000000000001 0.0066589170138789512 0.010988031749968952 5442.0000000000009 0.25000000000000006 0.074828263300649664
decision_type=2 2 2 2 2 2 2 2 2 2 2 2 2 2 2
left_child=2 -2 4 -4 -1 10 -7 -8 -6 -9 -5 -12 -13 -11 -3
right_child=1 14 3 5 8 6 7 9 -10 13 11 12 -14 -15 -16
leaf_value=-0.044222699179523622 -0.11209027504203246 0.058415620641312685 0.066165305906408595 0.23560110201479878 -0.19087941946372899 -0.084311941418673764 -0.084316068008978451 0.13448907979148658 0.0063817510930553921 -0.13717064501163875 0.10094391523784224 0.063962067571448275 -0.11267245504942747 0.02930135547664461 0.0086460742208417287
leaf_weight=3.5386511545511885 0.51801387325395154 2.3047489504097021 0.92294928431510914 0.12387809902429392 0.18069808185100455 3.8428113039699383 0.81819453439675305 0.45464184880256642 36.102318309363909 0.22097408911213257 0.52735864184796799 0.39749725209549047 0.60262391285505146 0.93467323732329533 13.620568594138602
leaf_count=315 40 45 8 1 1 347 21 1 1333 9 3 7 35 43 600
internal_value=0 0.0118184 -0.0039931 -0.0264255 0.000989807 -0.0372118 -0.05338 -0.00443344 0.00539934 0.0361552 0.0241892 0.00704381 -0.0424692 -0.00253015 0.0158488
internal_weight=0 16.4433 48.6673 8.8456 39.8217 7.92265 6.2713 2.42848 36.283 1.61029 1.65136 1.52748 1.00012 1.15565 15.9253
internal_count=2809 685 2124 475 1649 467 421 74 1334 53 46 45 42 52 645
is_linear=0
shrinkage=0.1


Tree=48
num_leaves=16
num_cat=0
split_feature=1 0 7 4 6 6 0 4 9 8 0 12 1 4 7
split_gain=0.293269 0.543237 0.69662 0.833326 0.416149 0.622666 0.764523 0.543306 0.793399 0.506984 0.438116 0.520912 0.584356 0.738164 0.402575
threshold=0.049523988628167807 0.0067480648890272006 27.117726780503386 11.571469194312797 0.11144249945997386 0.05405981031122141 0.029694267408348754 1.9417597227581911 0.57500000000000007 0.23335000000000003 0.052541418066859358 0.64080000000000015 0.049956831389613952 17.818392056475982 62.344006632611368
decision_type=2 2 2 2 2 2 2 2 2 2 2 2 2 2 2
left_child=1 14 3 -3 5 6 -2 9 -9 -7 11 12 -6 -14 -1
right_child=4 2 -4 -5 10 7 -8 8 -10 -11 -12 -13 13 -15 -16
leaf_value=0.00067988827385348678 0.099442249974949437 -0.077114893789402686 0.063045885202328802 0.057167236321144135 0.077828876979798095 0.026904075818266274 -0.046959915485986471 0.047202265244976553 -0.11501710112844599 -0.079606023435267348 0.088190823655165035 0.053478555649337345 -0.093675885567017614 0.065855460897223994 -0.091665538273856373
leaf_weight=48.486458797211526 1.05974210007116 2.8835081204888406 0.57827275712043036 0.55035087070427824 0.47718846425414074 0.58777364715933789 0.53766354243271042 1.5927789658308027 0.37189572444185603 1.8646629666909578 1.2021473720669744 2.1379446883220226 1.0525703758466987 0.40036513470113266 0.47672226722352107
leaf_count=1928 9 483 21 23 6 5 32 19 16 107 14 28 50 6 62
internal_value=0 -0.00311797 -0.0384937 -0.0555933 0.0146371 -0.00333892 0.0501654 -0.0226882 0.0164956 -0.0540788 0.0351518 0.0194783 -0.0181829 -0.0497161 -0.000219218
internal_weight=0 52.9753 4.01213 3.43386 11.2847 6.01452 1.59741 4.41711 1.96467 2.45244 5.27022 4.06807 1.93012 1.45294 48.9632
internal_count=2809 2517 527 506 292 188 41 147 35 112 104 90 62 56 1990
is_linear=0
shrinkage=0.1


Tree=49
num_leaves=16
num_cat=0
split_feature=1 0 4 11 2 5 7 7 4 4 4 10 11 0 4
split_gain=0.281612 0.274627 0.285578 0.284654 0.795731 0.477126 0.361581 0.387304 0.45235 0.737892 0.348948 0.3564 0.938694 0.494121 0.726411
threshold=0.0059816813106375504 0.074248479538394876 1.0571845466701182 0.85980000000000012 4579.0000000000009 0.11764643188621171 0.35163723695920285 0.38624140361542525 0.022010278282414603 43.232708574867665 55.206059692493234 0.75000000000000011 0.51400000000000012 0.00050242084776705009 0.030511211302195054
decision_type=2 2 2 2 2 2 2 2 2 2 2 2 2 2 2
left_child=-1 3 -3 4 -2 -5 -7 -8 -9 -10 11 -6 13 -13 -15
right_child=1 2 -4 5 10 6 7 8 9 -11 -12 12 -14 14 -16
leaf_value=-0.09756254512517426 -0.096860913984402622 -0.016305773170985662 0.097898866792738515 -0.076945326092789978 0.0015864406284467596 -0.11885608070387728 0.17603246106561751 0.063966329763013516 -0.13043594539781758 0.096738910032961992 0.14110049482059694 0.09054132096448235 -0.071269826931305333 0.12043942547640354 -0.033435908964314087
leaf_weight=0.29448447981849213 0.86973042503814113 0.35350586660206218 0.57526798918843269 0.3753373257350171 52.571132816869067 0.13125181442592326 0.22717694938182864 1.8355939462780955 0.34649263301980671 0.24342938140034676 0.17352143675088783 0.63780696177855078 2.4404637015832122 0.3648110926151279 1.9290494723827576
leaf_count=49 58 8 8 23 2183 26 1 13 41 3 2 10 216 1 167
internal_value=0 0.000455504 0.0544308 -0.000351161 -0.00191744 0.0288927 0.043162 0.0511785 0.0394845 -0.036693 -0.000496595 -0.000920632 -0.0254546 0.0126842 -0.00896388
internal_weight=0 63.0746 0.928774 62.1458 58.9865 3.15928 2.78394 2.65269 2.42552 0.589922 58.1168 57.9433 5.37213 2.93167 2.29386
internal_count=2809 2760 16 2744 2637 107 84 58 57 44 2579 2577 394 178 168
is_linear=0
shrinkage=0.1


Tree=50
num_leaves=16
num_cat=0
split_feature=9 6 8 7 6 5 0 1 5 3 3 1 7 12 5
split_gain=0.283587 1.12779 0.668458 0.685414 0.610358 0.707556 1.09331 1.43991 0.959256 0.947174 1.03988 0.835024 0.801309 1.06557 0.79048
threshold=0.58500000000000008 0.90013507823645278 0.70715000000000006 0.031974455463218407 0.32721266157026413 0.097936140627007714 0.0011339782218806503 0.015279453872664951 0.29992734164281304 183118.50000000003 184261.00000000003 0.015339071123735202 1.8230239577925766 0.56115000000000015 0.074828263300649664
decision_type=2 2 2 2 2 2 2 2 2 2 2 2 2 2 2
left_child=1 4 -2 -4 5 14 8 9 12 -8 -11 -9 13 -7 -1
right_child=2 -3 3 -5 -6 6 7 11 -10 10 -12 -13 -14 -15 -16
leaf_value=-0.0042900176581767936 0.036200240065040218 -0.14004765559603904 -0.10898294329690338 -0.0087307176365995567 0.069735648212501666 -0.11796823253634295 -0.10755231989186941 0.12013217499628932 -0.11399800553690485 0.13289285081299321 -0.053202239520508121 -0.0061070807454728735 0.15222471918023883 0.056511255561744828 0.046495007561421137
leaf_weight=5.5194632726488724 3.3238467566552563 0.51188917318358917 0.6982633649022344 29.225610501453048 1.5995688755065192 0.41076790285296771 2.5886249458417279 0.57031589001417149 0.37477415043395002 0.38472795486450184 1.3678171760402618 6.4484588330960833 0.67442545504309226 2.366834570246283 6.892005996836815
leaf_count=230 80 24 166 1532 20 19 145 3 28 1 36 318 4 22 181
internal_value=0 0.00709989 -0.00634435 -0.0110701 0.00967965 0.00619885 -0.00827616 -0.0238491 0.0379523 -0.0691187 -0.0123497 0.00415059 0.054449 0.0307082 0.0239106
internal_weight=0 29.7097 33.2477 29.9239 29.1978 27.5982 15.1867 11.3599 3.8268 4.34117 1.75255 7.01877 3.45203 2.7776 12.4115
internal_count=2809 1031 1778 1698 1007 987 576 503 73 182 37 321 45 41 411
is_linear=0
shrinkage=0.1


Tree=51
num_leaves=16
num_cat=0
split_feature=0 9 0 11 4 9 7 6 4 3 7 2 13 1 4
split_gain=0.899114 0.26369 0.816548 1.54504 0.683199 0.436732 0.330413 0.803579 0.893918 0.896381 0.799468 0.903315 0.760218 0.804183 0.741523
threshold=0.00011159435218345002 0.43500000000000005 0.00086440831061735009 0.093300000000000022 1.4558202570136389 0.40500000000000008 0.47085621546158418 0.056121854755729013 3.2292196740106465 59058.500000000007 2.6088937411392146 24778.500000000004 0.25000000000000006 0.053653567588892302 0.30324047594917519
decision_type=2 2 2 2 2 2 2 2 2 2 2 2 2 2 2
left_child=-1 2 -2 -4 5 -5 7 -3 9 -9 12 -12 13 -8 -15
right_child=1 6 3 4 -6 -7 10 8 -10 -11 11 -13 -14 14 -16
leaf_value=-0.13669588738372504 0.13785505942225068 0.10661781243905653 -0.091545838994826448 0.031533569655537518 0.078672718882591919 -0.08216615171625237 -0.070811833532155186 -0.09590027894508979 0.020710257543549191 -0.0068642977708217442 0.013947444384881075 -0.098577581983189777 -0.0073758202419130546 -0.091309514304510078 0.092063743735236125
leaf_weight=0.47746470291167398 0.54961882252246042 0.79351267532911407 1.1515674923430195 0.90498413261957489 2.0740927618462592 0.53905793162994087 4.6021976248302989 1.2937847222783627 14.092351794533895 8.9724184954538924 14.562980551039796 0.75016217061784196 10.164862869918577 0.33597412426024664 0.64173908811062574
leaf_count=12 4 33 60 23 20 31 316 415 426 514 338 194 407 9 7
internal_value=0 0.00106248 0.0225635 0.0089938 0.0419028 -0.0109103 -0.000933974 0.00758566 0.00435956 -0.0180849 -0.00783355 0.00843505 -0.0236562 -0.0533139 0.0290507
internal_weight=0 61.4293 5.21932 4.6697 3.51813 1.44404 56.21 25.1521 24.3586 10.2662 31.0579 15.3131 15.7448 5.57991 0.977713
internal_count=2809 2797 138 134 74 54 2659 1388 1355 929 1271 532 739 332 16
is_linear=0
shrinkage=0.1


Tree=52
num_leaves=16
num_cat=0
split_feature=0 4 4 5 0 1 13 3 1 5 2 12 12 2 10
split_gain=0.289532 0.501785 0.80657 0.453949 0.314122 0.734869 1.71178 1.27352 1.02338 0.951396 0.707375 0.63209 0.930539 0.729074 0.61983
threshold=0.00040897536135915008 19.959411844691616 0.0257989674347632 0.09695096852271691 0.0012263843532812002 0.013237600863311202 0.25000000000000006 201973.00000000003 0.013689805866039151 0.48395817784086875 115293.00000000001 0.66435000000000011 0.64835000000000009 183118.50000000003 0.75000000000000011
decision_type=2 2 2 2 2 2 2 2 2 2 2 2 2 2 2
left_child=1 2 -1 -3 11 6 9 8 10 -6 14 12 13 -2 -7
right_child=4 3 -4 -5 5 7 -8 -9 -10 -11 -12 -13 -14 -15 -16
leaf_value=0.0047481157291854505 0.019466727673015476 -0.091070689178296457 -0.11722012908251112 0.055433103843549152 -0.010761749903553676 -0.11435323074656836 -0.093039683910356358 -0.071268603481181428 0.0028908275692380732 0.12948074315168442 0.10093768126681409 0.055147082973151275 -0.11645881120412696 -0.061513807289602623 0.095674303830462992
leaf_weight=1.0663704853504894 9.8919068521936371 0.27201464772224404 1.1029920391447374 0.95068731717765331 3.2583438906003717 0.334256891132099 2.7808405706018675 2.1737245633266857 31.567950442331494 0.56806251651141781 1.8313087738933971 3.008967945497715 0.61021494684973809 1.2525317801046192 0.24242352443980053
leaf_count=20 276 13 101 34 194 38 222 178 1528 3 21 62 32 81 6
internal_value=0 -0.0283906 -0.0572655 0.0228404 0.00167423 -0.00266818 -0.0333332 0.00293661 0.00768414 0.0100584 0.0705229 0.0142503 0.00378149 0.0103653 -0.0260624
internal_weight=0 3.39206 2.16936 1.2227 57.5205 42.7569 6.60725 36.1497 33.9759 3.82641 2.40799 14.7636 11.7547 11.1444 0.57668
internal_count=2809 168 121 47 2641 2190 419 1771 1593 197 65 451 389 357 44
is_linear=0
shrinkage=0.1


Tree=53
num_leaves=16
num_cat=0
split_feature=0 4 4 5 0 0 12 5 3 0 1 10 2 0 12
split_gain=0.355104 0.447363 0.571152 0.346479 0.344712 0.670401 0.449894 0.557292 0.423796 0.63875 0.512871 0.486351 0.455883 0.751341 0.390127
threshold=0.00040897536135915008 19.959411844691616 0.0257989674347632 0.09695096852271691 0.00067502248394770011 0.00083836061553700008 0.50540000000000018 0.81372517904785802 201973.00000000003 0.00061075346937120012 0.009423448816595752 0.8500000000000002 6100.5000000000009 0.00043384322660025007 0.57480000000000009
decision_type=2 2 2 2 2 2 2 2 2 2 2 2 2 2 2
left_child=1 2 -1 -3 6 -6 7 -2 9 11 -10 14 -12 -14 -8
right_child=4 3 -4 -5 5 -7 8 -9 10 -11 12 -13 13 -15 -16
leaf_value=-0.010330806389434979 -0.11417048224508619 -0.084105215653566337 -0.11476295862884234 0.046916102645886672 -0.071920878838431054 0.0011590498746330174 -0.0020461485504899915 0.12338505270940557 0.12714115919228886 0.066919697817285462 0.095719129045243795 0.057041672350849608 0.087518738879407101 -0.14764526133747136 -0.11631824980344885
leaf_weight=1.1097350423224268 0.42701618117280205 0.25984008843079187 0.99169903856818553 0.90411091304849833 1.2875430996646162 50.085395518079167 0.56602206762181617 0.12846212089061737 0.90197526663541783 1.2118966534035278 0.47036418877541997 0.47680735040921707 0.25336570292711258 0.29294653842225671 0.63273923128144816
leaf_count=20 23 13 101 34 84 2414 22 1 3 21 3 15 2 8 45
internal_value=0 -0.0320671 -0.0596139 0.0176669 0.00184564 -0.000672528 0.0259738 -0.0592324 0.0358217 0.0116158 0.0722503 -0.028384 0.0235522 -0.0385822 -0.0623621
internal_weight=0 3.26539 2.10143 1.16395 56.7345 51.3729 5.3616 0.555478 4.80612 2.88747 1.91865 1.67557 1.01668 0.546312 1.19876
internal_count=2809 168 121 47 2641 2498 143 24 119 103 16 82 13 10 67
is_linear=0
shrinkage=0.1


Tree=54
num_leaves=16
num_cat=0
split_feature=1 7 6 1 5 4 0 1 0 7 0 2 7 1 7
split_gain=0.278973 0.701669 0.589562 0.63426 0.603063 0.454386 0.78988 0.700099 0.363987 0.323711 0.321293 0.454288 0.421623 0.70203 0.498396
threshold=0.038852185799669606 27.117726780503386 0.047250632210540607 0.035634517683199203 0.23973175810125749 11.571469194312797 0.0053953304807753512 0.041763323689719252 0.0073408861540412507 0.3730789417141856 0.0042508290788605008 5442.0000000000009 9.3279743194151248 0.049523988628167807 0.67500218676883128
decision_type=2 2 2 2 2 2 2 2 2 2 2 2 2 2 2
left_child=2 5 4 8 -1 7 -7 -2 -4 -8 -9 -12 13 -13 -15
right_child=1 -3 3 -5 -6 6 9 10 -10 -11 11 12 -14 14 -16
