tree
version=v4
num_class=1
num_tree_per_iteration=1
label_index=0
max_feature_idx=13
objective=lambdarank
feature_names=Overlap_word-level Overlap_subword-level Transfer_lang_dataset_size Target_lang_dataset_size Transfer_over_target_size_ratio Transfer_lang_TTR Target_lang_TTR Transfer_target_TTR_distance GENETIC SYNTACTIC FEATURAL PHONOLOGICAL INVENTORY GEOGRAPHIC
feature_infos=[4.3251875634222231e-05:0.18988547396267541] [0.0047161030096183002:0.27096335660878701] [3317:214111] [3317:214111] [0.015491964448346799:64.54959300572807] [0.017032063752969898:0.94998301496263282] [0.017032063752969898:0.94998301496263282] [1.1870853535025483e-09:3000.4270736553231] [0.125:1] [0:0.92000000000000004] [0:1] [0:1] [0:0.70279999999999998] [0:1]
tree_sizes=1785 1791 1795 1791 1807 1804 1800 1790 1795 1820 1791 1811 1811 1802 1803 1802 1804 1809 1817 1805 1805 1811 1812 1821 1808 1823 1814 1811 1824 1818 1815 1816 1818 1814 1800 1815 1823 1820 1811 1822 1833 1840 1823 1824 1816 1836 1833 1801 1829 1834 1836 1822 1822 1813 1827 1817 1832 1842 1831 1821 1830 1823 1821 1821 1835 1839 1840 1848 1831 1810 1836 1821 1826 1842 1833 1818 1833 1830 1831 1812 1818 1833 1810 1815 1835 1837 1822 1820 1834 1836 1822 1833 1851 1836 1829 1848 1835 1846 1834 1852

Tree=0
num_leaves=16
num_cat=0
split_feature=1 4 4 3 2 5 12 1 2 7 7 1 11 3 12
split_gain=26.1767 21.6425 30.8031 11.2284 7.52252 7.28348 5.02305 4.97751 4.80459 4.11936 4.2425 3.88512 3.4968 3.41231 2.70492
threshold=0.049523988628167807 6.7543223245745327 0.15479543112800861 115293.00000000001 105794.50000000001 0.11764643188621171 0.45045000000000007 0.021172851663449354 184261.00000000003 0.52320384215712423 0.26450858671082172 0.072844263959061711 0.54050000000000009 181506.50000000003 0.49240000000000006
decision_type=2 2 2 2 2 2 2 2 2 2 2 2 2 2 2
left_child=1 2 3 -1 -3 6 -4 -5 -6 10 -10 14 -9 -14 -2
right_child=11 4 5 7 8 -7 -8 12 9 -11 -12 -13 13 -15 -16
leaf_value=-0.19748130349742932 -0.040483194031480256 -0.11362239514424746 0.079217409059593236 0.082860852799377036 0.13874246384906117 -0.18335656865243555 -0.11280199017833614 -0.12981708434536515 -0.11441189003753023 -0.16973812436714664 0.12012550281509421 0.18327686900065185 0.10472965518801192 -0.13497096338028239 0.10969941642447863
leaf_weight=2.0477888077148263 1.5689632433932255 1.9577864692546452 1.8860956961289073 12.85610385835753 9.1345639789651596 15.758090537477981 4.905594425072195 2.177104152593528 1.0320519616943773 0.95602409122511733 3.0520731798605993 6.4337700338219292 2.1138470469741155 0.82595031792880025 5.0895973539008992
leaf_count=115 95 90 72 337 248 900 420 54 39 115 59 63 46 29 127
internal_value=0 -0.0285159 -0.0658942 0.0243819 0.0701182 -0.146046 -0.059477 0.0496603 0.0954962 0.0171184 0.0608583 0.127859 -0.0337552 0.0373846 0.0743117
internal_weight=0 58.7031 42.5706 20.0208 16.1325 22.5498 6.79169 17.973 14.1747 5.04015 4.08413 13.0923 5.1169 2.9398 6.65856
internal_count=2809 2524 1973 581 551 1392 492 466 461 213 98 285 129 75 222
is_linear=0
shrinkage=0.1


Tree=1
num_leaves=16
num_cat=0
split_feature=8 9 0 5 3 8 4 2 13 4 4 8 10 7 0
split_gain=34.1611 24.1165 21.8241 14.8948 15.2107 13.1034 12.0922 11.4964 15.7008 11.1049 10.4513 9.35555 10.9031 10.4527 9.29762
threshold=0.70715000000000006 0.47500000000000003 0.0019639362480106007 0.19348666312824433 175411.00000000003 0.96875000000000011 0.15479543112800861 178460.50000000003 0.15000000000000005 1.7538028607981291 1.9765617774802846 0.23335000000000003 0.65000000000000002 0.23441345412154604 0.0019357708566882504
decision_type=2 2 2 2 2 2 2 2 2 2 2 2 2 2 2
left_child=3 9 5 11 -5 14 -4 -8 -9 -2 -10 -1 13 -13 -3
right_child=1 2 6 4 -6 -7 7 8 10 -11 -12 12 -14 -15 -16
leaf_value=0.17512352152830882 -0.024685563555619735 -0.13184925011066517 -0.0024197803283478089 -0.18693994497575495 0.14691182300727276 0.021644913968659824 -0.13030235098377427 -0.16255598347109701 -0.16270577852327894 0.14204252781912258 0.08915783616157634 -0.077279185338584036 0.13305049242779413 0.10638895041522907 0.17654811235455048
leaf_weight=11.95313569717109 5.9520622380077866 9.3589121385011786 17.304085753392428 3.8350329962559035 2.118640199303627 60.371676939772442 36.22136181476526 5.7872747336514321 2.0303403113503 12.148573739454148 8.7387020979076606 7.1808335324749368 12.753457599785177 5.4504845887422562 1.0915981419384486
leaf_count=16 127 172 236 48 9 720 942 157 113 47 79 71 47 23 2
internal_value=0 -0.0214422 -0.0354006 0.0787544 -0.0681374 0.00374874 -0.0749636 -0.0987484 -0.0297156 0.0872171 0.0416728 0.102177 0.0678279 0.00197465 -0.0996359
internal_weight=0 159.005 140.904 43.2916 5.95367 70.8222 70.0818 52.7777 16.5563 18.1006 10.769 37.3379 25.3848 12.6313 10.4505
internal_count=2809 2595 2421 214 57 894 1527 1291 349 174 192 157 141 94 174
is_linear=0
shrinkage=0.1


Tree=2
num_leaves=16
num_cat=0
split_feature=8 9 4 7 1 9 13 2 3 2 5 0 1 0 11
split_gain=26.7454 17.3999 23.3863 14.586 16.2598 12.8867 10.82 10.0983 15.3411 13.7508 9.65831 6.90348 8.29965 12.3126 8.02221
threshold=0.44950000000000007 0.56500000000000006 0.026988386449934704 0.084474895824357812 0.012078671143526301 0.48500000000000004 0.15000000000000005 142059.00000000003 159538.50000000003 183118.50000000003 0.29992734164281304 0.0017041791273397502 0.049523988628167807 0.0067195286516997512 0.093300000000000022
decision_type=2 2 2 2 2 2 2 2 2 2 2 2 2 2 2
left_child=5 3 -3 -2 -5 6 -1 8 -4 -9 11 -6 13 14 -13
right_child=1 2 7 4 10 -7 -8 9 -10 -11 -12 12 -14 -15 -16
leaf_value=-0.1366938034458709 -0.095321474987956081 0.09756247586095515 -0.13437554825905546 -0.10895607571236079 0.14411891181932832 0.13143692608698931 0.13599972522313164 0.027959842017311928 -0.028116690773145304 -0.10152238995429258 -0.14269691075025073 -0.11302420652733434 0.11545425935772502 -0.13247860613851301 0.087205236973699335
leaf_weight=3.8409779006615308 8.3587287692353112 10.962751987390218 28.822426123078912 5.9256339878775171 11.365970834158359 20.366364553570747 2.3424124475568533 23.994777497951873 25.704362533404492 12.461161283310501 2.0965141800697884 2.3732677865773466 13.050533808767794 4.5088303568772963 12.7550591903273
leaf_count=20 181 61 949 80 35 62 6 253 355 367 30 38 65 181 126
internal_value=0 -0.0152138 -0.0404176 0.0273018 0.0469842 0.0930488 -0.0333911 -0.0570432 -0.0842843 -0.016299 0.0670067 0.0769865 0.0536437 0.0125653 0.0557941
internal_weight=0 162.38 101.945 60.4345 52.0758 26.5498 6.18339 90.9827 54.5268 36.4559 46.1502 44.0537 32.6877 19.6372 15.1283
internal_count=2809 2721 1985 736 555 88 26 1924 1304 620 475 445 410 345 164
is_linear=0
shrinkage=0.1


Tree=3
num_leaves=16
num_cat=0
split_feature=1 0 1 9 11 5 11 11 2 8 4 7 4 1 7
split_gain=31.4014 17.5686 12.1288 11.6395 10.8372 8.06216 7.14605 6.82201 8.71677 6.8175 6.6907 10.1973 6.55464 4.22798 4.18397
threshold=0.048841414416846259 0.0019639362480106007 0.0089272199881007524 0.44500000000000006 0.28375000000000006 0.66824636590960973 0.093300000000000022 0.37190000000000006 142059.00000000003 0.81665000000000021 1.9281918303271477 75.284853203593272 0.026988386449934704 0.052804044259973003 0.46592056369682705
decision_type=2 2 2 2 2 2 2 2 2 2 2 2 2 2 2
left_child=1 2 7 6 12 14 -3 8 -1 -2 11 -11 -4 -12 -6
right_child=9 3 4 -5 5 -7 -8 -9 -10 10 13 -13 -14 -15 -16
leaf_value=-0.11304475472150566 0.10342839201605399 -0.16730240394499168 0.049820799032580312 -0.084000499459242747 0.082155241050298367 -0.14656067250122376 0.10015527476592934 -0.12504729898511921 0.14294564945855248 -0.10758800078086668 -0.10792940423383118 0.19193004970134978 -0.133360656969187 0.098456868363845942 0.02436216388636352
leaf_weight=2.6317411111667743 27.399358982220292 1.207763380371033 2.867495544254778 49.276214020792395 23.963815974071622 2.1329170893877736 5.7787799667567015 9.513710252940653 2.6895834505558014 5.8779750317335155 1.1146754976361979 1.4091858267784116 6.1275163181126118 9.0629813373088819 26.246868876274675
leaf_count=99 104 34 10 1476 158 88 46 209 15 145 19 2 115 35 254
internal_value=0 -0.0244944 0.00680772 -0.066874 0.0264315 0.043856 0.0539199 -0.0743311 0.0163417 0.0723059 0.0234799 -0.0496674 -0.0749647 0.0758531 0.0519448
internal_weight=0 132.436 76.1736 56.2628 61.3386 52.3436 6.98654 14.835 5.32132 44.8642 17.4648 7.28716 8.99501 10.1777 50.2107
internal_count=2809 2504 948 1556 625 500 80 323 114 305 201 147 125 54 412
is_linear=0
shrinkage=0.1


Tree=4
num_leaves=16
num_cat=0
split_feature=8 7 9 0 6 2 1 2 12 1 9 1 1 2 2
split_gain=23.7486 11.8443 9.70045 9.38298 9.23818 8.97059 6.64806 6.98468 5.99123 5.86976 5.56658 5.22055 5.61199 4.98016 4.97036
threshold=0.51665000000000016 0.084474895824357812 0.55500000000000016 0.0023842530492389504 0.10421096847410642 11965.500000000002 0.013439016702424852 188529.50000000003 0.50380000000000014 0.049956831389613952 0.6150000000000001 0.015323621137082301 0.053422337492427911 183118.50000000003 19314.500000000004
decision_type=2 2 2 2 2 2 2 2 2 2 2 2 2 2 2
left_child=10 -2 6 4 -4 -6 -3 11 -7 -5 14 -8 -13 -10 -1
right_child=1 2 3 9 5 8 7 -9 13 -11 -12 12 -14 -15 -16
leaf_value=-0.15669142608705977 -0.096209294849718519 -0.044874930845711369 0.055087407701669359 -0.092617521433265182 -0.12627815948459348 -0.14303441444393286 0.11836674286828222 -0.10444084131015492 0.04003199008058389 0.016421023313252969 0.13331573766712276 -0.029299029558578379 0.082301990149640264 -0.069680387051439738 0.059659783684317708
leaf_weight=1.1431229095906079 16.600045551545918 8.6467921538278443 19.054406870156527 24.140426232945178 7.7741989810019723 2.7422876246273544 11.998950263019653 2.575363188982009 17.10794072505087 6.2061979426071039 12.465128509327768 8.0070123206824082 10.304914992302654 5.4572388334199777 14.938185893930493
leaf_count=22 541 121 208 793 172 76 47 61 194 79 32 198 44 133 88
internal_value=0 -0.0168821 -0.00626381 -0.0261098 -0.000377719 -0.0323246 0.0331494 0.0536644 -0.00346297 -0.070318 0.0831589 0.0670978 0.0335037 0.0134988 0.0442807
internal_weight=0 140.616 124.016 82.4827 52.1361 33.0817 41.533 32.8862 25.3075 30.3466 28.5464 30.3109 18.3119 22.5652 16.0813
internal_count=2809 2667 2126 1655 783 575 471 350 403 872 142 289 242 327 110
is_linear=0
shrinkage=0.1


Tree=5
num_leaves=16
num_cat=0
split_feature=8 7 9 4 4 4 4 4 1 2 2 0 0 12 1
split_gain=20.912 9.68055 7.61679 8.46336 7.08277 8.63868 6.26404 11.669 5.53606 4.66099 4.81192 4.41937 4.34151 4.53161 4.34088
threshold=0.70715000000000006 0.084474895824357812 0.56500000000000006 0.026988386449934704 1.7538028607981291 0.31281583872184721 8.0539470394466992 0.12691252885761992 0.011938711424597901 135612.50000000003 183118.50000000003 0.020521177231994904 0.00086440831061735009 0.56230000000000013 0.013980682971129752
decision_type=2 2 2 2 2 2 2 2 2 2 2 2 2 2 2
left_child=-1 -2 4 8 5 14 7 11 12 -8 -11 -5 13 -4 -3
right_child=1 2 3 6 -6 -7 9 -9 -10 10 -12 -13 -14 -15 -16
leaf_value=0.069342766273327583 -0.097685729948225247 -0.079187381707011978 -0.19260129273889931 -0.02412880932071837 0.061828577089840103 -0.13988765231824671 -0.12088127339205389 -0.1168273892435021 -0.10295576822561217 0.045710042987038707 -0.056945299951565435 0.15029074248826793 0.14935708961416155 0.074379777667466326 0.054998106039954746
leaf_weight=34.416888329200447 13.737902132794259 3.2540867403149631 0.87939795106649254 19.018873115070168 23.413828826509416 4.6055911863222709 2.8508086651563671 20.936399102210999 1.7622481230646361 15.3053483851254 6.5077104959636918 1.5728127136826504 5.1035658419132233 2.2947091087698936 9.3033220218494517
leaf_count=214 510 56 10 329 173 183 90 824 26 109 165 4 6 17 93
internal_value=0 -0.0182813 -0.00894253 -0.0275728 0.0260582 -0.0227398 -0.0405495 -0.064257 0.0579812 -0.000631887 0.0150838 -0.0108065 0.0922434 0.000411697 0.0202257
internal_weight=0 130.547 116.809 76.2319 40.5768 17.163 66.192 41.5281 10.0399 24.6639 21.8131 20.5917 8.27767 3.17411 12.5574
internal_count=2809 2595 2085 1580 505 332 1521 1157 59 364 274 333 33 27 149
is_linear=0
shrinkage=0.1


Tree=6
num_leaves=16
num_cat=0
split_feature=1 4 9 4 4 2 2 6 7 3 4 4 12 8 2
split_gain=16.1961 8.0568 8.66024 9.17291 11.7334 9.28408 6.00124 5.59559 5.69786 5.29065 4.96707 11.2909 7.83486 4.54322 3.97705
threshold=0.075643113836319262 0.022010278282414603 0.62500000000000011 1.6033013328842862 0.31281583872184721 142059.00000000003 175411.00000000003 0.32721266157026413 0.48591111914368357 128209.00000000001 0.11038889491822157 9.6818344884932603 0.59815000000000007 0.41430000000000006 24778.500000000004
decision_type=2 2 2 2 2 2 2 2 2 2 2 2 2 2 2
left_child=1 -1 3 4 9 13 -7 8 -8 -3 12 -12 -4 -5 -2
right_child=14 2 10 5 -6 6 7 -9 -10 -11 11 -13 -14 -15 -16
leaf_value=0.10170262938208439 -0.064487967305882798 -0.14349697178391402 0.047332702257683948 0.13866893950116344 -0.11432153769299754 0.10090503110134325 0.018128900525641173 0.12318600243309773 -0.14408459264697657 0.018422346415708012 -0.1189974049663448 -0.0082038578247198464 -0.10459817018828702 -0.12101217560937877 0.10086092627012389
leaf_weight=5.9904089160263529 1.5883198138326431 2.1982317576184895 10.645354478619991 0.78419164568185795 11.858458330854772 15.707462102174757 14.287411681376403 4.1497301608324042 2.5522110946476451 24.606448587030172 20.112960639875382 16.949600564315915 4.983021091669797 4.7827262338250867 17.284916469827294
leaf_count=24 15 83 126 2 517 76 155 17 82 309 832 249 122 160 40
internal_value=0 -0.0117539 -0.0168405 0.00370208 -0.0314979 0.0359033 0.0541581 0.0191749 -0.00645616 0.00514346 -0.0483913 -0.0683289 -0.00110962 -0.0844318 0.0869456
internal_weight=0 139.608 133.618 80.9269 38.6631 42.2637 36.6968 20.9894 16.8396 26.8047 52.6909 37.0626 15.6284 5.56692 18.8732
internal_count=2809 2754 2730 1401 909 492 330 254 237 392 1329 1081 248 162 55
is_linear=0
shrinkage=0.1


Tree=7
num_leaves=16
num_cat=0
split_feature=8 7 7 5 0 1 9 4 7 6 9 6 12 9 4
split_gain=13.1993 6.13539 6.27032 8.28049 5.68385 7.48284 5.58562 4.55717 5.45937 4.42635 4.2999 7.76763 3.94436 3.28753 3.17646
threshold=0.51665000000000016 0.084474895824357812 0.22591718739812047 0.15400711659458274 0.0015314060394839002 0.053422337492427911 0.6150000000000001 0.022010278282414603 10.186381468700352 0.074828263300649664 0.6150000000000001 0.29992734164281304 0.49240000000000006 0.58500000000000008 1.262744091973093
decision_type=2 2 2 2 2 2 2 2 2 2 2 2 2 2 2
left_child=6 13 3 4 -3 -6 9 8 -4 -1 11 -9 -7 14 -2
right_child=1 2 7 -5 5 12 -8 10 -10 -11 -12 -13 -14 -15 -16
leaf_value=-0.1395145810349567 -0.10492623680524654 0.11580833330783347 -0.11423802002185446 -0.13428116756436825 -0.085674337620286659 -0.053341781583718884 0.11564554042877967 -0.028398680832797497 0.12409066168933457 0.041690427274154673 -0.048709999179231599 0.063949314952343642 0.1210133959796713 -0.12621647459496674 0.027460204181451172
leaf_weight=1.5019980110228086 3.1833635279908759 9.8130594808608347 1.2412075772881497 2.4507080363109699 4.657969241961835 1.72260613925755 11.75972851552069 33.206999149639159 4.259745292365551 13.151983595453201 37.606233095750213 12.550717113539575 5.2576637379825115 6.71454649977386 4.2084152866154909
leaf_count=17 140 39 10 110 167 15 32 678 12 93 960 118 17 325 76
internal_value=0 -0.0133891 -0.0056114 0.0398562 0.0597505 0.0124841 0.0643121 -0.0178408 0.0703154 0.0231173 -0.023658 -0.00306889 0.0779856 -0.0755647 -0.0295537
internal_weight=0 126.873 112.767 23.902 21.4513 11.6382 26.4137 88.8649 5.50095 14.654 83.3639 45.7577 6.98027 14.1063 7.39178
internal_count=2809 2667 2126 348 238 199 142 1778 22 110 1756 796 32 541 216
is_linear=0
shrinkage=0.1


Tree=8
num_leaves=16
num_cat=0
split_feature=1 0 2 3 4 2 4 1 12 4 12 1 2 9 9
split_gain=13.9896 10.7788 5.63766 20.1883 7.80597 6.25824 3.76875 3.60038 6.39529 3.74778 3.24487 5.24871 3.21972 3.14706 4.19532
threshold=0.049523988628167807 0.0067762687366544512 142059.00000000003 115293.00000000001 1.6033013328842862 183118.50000000003 0.022010278282414603 0.096777078674585224 0.49240000000000006 1.6033013328842862 0.61245000000000005 0.013980682971129752 24778.500000000004 0.53500000000000014 0.54500000000000015
decision_type=2 2 2 2 2 2 2 2 2 2 2 2 2 2 2
left_child=1 2 3 -1 -4 -6 -5 8 9 -2 13 -12 -9 -8 -15
right_child=7 -3 4 6 5 -7 10 12 -10 -11 11 -13 -14 14 -16
leaf_value=-0.11341292685635095 -0.15014300444057949 -0.10581226778850075 -0.12501977458803459 0.085779509842963175 0.05987633537531796 -0.023358576062868293 -0.09004518185247877 -0.050399147287583816 0.059954028211672061 0.018699403688622284 -0.12217180145231632 0.021857365080961231 0.11418546820877425 0.13783838186725225 0.014071388769625069
leaf_weight=18.400197323411703 2.6327937017194953 12.236404231283812 3.4114202982746056 6.1429935656487933 27.398197608068585 13.476348780095575 2.2576234107837108 1.3258712328970421 17.468680307269096 2.6258322484791279 4.8154766564257425 5.331497828476131 11.481411516666411 3.2821886185556677 16.54186430759728
leaf_count=814 85 524 205 24 167 274 47 14 137 24 113 93 25 9 254
internal_value=0 -0.0171704 -0.0064374 -0.0272982 0.0203049 0.0324338 0.013996 0.0547442 0.0308494 -0.0658336 0.000313618 -0.0464949 0.0971469 0.0218231 0.034563
internal_weight=0 113.294 101.058 56.7718 44.286 40.8745 38.3716 35.5346 22.7273 5.25863 32.2287 10.147 12.8073 22.0817 19.8241
internal_count=2809 2524 2000 1354 646 441 540 285 246 109 516 206 39 310 263
is_linear=0
shrinkage=0.1


Tree=9
num_leaves=16
num_cat=0
split_feature=1 0 7 5 0 12 1 1 0 0 6 1 0 7 2
split_gain=11.9682 9.05589 4.39114 4.129 4.08058 5.06181 4.82533 7.87404 4.56774 5.54084 4.28831 3.56955 3.43826 3.31409 3.27187
threshold=0.049523988628167807 0.0067762687366544512 0.1105155329166821 0.66824636590960973 0.00159206220571975 0.48715000000000003 0.013655332111405901 0.012320876776530602 0.00054416247864505008 0.00064657771723520012 0.66824636590960973 0.014871604347397852 0.0023842530492389504 0.20784651978904772 173219.50000000003
decision_type=2 2 2 2 2 2 2 2 2 2 2 2 2 2 2
left_child=1 2 11 4 6 -6 7 8 13 -10 -11 -1 14 -4 -7
right_child=-2 -3 3 -5 5 12 -8 -9 9 10 -12 -13 -14 -15 -16
leaf_value=-0.11775343731344404 0.050902789176754587 -0.10230094062768139 0.073073624438512008 -0.11420909036591678 0.032365632502408773 -0.048030001146351857 0.08765165836387516 -0.14276090735419572 0.11693875736211948 0.027328094299890745 -0.17136268415900544 -0.0078939514280862207 -0.076708028612534229 -0.071807120678333461 0.064854006545233531
leaf_weight=6.0213992986828071 34.991898973006755 11.008682161103932 2.0541989244520646 2.9950043326243749 12.734965016134081 6.2701584817841667 9.7880381122231466 3.1425992250442496 7.4961602119728949 15.187310613691809 1.1699306163936842 5.8126535480841994 14.491710078902541 6.8230984658002853 4.3482085838913918
leaf_count=276 285 524 16 150 197 150 54 61 48 193 42 161 463 146 43
internal_value=0 -0.0162897 -0.00666074 0.00115534 0.00529295 -0.0189883 0.0254177 0.00843719 0.0229543 0.045744 0.013117 -0.0637926 -0.0450332 -0.0382818 -0.00180414
internal_weight=0 109.344 98.3354 86.5014 83.5064 37.845 45.6613 35.8733 32.7307 23.8534 16.3572 11.8341 25.1101 8.8773 10.6184
internal_count=2809 2524 2000 1563 1413 853 560 506 445 283 235 437 656 162 193
is_linear=0
shrinkage=0.1


Tree=10
num_leaves=16
num_cat=0
split_feature=1 0 2 3 4 2 12 7 9 9 11 5 2 2 5
split_gain=8.12426 7.24065 3.8462 16.3234 5.8275 4.85206 3.01522 3.32195 3.27956 5.25686 2.87713 2.75916 5.81267 2.69587 2.63718
threshold=0.049523988628167807 0.0067762687366544512 142059.00000000003 115293.00000000001 1.6033013328842862 183118.50000000003 0.67135000000000011 0.031656471450888658 0.49500000000000005 0.53500000000000014 0.87170000000000003 0.12847706258482833 175411.00000000003 4579.0000000000009 0.051478600591620807
decision_type=2 2 2 2 2 2 2 2 2 2 2 2 2 2 2
left_child=1 2 3 -1 -4 11 7 -2 -9 -10 13 12 -6 -5 -11
right_child=6 -3 4 10 5 -7 -8 8 9 14 -12 -13 -14 -15 -16
leaf_value=-0.10701812227727828 -0.07472958138647573 -0.094672186854956347 -0.11632172907445193 -0.132489100028783 0.053137055211405673 -0.022602628854995113 0.09975880502873008 0.077847681870968119 -0.16951169804102748 -0.14187055857703496 0.0872676466465033 0.090059405403857914 -0.1133735620611271 0.0093553976998109797 0.040357485413999375
leaf_weight=16.15359347872436 2.8877123184502151 10.059107312932609 3.0254847859032443 1.4022841416299368 12.001217683777215 12.765255983918903 7.112792393192648 11.490527115762236 1.5275508370250452 0.85487286187708278 4.6550557110458604 11.216686293482779 2.540237843990325 30.122029804624617 11.18283729534596
leaf_count=814 50 524 205 26 86 274 28 55 30 18 20 42 39 494 104
internal_value=0 -0.0140404 -0.00540095 -0.023436 0.0173151 0.0278105 0.0416293 0.0268329 0.0385381 0.00524075 0.0138823 0.0527942 0.0240494 0.00304578 0.0274163
internal_weight=0 103.941 93.8818 52.333 41.5489 38.5234 35.0563 27.9435 25.0558 13.5653 36.1794 25.7581 14.5415 31.5243 12.0377
internal_count=2809 2524 2000 1354 646 441 285 257 207 152 540 167 125 520 122
is_linear=0
shrinkage=0.1


Tree=11
num_leaves=16
num_cat=0
split_feature=1 4 5 3 0 8 7 5 1 5 6 9 5 7 0
split_gain=8.19295 3.35875 5.11055 4.80301 3.90279 4.99211 4.11202 4.30401 3.91439 4.32607 4.86965 3.6433 3.61323 3.2368 3.20269
threshold=0.072844263959061711 0.026988386449934704 0.23145188058874677 115293.00000000001 0.0017150247706009003 0.70715000000000006 75.284853203593272 0.097936140627007714 0.013655332111405901 0.12847706258482833 0.22979774810171641 0.47500000000000003 0.051478600591620807 0.51381410101347014 0.0017041791273397502
decision_type=2 2 2 2 2 2 2 2 2 2 2 2 2 2 2
left_child=1 -1 4 -4 8 -6 7 11 9 12 -11 13 -3 -7 -14
right_child=-2 2 3 -5 5 6 -8 -9 -10 10 -12 -13 14 -15 -16
leaf_value=0.048460140641343213 0.069768159594955692 0.059880281328909213 -0.1189393213164562 -0.019975726933316007 0.03809225706427033 -0.033546603741240376 0.1299696784372287 -0.080208491786830441 0.073391097092718308 -0.10232080737903514 0.074394676292608014 -0.035327935825442851 -0.096794642257157129 0.11597175205654393 0.099159750589197918
leaf_weight=9.4517502319067699 14.957288462668656 2.5712878815829781 8.0341470772400516 12.588012110907583 11.944947084411977 2.4840270704589811 1.4657076206058253 16.613784688524902 10.801489571109412 1.8792576920241106 9.1608302704989892 20.346390502527356 7.611095820553599 3.4709831457585096 0.93672684207558621
leaf_count=72 63 20 480 281 124 59 6 688 70 61 81 585 201 15 3
internal_value=0 -0.00874278 -0.013662 -0.0585308 -0.00329887 -0.0192922 -0.034737 -0.0403623 0.0240318 -2.83592e-05 0.0443139 -0.0151928 -0.0440555 0.0536028 -0.0753207
internal_weight=0 119.36 109.909 20.6222 89.2865 56.3258 44.3809 42.9152 32.9607 22.1592 11.0401 26.3014 11.1191 5.95501 8.54782
internal_count=2809 2746 2674 761 1913 1477 1353 1347 436 366 142 659 224 74 204
is_linear=0
shrinkage=0.1


Tree=12
num_leaves=16
num_cat=0
split_feature=8 9 4 2 3 2 4 0 1 3 4 4 4 1 0
split_gain=6.45859 3.52082 4.53156 7.42543 4.53576 3.67756 3.38657 3.32132 4.25637 3.56761 3.10322 4.34709 3.09674 3.0312 2.86482
threshold=0.51665000000000016 0.57500000000000007 0.12691252885761992 115293.00000000001 149092.50000000003 184261.00000000003 3.9430346007540913 0.00054416247864505008 0.011891116199215651 194170.00000000003 1.9281918303271477 0.31281583872184721 16.581774109303272 0.013980682971129752 0.028284553628029351
decision_type=2 2 2 2 2 2 2 2 2 2 2 2 2 2 2
left_child=-1 10 4 -4 -3 6 -5 -6 -9 -10 11 13 -8 -2 -12
right_child=1 2 3 5 7 -7 12 8 9 -11 14 -13 -14 -15 -16
leaf_value=0.051094196093401295 -0.067578248276016245 -0.088044290940459763 -0.11072947326556071 -0.079700036312877934 -0.067998520062993187 -0.078368870359831519 0.070548718041232208 0.095582073268815973 0.026257184607883552 -0.13050242311552812 0.019841780865701323 -0.076925285441939301 -0.015707584287524032 0.044326405527663384 0.10764163029695768
leaf_weight=20.784081178717315 3.1521266093477633 4.1085916562005904 12.122121980413793 3.8758747796528104 3.1752000674605396 7.2242039674893013 7.717000023461881 8.3615009915083665 8.4656832292675954 1.7523191720247258 17.685181472450498 7.3958494067192069 9.0356034655123931 10.429781804792581 4.7049664519727221
leaf_count=142 77 126 782 195 58 291 77 42 116 49 234 350 112 142 16
internal_value=0 -0.00972425 -0.0242971 -0.0453996 0.00831935 -0.0169665 0.00453691 0.0265186 0.0426714 -0.000626041 0.0123992 -0.0152365 0.0240259 0.0183553 0.0382917
internal_weight=0 109.206 65.8381 39.9748 25.8633 27.8527 20.6285 21.7547 18.5795 10.218 43.3679 20.9778 16.7526 13.5819 22.3901
internal_count=2809 2667 1848 1457 391 675 384 265 207 165 819 569 189 219 250
is_linear=0
shrinkage=0.1


Tree=13
num_leaves=16
num_cat=0
split_feature=8 4 4 1 2 3 9 7 5 3 6 4 1 1 1
split_gain=5.26184 2.91494 13.0851 5.43464 6.58172 4.84503 2.47647 2.78896 3.58025 3.52531 2.64918 2.53343 2.37213 2.15732 3.19778
threshold=0.23335000000000003 1.6033013328842862 0.15479543112800861 0.061836240730364207 105794.50000000001 115293.00000000001 0.47500000000000003 0.47056928822761174 0.051478600591620807 10589.000000000002 0.48395817784086875 4.3730155661957388 0.0091071664236691014 0.011891116199215651 0.014276597262018851
decision_type=2 2 2 2 2 2 2 2 2 2 2 2 2 2 2
left_child=-1 2 5 4 -3 -2 -6 11 9 -9 -10 -8 -7 -14 -15
right_child=1 3 -4 -5 6 12 7 8 10 -11 -12 -13 13 14 -16
leaf_value=0.088227597907897748 -0.1282860714072902 -0.10966955513756677 -0.081898793588643493 0.092602137554247191 0.066698137648183733 -0.05666057972589772 -0.051871253272936194 0.067604956520204401 -0.10554469631523739 -0.13782567221177899 0.020787223433631676 0.035230500794441885 0.069746589533901962 -0.045895461173871804 0.037508171385603223
leaf_weight=6.4154483377933493 2.23250504489988 4.9642703323625019 21.906037386972457 7.1888533197343341 6.9106833077967158 3.3574783476069561 3.9540880499407676 4.4993556393310419 6.5169059438630921 1.025794146582484 2.227198014035821 21.477274759672582 10.231733987107871 6.3406042223796275 16.717560398392379
leaf_count=22 120 329 1161 25 43 76 100 35 189 31 31 241 69 118 219
internal_value=0 -0.00473457 -0.0200876 0.0111466 -0.000207028 0.0147385 0.0114511 0.00183428 -0.0335497 0.0294649 -0.0733669 0.0216879 0.0234514 0.0315311 0.0145736
internal_weight=0 119.55 60.7859 58.7644 51.5756 38.8799 46.6113 39.7006 14.2693 5.52515 8.7441 25.4314 36.6474 33.2899 23.0582
internal_count=2809 2787 1763 1024 999 602 670 627 286 66 220 341 482 406 337
is_linear=0
shrinkage=0.1


Tree=14
num_leaves=16
num_cat=0
split_feature=1 4 3 4 4 2 2 2 1 3 7 7 11 1 0
split_gain=4.71558 2.27689 8.2886 3.65902 3.64116 3.50417 3.43946 3.36515 3.31719 2.61304 2.24178 3.57659 2.16254 2.47923 2.33528
threshold=0.12279787270998756 3.1967874051086302 59058.500000000007 0.15479543112800861 1.6033013328842862 105794.50000000001 188529.50000000003 142059.00000000003 0.052216662013601305 115293.00000000001 0.52320384215712423 0.25976206173173511 0.53270000000000006 0.014995955586658503 0.00054416247864505008
decision_type=2 2 2 2 2 2 2 2 2 2 2 2 2 2 2
left_child=1 2 -1 9 7 -3 -7 8 -5 -4 11 -8 13 -11 -14
right_child=-2 5 3 4 -6 6 10 -9 -10 12 -12 -13 14 -15 -16
leaf_value=-0.11135850357891278 0.084137536031867563 -0.089456634624898321 -0.12455370992678481 -0.083238372234076652 0.02785212954684755 0.035145774956898232 -0.12362150664821954 -0.12393534317021081 0.032923785119525539 0.010618220923461742 -0.1186296259474342 0.029116662529412779 -0.059027127331047952 -0.096816173064578029 0.04642773959826646
leaf_weight=8.0895878979936224 6.3162309732288113 3.1686450890265396 1.2925779735669483 5.0796432625502366 6.3061864990741006 33.689246073365211 1.9972959039732794 5.6331896712072185 4.7638324294239283 8.8848133021965605 2.2437290349043897 6.5967035358771682 2.3135694032534984 2.8328434228897086 22.740988370031118
leaf_count=600 23 197 76 303 92 339 58 395 60 119 112 70 53 83 229
internal_value=0 -0.00459586 -0.0163534 -0.00351156 -0.0361977 0.0121514 0.0193821 -0.0622957 -0.0270207 0.0151933 -0.0296194 -0.00638058 0.0201055 -0.015355 0.0366899
internal_weight=0 115.633 67.9372 59.8476 21.7829 47.6956 44.527 15.4767 9.84348 38.0648 10.8377 8.594 36.7722 11.7177 25.0546
internal_count=2809 2786 2010 1410 850 776 579 758 363 560 240 128 484 202 282
is_linear=0
shrinkage=0.1


Tree=15
num_leaves=16
num_cat=0
split_feature=8 9 4 7 7 9 0 4 4 7 2 4 0 2 7
split_gain=4.37383 2.50239 2.94258 2.36886 2.3536 4.17123 3.24692 4.83194 2.02188 1.95684 2.12993 1.9059 2.67462 1.89959 1.8542
threshold=0.70715000000000006 0.6150000000000001 1.3187549744798368 0.084474895824357812 0.22591718739812047 0.68500000000000016 0.0015314060394839002 2.7384700095644727 0.026988386449934704 0.33728089514840226 183118.50000000003 0.78375936964860737 0.013236626483999151 181506.50000000003 9.2093708065926538
decision_type=2 2 2 2 2 2 2 2 2 2 2 2 2 2 2
left_child=1 2 11 8 5 6 -5 -8 -2 -6 13 12 -1 14 -11
right_child=3 -3 -4 4 9 -7 7 -9 -10 10 -12 -13 -14 -15 -16
leaf_value=-0.1438854425646186 0.15236128303674645 0.082122618284482571 0.052440398858211959 0.089307894069552043 -0.058588586241259691 -0.13237974920267112 -0.13107545571953336 0.055180251480513288 -0.070105682760794 -0.013772378209861073 -0.053102466565633832 -0.12408771015537115 0.037974658582211746 0.092495236711250206 0.030326660962223213
leaf_weight=1.0439161299727882 0.42962893843650718 8.4578725453466159 8.5887487092986685 7.9500983655452711 8.107589122373609 1.4284949349239457 2.0901040062308311 4.175174537114799 8.3191368575207871 38.515486342832446 8.4123974805697781 1.8069033063948152 3.5890771392732859 2.1782576986588529 12.671317381784318
leaf_count=37 1 56 57 45 248 86 144 60 509 932 334 41 23 19 217
internal_value=0 0.0386117 0.0141245 -0.00961898 -0.00454928 0.0305122 0.0468811 -0.00695486 -0.0591809 -0.0123978 -0.00633583 -0.0369765 -0.00300246 0.0010364 -0.00285564
internal_weight=0 23.4865 15.0286 94.2777 85.5289 15.6439 14.2154 6.26528 8.74877 69.885 61.7775 6.4399 4.63299 53.3651 51.1868
internal_count=2809 214 158 2595 2085 335 249 204 510 1750 1502 101 60 1168 1149
is_linear=0
shrinkage=0.1


Tree=16
num_leaves=16
num_cat=0
split_feature=1 2 6 4 2 3 3 2 1 0 7 12 9 13 0
split_gain=4.00105 3.01597 1.90207 1.83005 8.36134 5.5239 3.04728 1.9001 2.00096 1.96856 1.94635 1.80405 1.75205 1.59757 2.25378
threshold=0.075643113836319262 24778.500000000004 0.092972339561743861 0.15479543112800861 105794.50000000001 115293.00000000001 115293.00000000001 183118.50000000003 0.061836240730364207 0.0087314720371549515 0.52320384215712423 0.64835000000000009 0.49500000000000005 1.0000000180025095e-35 0.0054095160589248507
decision_type=2 2 2 2 2 2 2 2 2 2 2 2 2 2 2
left_child=3 -2 -3 6 12 7 -1 8 9 -6 -9 -11 -5 14 -8
right_child=1 2 -4 4 5 -7 13 10 -10 11 -12 -13 -14 -15 -16
leaf_value=-0.12017536593598194 -0.092784663243506232 -0.032937926014099582 0.098475325204489469 -0.01164273203529727 0.027984237230141002 -0.091212621593355997 -0.086578314138217913 0.0044897313769968255 0.10972070941152212 -0.11671588446168323 -0.078901360616108432 0.044182073750570601 -0.10182244444298368 0.010803104579030038 0.11547665642277477
leaf_weight=1.6696698539890338 1.1442435234785069 1.2859177030622939 7.6759887188673019 2.6629366762936106 27.156736261211339 5.6475533661432555 0.6714154146611685 11.384572715498505 2.676375748589634 1.8916492369025939 3.7112553021870545 1.1033103372901676 11.281867841724305 32.20099768973887 3.104992900043726
leaf_count=119 15 17 23 71 280 463 16 177 10 61 160 13 919 450 15
internal_value=0 0.0600992 0.0796192 -0.00577551 -0.0156261 0.00232844 0.0118905 0.0133517 0.0268543 0.0194988 -0.0160117 -0.0574428 -0.0846015 0.0180195 0.0795529
internal_weight=0 10.1061 8.96191 105.163 67.5163 53.5715 37.6471 47.9239 32.8281 30.1517 15.0958 2.99496 13.9448 35.9774 3.77641
internal_count=2809 55 40 2754 2154 1164 600 701 364 354 337 74 990 481 31
is_linear=0
shrinkage=0.1


Tree=17
num_leaves=16
num_cat=0
split_feature=1 0 7 7 12 4 1 0 8 12 12 7 4 4 0
split_gain=3.65233 3.53924 1.94237 1.85544 1.85204 1.74182 2.96238 2.50454 2.03161 1.65569 2.18074 1.58334 1.55648 1.61746 1.51352
threshold=0.049523988628167807 0.0067762687366544512 62.344006632611368 0.1105155329166821 0.67135000000000011 2.3153937829002302 0.053724217316636957 0.025718527672278602 0.23335000000000003 0.54185000000000005 0.65785000000000005 0.11603723605637081 29.613683487027917 0.028134877681244203 0.0063415514468793512
decision_type=2 2 2 2 2 2 2 2 2 2 2 2 2 2 2
left_child=1 2 3 12 5 6 9 -7 -8 -2 -11 -5 13 -1 -13
right_child=4 -3 -4 11 -6 7 8 -9 -10 10 -12 14 -14 -15 -16
leaf_value=0.14460944540920639 0.11008502149892102 -0.076383953502334775 -0.1370974173901551 0.10805626426813837 0.088768888275335245 -0.040174776808219174 0.067394958782339393 0.085255095067891182 -0.062825607703305072 -0.13430437581428045 0.13373637178356965 -0.0013800796813990518 0.1016940084176618 -0.070205602244965984 0.084280519396316853
leaf_weight=0.36854520440101435 2.7226320300251312 7.3088817475363603 1.0760989063419391 1.4173309681937087 4.8623757213354102 2.1082501821219903 1.463503528386356 6.5002912394702435 6.6055503897368872 0.76686256937682606 0.50237479154020548 66.511756101157516 0.64907890930771817 7.1634933119639754 2.1286707157269111
leaf_count=1 23 524 62 13 28 28 8 28 142 24 4 1453 4 432 35
internal_value=0 -0.00979708 -0.0036611 -0.00182581 0.0332393 0.0201763 -0.00434885 0.0545371 -0.0392072 0.0661128 -0.0282116 0.00343667 -0.0468903 -0.0596946 0.00127642
internal_weight=0 86.6239 79.315 78.2389 25.5318 20.6695 12.0609 8.60854 8.06905 3.99187 1.26924 70.0578 8.18112 7.53204 68.6404
internal_count=2809 2524 2000 1938 285 257 201 56 150 51 28 1501 437 433 1488
is_linear=0
shrinkage=0.1


Tree=18
num_leaves=16
num_cat=0
split_feature=1 0 7 5 6 0 0 0 5 4 0 3 12 11 3
split_gain=3.38468 2.88759 1.70001 1.55346 1.749 1.44201 3.7169 2.34606 1.6371 2.81769 1.6218 2.72756 2.38261 2.81355 2.74115
threshold=0.049523988628167807 0.0067762687366544512 62.344006632611368 0.23145188058874677 0.11144249945997386 0.00054416247864505008 0.00067502248394770011 0.00083836061553700008 0.21750072081203178 0.022010278282414603 0.00159206220571975 201973.00000000003 0.48715000000000003 0.40720000000000006 178460.50000000003
decision_type=2 2 2 2 2 2 2 2 2 2 2 2 2 2 2
left_child=1 2 5 4 -2 -1 8 -8 -7 -10 -9 12 -12 -14 -15
right_child=3 -3 -4 -5 -6 6 7 10 9 -11 11 -13 13 14 -16
leaf_value=-0.04220330541984732 0.0094638052028044716 -0.07140431496940744 -0.1357032635927144 -0.16947921519305434 0.06380965483090302 0.10489059583327381 -0.10774687321718948 0.018274071042337633 0.12229356953160797 -0.09482225185888947 0.026120667941354023 -0.12150359719082343 -0.10169451639068815 -0.030598843252697801 0.068417775669286529
leaf_weight=8.0958466271404159 11.972762914840137 6.8805802343413225 0.9661903427913775 0.37246639840304752 11.71743323560804 4.7334167025983325 2.1620102035813025 24.310993613442406 1.0939811766147616 1.3177252202294765 12.797881741542367 2.2583049770910284 4.2091909411828992 13.79677297268063 3.5064400001429012
leaf_count=226 186 524 62 9 90 29 79 384 2 50 261 131 247 465 64
internal_value=0 -0.0092636 -0.00386838 0.0331579 0.0363439 -0.00224123 0.00236828 -0.00537908 0.0707235 0.00366429 -0.00174371 -0.0150516 -0.00804496 -0.0283703 -0.0105334
internal_weight=0 86.1293 79.2488 24.0627 23.6902 78.2826 70.1867 63.0416 7.14512 2.41171 60.8796 36.5686 34.3103 21.5124 17.3032
internal_count=2809 2524 2000 285 276 1938 1712 1631 81 52 1552 1168 1037 776 529
is_linear=0
shrinkage=0.1


Tree=19
num_leaves=16
num_cat=0
split_feature=8 9 0 6 5 12 9 1 13 12 8 9 2 0 7
split_gain=2.76689 1.64418 1.9653 2.54064 4.00168 2.75625 2.52539 2.26052 2.27468 1.86192 2.00082 1.55652 2.74096 1.59631 1.46542
threshold=0.70715000000000006 0.55500000000000016 0.0023842530492389504 0.11144249945997386 0.21750072081203178 0.50380000000000014 0.80500000000000016 0.020432240301391354 0.15000000000000005 0.51255000000000006 0.96875000000000011 0.6150000000000001 19314.500000000004 0.05607635291856481 62.344006632611368
decision_type=2 2 2 2 2 2 2 2 2 2 2 2 2 2 2
left_child=11 -2 3 14 5 -5 9 -4 -9 -7 -11 12 -1 -14 -3
right_child=1 2 7 4 -6 6 -8 8 -10 10 -12 -13 13 -15 -16
leaf_value=-0.14009543840266386 0.01326846095831242 0.030612491373528644 -0.090599182655963506 -0.11933352406274483 -0.10368509715608645 0.12946222480197539 -0.12883747307002436 -0.072989595506862168 0.0073719099425016733 -0.10610250897362422 0.023686181959488628 0.072105779136777834 0.040572320390872975 -0.072839164508765195 -0.15892139318895859
leaf_weight=1.0688365213573003 26.407656915485859 16.594021132681522 6.3893513851799097 1.8117965739220441 5.0466794532258055 1.462930867448448 1.1935607297345985 5.3446804163977495 10.330006121890618 1.3225831245072175 11.652886069379745 6.8981907777488223 10.450657805893568 1.4083386790007342 0.41821421124040981
leaf_count=33 589 209 479 68 344 4 29 310 287 59 191 56 101 24 26
internal_value=0 -0.00760546 -0.0165589 -0.00320612 -0.0252628 -0.00257434 0.0109584 -0.0404651 -0.0200294 0.0225148 0.0104569 0.0337478 0.0132803 0.0271039 0.0259532
internal_weight=0 87.9744 61.5667 39.5027 22.4904 17.4438 15.632 22.064 15.6747 14.4384 12.9755 19.826 12.9278 11.859 17.0122
internal_count=2809 2595 2006 930 695 351 283 1076 597 254 250 214 158 125 235
is_linear=0
shrinkage=0.1


Tree=20
num_leaves=16
num_cat=0
split_feature=1 2 7 4 2 3 3 2 8 1 1 4 11 11 7
split_gain=2.69541 2.26745 1.39042 3.07518 2.60834 4.19816 3.18379 2.69256 2.15485 1.63104 2.04183 4.03684 1.45293 2.08165 1.34319
threshold=0.075643113836319262 24778.500000000004 8.7660470457605886 0.12691252885761992 135612.50000000003 115293.00000000001 115293.00000000001 74438.000000000015 0.70715000000000006 0.039027395939106757 0.011891116199215651 0.06650173949992251 0.60420000000000007 0.39860000000000001 0.62654410580505415
decision_type=2 2 2 2 2 2 2 2 2 2 2 2 2 2 2
left_child=2 -2 4 9 5 7 14 -1 -9 10 12 -12 13 -4 -6
right_child=1 -3 3 -5 6 -7 -8 8 -10 -11 11 -13 -14 -15 -16
leaf_value=-0.11530619164859431 -0.090606103265310975 0.072968829326542806 0.072862324664423966 -0.11543682897995931 0.022323368897231972 -0.0064247488293789614 -0.08426183441845353 0.070831947536677389 -0.070633838467046031 0.10597734631343639 -0.092874273275245278 0.083479416981776119 0.10828356028081854 -0.13934028224636982 -0.028165729839142235
leaf_weight=7.3947126832790655 0.95630643144249727 7.4435162134468555 1.3445759173482641 1.4391673267818976 34.524727246724069 26.015145235694945 3.5392220714129499 1.7166695073246954 2.8885209457948804 2.8193248594179741 3.2545329695567489 2.1590990088880062 3.1209853058680892 0.70449405629187811 6.2182157803326836
leaf_count=805 15 40 10 155 425 548 350 19 147 21 67 26 14 15 152
internal_value=0 0.0543461 -0.00469941 0.0234727 -0.0097802 -0.0289945 0.00671481 -0.0779247 -0.0178999 0.0383883 0.0203836 -0.0225398 0.0653293 -9.53963e-05 0.0146177
internal_weight=0 8.39982 97.1394 14.8422 82.2972 38.015 44.2822 11.9999 4.60519 13.403 10.5837 5.41363 5.17006 2.04907 40.7429
internal_count=2809 55 2754 308 2446 1519 927 971 166 153 132 93 39 25 577
is_linear=0
shrinkage=0.1


Tree=21
num_leaves=16
num_cat=0
split_feature=8 7 4 3 1 3 2 2 5 1 0 6 2 4 6
split_gain=2.24314 1.21941 2.75414 3.43793 2.94706 2.74925 2.60662 2.45311 2.05794 1.99915 1.78196 1.67025 1.62401 2.25783 2.20299
threshold=0.30950000000000005 8.7660470457605886 1.9281918303271477 92735.000000000015 0.061836240730364207 149092.50000000003 178460.50000000003 100579.00000000001 0.12847706258482833 0.029443812905685502 0.00057961768133535016 0.051478600591620807 175411.00000000003 7.776024777419404 0.34281263486567842
decision_type=2 2 2 2 2 2 2 2 2 2 2 2 2 2 2
left_child=-1 2 3 -2 7 -3 11 -4 10 -10 -9 -5 14 -14 -12
right_child=1 5 4 6 -6 -7 -8 8 9 -11 12 -13 13 -15 -16
leaf_value=0.065449063487083736 -0.11493701043748979 -0.12430956015499919 -0.10427829701245628 -0.14192176139157206 0.083109111380418238 0.036159301801784942 -0.11276773244135994 -0.11239121357327138 0.056156708565369556 -0.076570520707481493 0.031844899156002346 -0.0053166246155478851 0.020299980657991688 -0.067944420448283235 -0.11469435756427637
leaf_weight=4.983191540464758 4.0581553410738698 1.1600872380658973 2.1430792023893437 0.92248017457314091 4.7468076124787322 13.400458040181546 2.6465826774947336 1.5782277639955307 10.137158463243393 1.2778664072975505 12.86025724746287 30.098920595832169 5.0688685132190567 6.7746083138044924 1.1148340045474459
leaf_count=30 527 90 253 45 21 218 242 44 84 28 183 761 76 180 27
internal_value=0 -0.00332841 -0.00798878 -0.0279866 0.00851914 0.0233742 -0.0175061 -0.000126078 0.00562491 0.0412984 -0.00923865 -0.00937884 -0.00293318 -0.0301769 0.020155
internal_weight=0 97.9884 83.4278 37.7261 45.7017 14.5605 33.668 40.9549 38.8118 11.415 27.3968 31.0214 25.8186 11.8435 13.9751
internal_count=2809 2779 2471 1575 896 308 1048 875 622 112 510 806 466 256 210
is_linear=0
shrinkage=0.1


Tree=22
num_leaves=16
num_cat=0
split_feature=0 9 8 9 4 4 2 12 12 7 6 12 9 7 6
split_gain=2.28459 1.33929 1.68424 1.3611 1.85959 5.09289 2.71641 1.91138 2.03922 1.87451 1.76122 1.54775 1.53278 1.97599 1.92764
threshold=0.074248479538394876 0.36500000000000005 0.70715000000000006 0.47500000000000003 0.15479543112800861 1.9765617774802846 135612.50000000003 0.60055000000000014 0.59165000000000012 0.16677489130430886 0.90013507823645278 0.57830000000000015 0.58500000000000008 5.3084138047557916 0.05405981031122141
decision_type=2 2 2 2 2 2 2 2 2 2 2 2 2 2 2
left_child=1 -1 -3 -4 7 10 -7 8 9 -5 -6 -11 14 -14 -9
right_child=-2 2 3 4 5 6 -8 12 -10 11 -12 -13 13 -15 -16
leaf_value=-0.082894232146242183 0.09079362510664947 0.029740667053110476 0.036285587289928332 -0.11256530812504364 -0.10252121908269861 -0.090313689727586355 0.0035250954808959292 -0.16824644757198903 0.10834747272529022 0.029814205249790379 0.10068917381079573 -0.13671982210113173 -0.12502384511921572 -0.015297981496429953 0.03639990702482112
leaf_weight=2.0296164569444946 2.6967752240598193 15.182143628597258 6.7816035358700892 1.0847323727794087 8.3315127876121515 3.4478751502465448 29.296204261016101 0.50663277227431347 2.6944269137457004 14.680097572971132 0.44951309100724834 0.58013399923220355 2.4639219956006855 4.9153013676404953 5.0301699773408473
leaf_count=52 15 192 130 33 1015 324 506 10 21 211 29 17 108 81 65
internal_value=0 -0.00251195 -0.000802631 -0.00658011 -0.0105362 -0.0244915 -0.00635591 0.00759828 0.027742 0.0144544 -0.0921186 0.0234832 -0.0220954 -0.0519354 0.0176742
internal_weight=0 97.4739 95.4443 80.2621 73.4805 41.5251 32.7441 31.9554 19.0394 16.345 8.78103 15.2602 12.916 7.37922 5.5368
internal_count=2809 2794 2742 2550 2420 1874 830 546 282 261 1044 228 264 189 75
is_linear=0
shrinkage=0.1


Tree=23
num_leaves=16
num_cat=0
split_feature=1 1 10 7 4 1 4 8 9 5 11 1 0 7 1
split_gain=1.9137 2.70201 1.43063 1.45465 2.38443 2.29516 1.9817 1.7534 1.40892 1.28494 1.27127 2.0489 1.95703 1.94879 1.48572
threshold=0.038788294515836458 0.023960232807133254 0.65000000000000002 27.117726780503386 1.8844659285644829 0.061836240730364207 0.53486567784799022 0.93540000000000012 0.87500000000000011 0.064112689013387805 0.21055000000000004 0.0089272199881007524 0.00095978609577045007 0.61863540427901886 0.0065705874815158508
decision_type=2 2 2 2 2 2 2 2 2 2 2 2 2 2 2
left_child=1 8 3 4 6 9 7 -2 10 -6 12 14 13 -1 -12
right_child=2 -3 -4 -5 5 -7 -8 -9 -10 -11 11 -13 -14 -15 -16
leaf_value=-0.10155563655582184 0.038085815747040813 -0.070463539202382311 0.052448086109838747 0.10517619453650336 0.018750452442081175 0.083884648085822466 -0.11582884774004885 -0.088122693467596658 -0.10159673152233471 -0.10331713996897358 0.002236946718850307 0.013044080105275333 -0.066449147820731289 0.066872639887564131 -0.097129723965137416
leaf_weight=0.91329228505492066 3.0805547481868416 6.4279680688632643 10.093748093117027 1.3306046030484129 2.555080576566978 4.2855862937867641 2.5713954840321094 1.7128436139319152 1.4022400795947749 1.3016619498375801 2.9226400094339615 46.710121300071478 6.3599207220831886 2.7720815287902951 3.1015412011183798
leaf_count=62 46 312 167 12 51 19 183 78 38 47 103 1178 361 30 122
internal_value=0 -0.00865048 0.0226801 0.00483504 -0.00377484 0.0335186 -0.0450056 -0.00701276 -0.00245975 -0.0224477 -0.000245436 0.00596531 -0.0328497 0.0251335 -0.0489218
internal_weight=0 70.6098 26.9315 16.8377 15.5071 8.14233 7.36479 4.7934 64.1818 3.85674 62.7796 52.7343 10.0453 3.68537 6.02418
internal_count=2809 2206 603 436 424 117 307 124 1894 98 1856 1403 453 92 225
is_linear=0
shrinkage=0.1


Tree=24
num_leaves=16
num_cat=0
split_feature=0 2 4 3 7 5 3 10 2 4 3 9 0 7 7
split_gain=1.63703 1.05109 1.09003 3.74652 1.81418 2.77062 1.93997 1.43049 1.42681 1.39612 1.43534 1.22237 1.22113 1.23405 1.51145
threshold=0.074248479538394876 210139.00000000003 3.612750538144565 50793.500000000007 0.54762594431215084 0.051478600591620807 10589.000000000002 0.55000000000000016 100579.00000000001 16.581774109303272 6100.5000000000009 0.60500000000000009 0.04717691926761506 0.0029500659613196007 0.0057105055263292513
decision_type=2 2 2 2 2 2 2 2 2 2 2 2 2 2 2
left_child=1 2 3 -1 8 6 9 11 -4 -6 -11 -7 13 -5 -15
right_child=-2 -3 4 12 5 7 -8 -9 -10 10 -12 -13 -14 14 -16
leaf_value=-0.098374652654271089 0.082291642694753475 -0.067967873257643793 -0.10242935359125338 0.08299357125823642 0.1270334920340454 -0.12647763776599547 -0.13328643079293565 -0.12111381850982933 0.02988748438284243 0.057913585832469111 -0.11561042076593123 0.11409788992116328 -0.087616842155432084 -0.16956906466615973 4.2486313342442894e-05
leaf_weight=4.3354651745175934 2.35798699222505 2.359662174480035 0.84092282503843563 1.7784636355936516 1.5544210672378524 0.34077484812587533 0.64498024736531068 3.0438979058526456 26.395393536426127 1.5163361276499929 0.69525477290153492 0.55546293221414089 1.5978491795249272 0.53127725003287096 47.416123992530629
leaf_count=590 15 104 111 41 3 12 24 171 321 19 14 9 56 11 1308
internal_value=0 -0.00207297 -0.000368906 -0.00910849 0.0132999 -0.027475 0.0269631 -0.0884186 0.0258022 0.054408 0.00336308 0.0226243 -0.00156791 0.00119711 -0.00183688
internal_weight=0 93.6063 91.2466 55.6592 35.5874 8.35113 4.41099 3.94014 27.2363 3.76601 2.21159 0.896238 51.3237 49.7259 47.9474
internal_count=2809 2794 2690 2006 684 252 60 192 432 36 33 21 1416 1360 1319
is_linear=0
shrinkage=0.1


Tree=25
num_leaves=16
num_cat=0
split_feature=1 0 3 7 6 0 1 1 7 7 4 5 12 1 12
split_gain=1.77662 1.28809 1.34938 1.24651 1.12203 1.06801 1.73253 1.15005 1.06233 1.70376 1.09818 1.11526 0.972767 1.37778 1.29748
threshold=0.048841414416846259 0.0067762687366544512 5423.0000000000009 27.117726780503386 0.11144249945997386 0.0063415514468793512 0.022060561738260705 0.038788294515836458 0.084474895824357812 0.086958252857122109 0.028134877681244203 0.047250632210540607 0.61825000000000008 0.053724217316636957 0.60665000000000013
decision_type=2 2 2 2 2 2 2 2 2 2 2 2 2 2 2
left_child=1 5 -3 -4 12 6 8 -7 10 -10 -1 -12 13 -2 -15
right_child=4 2 3 -5 -6 7 -8 -9 9 -11 11 -13 -14 14 -16
leaf_value=0.12306963421694966 0.079316767549112571 0.18851097449840923 -0.082298559889291328 0.056773898264475813 0.051318592177251279 -0.0052548768769114839 -0.058095399676571118 0.12009268802368181 0.13538287443681621 0.00028823709776751728 0.46791371488938482 -0.074574081491646724 -0.081172222690117604 -0.036079584723943077 0.063478012714783399
leaf_weight=0.32716286182403509 2.4238702515140194 0.2220119908452024 4.6539784839842469 0.74808273650705803 9.5360149627085757 1.5040981990750872 5.8102101138792923 1.4258087994530795 0.94966847216710348 54.95658721763175 0.038319516927004194 3.4321837242459878 1.1948176617734123 4.78784792823717 1.8016198957338927
leaf_count=1 40 7 479 20 106 44 203 7 9 1390 1 343 32 116 11
internal_value=0 -0.00710511 -0.0531096 -0.0630397 0.026654 -0.0033249 -0.00596658 0.0557442 -0.000893552 0.00258306 -0.0520735 -0.0685842 0.00361351 0.0148528 -0.00885964
internal_weight=0 74.0681 5.62407 5.40206 19.7442 68.444 65.5141 2.92991 59.7039 55.9063 3.79767 3.4705 10.2082 9.01334 6.58947
internal_count=2809 2504 506 499 305 1998 1947 51 1744 1399 345 344 199 167 127
is_linear=0
shrinkage=0.1


Tree=26
num_leaves=16
num_cat=0
split_feature=8 2 5 7 5 9 4 12 4 3 2 2 9 7 13
split_gain=1.49593 0.919667 0.713804 1.0409 1.93736 1.29916 2.96604 1.28573 1.18703 2.20055 2.46707 1.59483 1.33409 1.2571 1.48346
threshold=0.16025000000000003 212965.50000000003 0.66824636590960973 9.2093708065926538 0.31697542618930957 0.7350000000000001 0.023945148048991054 0.66435000000000011 1.6033013328842862 100579.00000000001 142059.00000000003 44732.500000000007 0.43500000000000005 0.46592056369682705 0.45000000000000007
decision_type=2 2 2 2 2 2 2 2 2 2 2 2 2 2 2
left_child=-1 2 3 4 8 7 -7 -5 9 -2 -11 -10 -13 -14 -15
right_child=1 -3 -4 5 -6 6 -8 -9 11 10 -12 12 13 14 -16
leaf_value=0.086194156103644601 -0.097068870991083966 -0.095285728318649149 -0.072907388719213428 0.05774588313232927 -0.086594106622257944 0.046964071575414684 -0.13581667508436043 -0.10116298001365875 -0.11212685009548017 0.0031362542223759833 -0.09265056812264566 0.0675005694930325 0.019829537898383119 -0.046921672547943785 0.029128749727260594
leaf_weight=1.9704445078968991 3.0035939369117868 1.0420103177893896 1.3517052817624051 8.2694876766763592 2.7453877823427311 2.3479955196380611 1.4275852360296992 0.5425649434328087 1.0395304532721628 25.292424011277038 3.0087291004601857 4.0832902844995251 24.690996676217765 7.3655919113662076 3.9353162969928235
leaf_count=12 411 52 156 110 179 13 46 21 175 591 328 27 422 204 62
internal_value=0 -0.00188406 -0.000791793 0.000319048 -0.00413791 0.026933 -0.0221472 0.0479617 -0.00101204 -0.0156843 -0.00704696 0.0101594 0.0133314 0.00718595 -0.0204386
internal_weight=0 90.1462 89.1042 87.7525 75.1649 12.5876 3.77558 8.81205 72.4195 31.3047 28.3012 41.1147 40.0752 35.9919 11.3009
internal_count=2809 2797 2745 2589 2399 190 59 131 2220 1330 919 890 715 688 266
is_linear=0
shrinkage=0.1


Tree=27
num_leaves=16
num_cat=0
split_feature=1 2 3 2 12 0 0 9 6 9 11 0 7 4 3
split_gain=1.62004 1.04881 0.948891 0.752489 1.38783 1.29835 2.2155 0.973114 1.3803 1.50133 1.2322 1.18497 1.07464 1.72316 1.81286
threshold=0.075643113836319262 24778.500000000004 184261.00000000003 188529.50000000003 0.66435000000000011 0.0039631349363842506 0.0044785024575854007 0.47500000000000003 0.26146560649407896 0.46500000000000002 0.27065000000000006 0.00086440831061735009 8.1027172530168574 8.0539470394466992 24778.500000000004
decision_type=2 2 2 2 2 2 2 2 2 2 2 2 2 2 2
left_child=3 2 -2 7 5 -5 -7 8 9 10 11 -1 13 14 -9
right_child=1 -3 -4 4 -6 6 -8 12 -10 -11 -12 -13 -14 -15 -16
leaf_value=0.19429262222179858 -0.15873761746765752 0.06520776706521518 0.067661882951482982 -0.086438343969469991 0.026737135166357753 0.11674080082930589 -0.058377346556530402 -0.091057092629518277 0.09546082462850887 0.10437413702393512 0.012388895379545335 -0.12929585666516027 0.021028119286303021 0.014165996181726738 -0.01610847907058886
leaf_weight=0.12465000152587702 0.4276940617710342 5.3639873564243317 0.32640983909368515 4.4281329116784018 3.2757102879695594 1.0466884474735709 2.3321896679699421 3.6248703218298024 2.4306525189895183 1.2537225689738987 3.6135041173547506 1.2284881483064962 13.41147832223214 17.940786818508059 29.423495506634936
leaf_count=1 13 40 2 228 85 12 132 552 27 17 66 59 235 299 1041
internal_value=0 0.0496835 -0.0607418 -0.00361289 -0.0278933 -0.0508154 -0.0041303 7.07054e-05 0.0315611 0.00659185 -0.0180912 -0.0994871 -0.00415944 -0.0107844 -0.0243291
internal_weight=0 6.11809 0.754104 84.1344 11.0827 7.80701 3.37888 73.0516 8.65102 6.22036 4.96664 1.35314 64.4006 50.9892 33.0484
internal_count=2809 55 15 2754 457 372 144 2297 170 143 126 60 2127 1892 1593
is_linear=0
shrinkage=0.1


Tree=28
num_leaves=16
num_cat=0
split_feature=13 0 2 12 8 0 4 0 0 3 8 4 12 0 8
split_gain=1.32144 1.01793 0.959905 0.858558 1.46805 0.851572 2.10856 1.84944 1.52444 1.69549 1.49688 1.44087 1.51984 1.32884 1.27153
threshold=1.0000000180025095e-35 0.0044785024575854007 175411.00000000003 0.44080000000000008 0.41430000000000006 0.0023842530492389504 1.8844659285644829 0.0039631349363842506 0.0023412941685098504 194170.00000000003 0.92820000000000014 0.31281583872184721 0.53315000000000012 0.0033868873182199004 0.30950000000000005
decision_type=2 2 2 2 2 2 2 2 2 2 2 2 2 2 2
left_child=1 -1 3 4 -3 8 10 -8 -2 -10 14 12 -12 -14 -7
right_child=5 2 -4 -5 -6 6 7 -9 9 -11 11 -13 13 -15 -16
leaf_value=-0.045123870561553876 0.00049803326519168311 0.068853867614068559 -0.021646149579438254 0.063470040044843662 -0.091476337031379404 0.074187465708932795 -0.058470216530287028 0.026796449357486908 -0.12645657106681404 0.20705413376801649 0.046401319744051039 -0.082943914357446968 0.044480987224746638 -0.082543957458455205 -0.1218935846980374
leaf_weight=1.726701451698317 44.108247109223157 1.2340974453836682 2.3372724384535095 8.607279656105673 1.063030364923178 0.36820928938686881 3.2774713592370963 11.363466892973518 0.19582732068374653 0.68787576444447041 3.3783069788478333 3.2380902242148295 1.1698045467492195 2.7824059879640117 3.2477628332562736
leaf_count=68 1073 9 68 142 47 3 133 274 20 4 85 497 39 131 216
internal_value=0 0.0270922 0.0365091 0.0489742 -0.00534134 -0.00549364 -0.0189123 0.00770894 0.00310347 0.133149 -0.0463901 -0.0273885 -0.00284821 -0.0449462 -0.101927
internal_weight=0 14.9684 13.2417 10.9044 2.29713 73.8175 28.8255 14.6409 44.992 0.883703 14.1846 10.5686 7.33052 3.95221 3.61597
internal_count=2809 334 266 198 56 2475 1378 407 1097 24 971 752 255 170 219
is_linear=0
shrinkage=0.1


Tree=29
num_leaves=16
num_cat=0
split_feature=0 8 4 12 4 0 7 0 11 0 5 7 10 7 7
split_gain=1.30957 0.91266 1.31499 1.21647 1.02344 0.990562 1.31743 1.19496 1.27526 2.55484 1.56264 1.74008 1.41826 1.43131 1.51268
threshold=0.074248479538394876 0.70715000000000006 1.2449405219785714 0.38325000000000004 0.28527117173289657 0.029161483211323003 0.086958252857122109 0.028284553628029351 0.27065000000000006 0.00095978609577045007 0.29992734164281304 0.61863540427901886 0.75000000000000011 0.3264814775707458 0.46592056369682705
decision_type=2 2 2 2 2 2 2 2 2 2 2 2 2 2 2
left_child=1 2 3 -1 -5 7 -7 8 9 10 11 -3 -10 -14 -15
right_child=-2 5 -4 4 -6 6 -8 -9 12 -11 -12 -13 13 14 -16
leaf_value=-0.14959707058325483 0.08419646591238493 -0.077226179411933271 0.048918307580147175 0.039549998639780516 -0.054106052770152492 0.019278326448331023 -0.13191640595072304 0.10526826580221525 0.0076811609330974017 -0.06534261529800782 -0.16578867968973018 0.094612934864206799 -0.13071045441960957 0.053052974212738073 -0.044964481987690236
leaf_weight=0.59972621686756422 1.8091612495481957 0.76344035065267224 7.7384395559784025 2.8645359161309898 1.968675476266071 0.98005892545916085 1.3989223660901187 0.98645599372684856 47.7069248969201 8.4487415690091421 0.35305356350727368 2.583204806316644 1.3351780673256133 2.1436838638037425 5.9298667071852833
leaf_count=26 15 60 87 36 55 31 83 10 1444 554 11 25 131 39 202
internal_value=0 -0.00177533 0.0224433 -0.0152665 0.00140179 -0.00616739 -0.0696293 -0.00401829 -0.00557475 -0.0349961 0.0343041 0.0554128 0.000683145 -0.0348003 -0.018939
internal_weight=0 85.8009 13.1714 5.43294 4.83321 72.6295 2.37898 70.2505 69.2641 12.1484 3.6997 3.34665 57.1157 9.40873 8.07355
internal_count=2809 2794 204 117 91 2590 114 2476 2466 650 96 85 1816 372 241
is_linear=0
shrinkage=0.1


Tree=30
num_leaves=16
num_cat=0
split_feature=1 1 9 4 7 7 1 11 9 2 4 4 5 12 1
split_gain=1.16198 1.51952 1.55495 0.875889 1.06832 2.17365 0.995621 0.875544 1.27981 1.16845 1.04759 1.54347 1.31092 1.36689 0.966148
threshold=0.038788294515836458 0.023960232807133254 0.89500000000000013 14.051164993888081 9.2093708065926538 0.6720814427285281 0.049523988628167807 0.85980000000000012 0.80500000000000016 4579.0000000000009 35.362158858841198 28.909954721192246 0.12847706258482833 0.64080000000000015 0.011938711424597901
decision_type=2 2 2 2 2 2 2 2 2 2 2 2 2 2 2
left_child=1 2 7 4 5 6 -2 8 9 -1 11 -11 13 -13 -9
right_child=3 -3 -4 -5 -6 -7 -8 14 -10 10 -12 12 -14 -15 -16
leaf_value=-0.11393473269077903 -0.054465623337874969 -0.056546810520225088 -0.15967164238330442 0.069434739303664381 0.068414316848459097 -0.090070006450489432 0.026782572012989649 0.071480048067400492 -0.09250914468341441 -0.0014689585412075363 -0.076860732310663871 -0.10879011621402293 0.11265660926494786 0.072806166907567402 -0.064138357258942125
leaf_weight=0.89824558340478589 1.7244455985492155 5.6020432566292575 0.61906247364822675 3.068846696522086 2.8326215925626448 2.2186804263619697 12.028820042032747 2.9609357181470837 1.5689858676632855 46.104614584473893 1.6679213268216688 0.71249023824930124 2.2939075590111315 0.9910349790006876 0.63859084271825839
leaf_count=47 178 312 18 35 39 136 215 60 88 1571 48 23 15 7 17
internal_value=0 -0.0067951 -0.00202721 0.0198999 0.011816 0.00177832 0.0165953 -0.000339841 -0.00350949 -0.000858191 0.00110377 0.00369924 0.063307 -0.0031455 0.04742
internal_weight=0 64.0578 58.4558 21.8734 18.8046 15.9719 13.7533 57.8367 54.2372 52.6682 51.77 50.102 3.99743 1.70353 3.59953
internal_count=2809 2206 1894 603 568 529 393 1876 1799 1711 1664 1616 45 30 77
is_linear=0
shrinkage=0.1


Tree=31
num_leaves=16
num_cat=0
split_feature=1 4 0 7 1 1 12 7 6 0 4 12 11 9 11
split_gain=1.03716 1.15972 1.13913 1.106 1.03838 0.979864 0.933932 1.13139 1.09084 1.08292 1.0165 1.43838 1.67968 1.31998 2.05068
threshold=0.038788294515836458 14.051164993888081 0.0072557437346848002 27.117726780503386 0.041743003277957762 0.041743003277957762 0.59865000000000013 0.084474895824357812 0.48395817784086875 0.0022854307846260006 33.115349355441381 0.59025000000000005 0.40720000000000006 0.71500000000000008 0.54050000000000009
decision_type=2 2 2 2 2 2 2 2 2 2 2 2 2 2 2
left_child=2 3 6 4 -2 -3 7 -1 9 -8 11 13 -13 -9 -15
right_child=1 5 -4 -5 -6 -7 8 10 -10 -11 -12 12 -14 14 -16
leaf_value=-0.057150832931606055 -0.1239409120614003 0.15777486835577098 -0.088497163866990219 0.09715548737064171 0.0073136275533604821 0.037355228411362171 -0.0023384344787648749 0.016188212432806163 -0.10950549892597483 -0.053798055465178456 -0.079573147359772611 -0.12659228725052557 0.091244625517147071 -0.11432014627320659 0.0093471092889054891
leaf_weight=2.6799086516257367 0.62528017326259089 0.98238946194760446 1.6502232401398931 1.3314825305715192 16.717275311239064 2.1646784255281091 16.976964613306343 24.088885648176078 1.2842726311646391 5.3870643900008863 1.2157194125466038 0.39253513701260034 3.6025976713281125 2.152834730106405 3.5552209957968444
leaf_count=216 72 8 213 14 482 27 402 584 70 403 35 13 43 125 102
internal_value=0 0.0187885 -0.00650913 0.00932455 0.00258129 0.0749455 -0.00430327 0.00547135 -0.0198808 -0.0147341 0.0102652 0.0134973 0.0698414 0.00594271 -0.0372949
internal_weight=0 21.8211 62.9862 18.674 17.3426 3.14707 61.336 37.6877 23.6483 22.364 35.0078 33.7921 3.99513 29.7969 5.70806
internal_count=2809 603 2206 568 554 35 1993 1118 875 805 902 867 56 811 227
is_linear=0
shrinkage=0.1


Tree=32
num_leaves=16
num_cat=0
split_feature=1 1 11 0 12 12 11 11 6 6 9 12 2 0 5
split_gain=1.06285 1.70194 1.28001 0.911267 0.80667 1.52711 1.69713 1.01222 2.23273 1.44042 1.22697 1.22535 1.4212 1.19847 0.986584
threshold=0.038788294515836458 0.040782832661907305 0.56640000000000013 0.0072557437346848002 0.59815000000000007 0.59025000000000005 0.40720000000000006 0.62860000000000005 0.28805296405854558 0.22979774810171641 0.58500000000000008 0.61245000000000005 5442.0000000000009 0.00159206220571975 0.09695096852271691
decision_type=2 2 2 2 2 2 2 2 2 2 2 2 2 2 2
left_child=3 2 -2 4 5 -1 -7 8 9 10 11 -6 -13 -9 -11
right_child=1 -3 -4 -5 7 6 -8 13 -10 14 -12 12 -14 -15 -16
leaf_value=-0.0019376464322500898 0.12296919015616162 0.0091872516566239484 -0.12220620349285634 -0.083873113781476827 0.081058692658876302 -0.11988958254878573 0.095414777098098064 0.03168426778676077 -0.10660726854709267 0.070270612120197029 -0.073799132644996199 0.084849227801990029 -0.063553634790858501 -0.089728384002869754 -0.024134618210041928
leaf_weight=33.039686311560217 2.147687441087331 19.639286951976828 0.23637871100800101 1.4931936026550818 1.3033814074005983 0.41792475339025204 2.9528859285637736 5.6817332105711094 3.2329536377219474 2.7059456943534306 4.6065362993977033 0.82435125997290049 2.9712745066499338 0.94877974182600144 1.873369831824675
leaf_count=1039 32 540 31 213 24 16 26 91 178 36 258 6 124 96 99
internal_value=0 0.0188729 0.0986602 -0.00669831 -0.00479542 0.00460375 0.0687206 -0.0189673 -0.0315632 -0.0145792 -0.0363913 -0.00259645 -0.0313228 0.014311 0.03165
internal_weight=0 22.0234 2.38407 62.052 60.5588 36.4105 3.37081 24.1483 17.5178 14.2849 9.70554 5.09901 3.79563 6.63051 4.57932
internal_count=2809 603 63 2206 1993 1081 42 912 725 547 412 154 130 187 135
is_linear=0
shrinkage=0.1


Tree=33
num_leaves=16
num_cat=0
split_feature=0 2 1 4 3 2 2 4 9 4 1 5 3 7 6
split_gain=0.846392 0.658027 0.58268 0.508649 2.54725 1.54501 1.4547 1.10864 1.03974 1.00574 1.00254 1.2294 1.32302 0.97024 1.2626
threshold=0.074248479538394876 212965.50000000003 0.0059785154141463008 1.9765617774802846 92735.000000000015 142059.00000000003 100579.00000000001 1.262744091973093 0.42500000000000004 1.2870213623461635 0.061836240730364207 0.12847706258482833 24778.500000000004 0.86284802764001201 0.34281263486567842
decision_type=2 2 2 2 2 2 2 2 2 2 2 2 2 2 2
left_child=1 2 -1 4 -4 -6 -5 -7 -9 -10 11 13 -13 14 -8
right_child=-2 -3 3 6 5 7 10 8 9 -11 -12 12 -14 -15 -16
leaf_value=-0.11467414167727773 0.071733649831769941 -0.092069113707633432 -0.10509176148337883 -0.085541181459796875 0.0048984337198247751 -0.11323920492340354 -0.0028240181572403576 0.10457768746045769 0.18900632995010236 -0.089690555439875835 0.064103053814856273 0.048071085059489899 -0.12410711869452065 0.089121844764260605 -0.094066025999376732
leaf_weight=0.44475640956079487 1.6127514615654934 0.79308332607615639 2.4985148491687132 1.552889345679431 38.249699248000979 1.9978666570968919 18.626849342836078 0.58410259522497643 0.14668453531339753 1.1043565999716518 3.5013871360570183 8.3792559902649337 0.47138891043141562 1.0325113693252195 1.6510431775823224
leaf_count=48 15 52 533 251 858 313 408 5 3 95 21 101 39 13 54
internal_value=0 -0.00142765 -0.000531772 0.000104416 -0.00699147 -0.00116711 0.00908754 -0.0616953 -0.00558101 -0.0570134 0.0134529 0.00757291 0.0389008 -0.0054382 -0.010253
internal_weight=0 81.0344 80.2413 79.7965 44.5812 42.0827 35.2153 3.83301 1.83514 1.25104 33.6624 30.161 8.85064 21.3104 20.2779
internal_count=2809 2794 2742 2694 1807 1274 887 416 103 98 636 615 140 475 462
is_linear=0
shrinkage=0.1


Tree=34
num_leaves=16
num_cat=0
split_feature=0 7 2 2 3 4 6 5 4 13 9 7 4 13 9
split_gain=0.707896 0.708454 0.64489 0.901754 3.09852 1.37792 1.14699 1.03965 1.78584 1.35175 1.63804 1.2979 1.18623 1.13376 0.960245
threshold=0.064028572076299264 0.0096919139255095526 188529.50000000003 115293.00000000001 115293.00000000001 16.581774109303272 0.084210986107070104 0.12847706258482833 16.581774109303272 0.15000000000000005 0.49500000000000005 0.69475286671788128 45.584525602364742 0.15000000000000005 0.68500000000000016
decision_type=2 2 2 2 2 2 2 2 2 2 2 2 2 2 2
left_child=2 -2 3 4 5 -1 -5 8 -8 10 -9 13 -12 14 -10
right_child=1 -3 -4 6 -6 -7 7 9 11 -11 12 -13 -14 -15 -16
leaf_value=-0.092465437840029377 -0.050350067692177362 0.086586818852322611 -0.025912758471342674 -0.075685730777328084 0.0037362029742780294 0.049760745258232535 0.029224245479514549 0.077944645293127446 -0.075453388956657 0.085126159485454655 -0.14964293797584199 0.038379752032865443 0.1107976841979746 -0.11486423084284464 0.055237402863753976
leaf_weight=5.2247459474601774 0.48581720702350084 1.6993486867286263 9.5530486034695041 1.3052368572680304 35.468762644566596 0.78331239940598596 13.41752239724156 1.0481143689248704 1.1990495310164981 4.559846562333405 0.86896062549203612 1.7097019804641602 0.21894997358322144 2.2160860486328602 1.058506892994046
leaf_count=927 8 23 460 138 701 27 315 7 36 32 40 23 1 61 10
internal_value=0 0.0561423 -0.00156018 0.00180758 -0.00751291 -0.0739224 0.0158133 0.0203548 0.00873343 0.0543742 -0.0112732 -0.0357305 -0.0972274 -0.0640534 -0.014176
internal_weight=0 2.18517 78.6318 69.0788 41.4768 6.00806 27.602 26.2967 19.6009 6.69587 2.13602 6.18334 1.08791 4.47364 2.25756
internal_count=2809 31 2778 2318 1655 954 663 525 445 80 48 130 41 107 46
is_linear=0
shrinkage=0.1


Tree=35
num_leaves=16
num_cat=0
split_feature=13 5 12 0 4 12 7 1 3 7 2 5 12 12 3
split_gain=0.60942 0.6954 1.25612 0.88797 1.04257 1.26024 1.12424 0.761305 0.747403 0.48017 1.12615 1.32855 0.64982 1.38444 2.70475
threshold=1.0000000180025095e-35 0.11144249945997386 0.44080000000000008 0.0054095160589248507 0.2242136324442088 0.67135000000000011 0.0029500659613196007 0.12279787270998756 188529.50000000003 0.029537530137968553 5442.0000000000009 0.047250632210540607 0.59815000000000007 0.59165000000000012 173219.50000000003
decision_type=2 2 2 2 2 2 2 2 2 2 2 2 2 2 2
left_child=1 8 7 -4 -5 6 -6 -3 -1 10 -2 -12 13 -11 -15
right_child=9 2 3 4 5 -7 -8 -9 -10 12 11 -13 -14 14 -16
leaf_value=0.055423188927975681 0.098027376039199421 -0.13719814898403485 -0.062907920908503251 0.091107932258243846 0.075378164998187114 0.076829107990632903 -0.10993232814326093 0.020179631271266284 -0.13900103496008079 0.00051992786421488108 0.27325473165024822 -0.095515848730726854 -0.014897750599564247 -0.13201569071827696 0.11758000625935927
leaf_weight=5.0685771770076808 0.44409746438031961 0.93239264795556642 1.0591212090803308 2.1133670713752508 0.45261697983369265 1.1829564091749487 1.183238463825546 0.45854265056550503 0.20574766513891507 36.286494298197795 0.10275577753782306 1.9831245259265413 24.560494122852106 0.53079175739549045 2.3849104172550142
leaf_count=115 27 53 51 17 7 16 57 5 13 1226 1 237 946 20 18
internal_value=0 0.0201075 0.000294603 0.0201699 0.0380098 -0.00179978 -0.0586597 -0.0853162 0.0478388 -0.00383892 -0.0465647 -0.0773493 -0.00214365 0.0058469 0.0721421
internal_weight=0 12.6566 7.38224 5.9913 4.93218 2.81881 1.63586 1.39094 5.27432 66.2927 2.52998 2.08588 63.7627 39.2022 2.9157
internal_count=2809 334 206 148 97 80 64 58 128 2475 265 238 2210 1264 38
is_linear=0
shrinkage=0.1


Tree=36
num_leaves=16
num_cat=0
split_feature=13 0 0 5 4 6 9 3 9 7 9 2 9 7 12
split_gain=0.869623 0.551779 2.51543 1.14064 1.43694 0.937727 2.46031 0.921035 1.36471 1.33429 0.641517 1.88538 1.31934 1.19607 2.47213
threshold=1.0000000180025095e-35 0.00064657771723520012 0.00054416247864505008 0.21750072081203178 0.022010278282414603 0.81372517904785802 0.78500000000000014 201973.00000000003 0.72500000000000009 0.38544747166825916 0.7350000000000001 5201.0000000000009 0.76500000000000012 10.186381468700352 0.61535000000000006
decision_type=2 2 2 2 2 2 2 2 2 2 2 2 2 2 2
left_child=-1 2 7 -4 -5 10 -7 9 -9 -2 11 -3 -12 -13 -15
right_child=1 5 3 4 -6 6 -8 8 -10 -11 12 13 -14 14 -16
leaf_value=0.024955438734480646 -0.0013508216579899215 -0.13218447659149216 0.10795348896470214 0.1143827733823799 -0.082130176080404127 -0.14065059479691272 0.17533588072148082 0.056505749932580618 -0.15077208162836331 -0.11817082436310296 -0.10647106833663891 -0.0052468819885428354 -0.0089342033003323648 0.067319307164204936 -0.11829983715123647
leaf_weight=11.836297369562088 2.1528481111745337 1.0844932670006517 3.0467123738490045 0.65008461475372292 0.87015776993939653 1.3469756173435588 0.30157555174082507 2.0309231560677294 0.37653093971312035 1.7912066285498438 1.861551692651118 38.760700686863856 5.4380689408862963 5.3125282858964047 0.82954592490568746
leaf_count=334 84 72 23 2 46 65 3 23 13 107 106 1532 236 115 48
internal_value=0 -0.00448538 0.0160469 0.0726514 0.00190251 -0.00856619 -0.082846 -0.0246537 0.0240871 -0.054405 -0.00626818 -0.00189673 -0.0338081 0.00124998 0.0422497
internal_weight=0 65.8539 10.9185 4.56695 1.52024 54.9354 1.64855 6.35151 2.40745 3.94405 53.2869 45.9873 7.29962 44.9028 6.14207
internal_count=2809 2475 298 71 48 2177 68 227 36 191 2109 1767 342 1695 163
is_linear=0
shrinkage=0.1


Tree=37
num_leaves=16
num_cat=0
split_feature=8 6 2 11 9 9 12 9 2 0 12 5 4 4 1
split_gain=0.664179 0.84062 0.661272 0.939167 0.723331 1.2168 1.28802 1.15364 0.90258 1.74444 0.971497 0.821315 0.80177 1.54398 0.894014
threshold=0.51665000000000016 0.11144249945997386 188529.50000000003 0.46690000000000004 0.47500000000000003 0.53500000000000014 0.61485000000000001 0.55500000000000016 21428.500000000004 0.0011128720802909002 0.42295000000000005 0.29992734164281304 0.18390017112789703 11.510348060144986 0.013980682971129752
decision_type=2 2 2 2 2 2 2 2 2 2 2 2 2 2 2
left_child=1 -1 4 -4 8 6 -6 11 9 -2 -10 12 14 -14 -7
right_child=2 -3 3 -5 5 7 -8 -9 10 -11 -12 -13 13 -15 -16
leaf_value=-0.025180832607343551 0.11964430369129607 0.045042641888147092 -0.085445158053024203 -0.0089892290754117789 -0.096158024822623325 -0.001713608216682526 0.016235050600386474 -0.0057046098962472633 -0.050711524399850619 -0.13377931201774423 0.065337108858412415 -0.12337539581999801 -0.083142347875729911 0.069143525593736155 0.097277749308999517
leaf_weight=2.3346090177074057 0.41194157674908527 6.3173864975688048 2.2307661041850215 5.7425765466177836 2.735853260383009 1.2687721848487843 1.6254163734847678 41.220339116407558 0.8499583116499706 0.79739858501125127 4.7684395229443908 0.30665251601021726 1.2121867281384768 1.476955860853195 3.2474212497472763
leaf_count=46 3 96 161 285 137 17 43 1711 35 45 72 11 106 15 26
internal_value=0 0.0260939 -0.00332522 -0.0303799 0.000274778 -0.00366521 -0.0542699 0.00086362 0.0309128 -0.0474548 0.0477811 0.0369053 0.0437267 0.000497513 0.0694673
internal_weight=0 8.652 67.8947 7.97334 59.9213 53.0936 4.36127 48.7323 6.82774 1.20934 5.6184 7.51199 7.20534 2.68914 4.51619
internal_count=2809 142 2667 446 2221 2066 180 1886 155 48 107 175 164 121 43
is_linear=0
shrinkage=0.1


Tree=38
num_leaves=16
num_cat=0
split_feature=1 4 0 0 4 4 9 7 4 2 11 2 3 4 2
split_gain=0.638896 0.737109 0.61078 0.850398 0.787092 0.699652 0.591747 0.54768 1.38984 1.64808 1.29903 0.951709 1.4981 1.20795 1.17027
threshold=0.075643113836319262 1.1121461747699348 0.029549292643580305 0.028284553628029351 1.9281918303271477 2.0785864751707197 0.48500000000000004 8.1027172530168574 0.12691252885761992 9928.5000000000018 0.60420000000000007 115293.00000000001 115293.00000000001 0.61442063922187062 74438.000000000015
decision_type=2 2 2 2 2 2 2 2 2 2 2 2 2 2 2
left_child=2 -2 3 7 -4 -6 -5 11 9 10 -9 12 14 -13 -1
right_child=1 -3 4 6 5 -7 -8 8 -10 -11 -12 13 -14 -15 -16
leaf_value=-0.10851888006246385 -0.0088996133868954157 0.075317126240222576 -0.11216394829722842 0.1350034568223249 0.092352677376441511 -0.056737614614822851 0.0025219484288607624 -0.054224941206755244 -0.10516611175355468 0.072674357682867896 0.03368355713105247 0.14531317723017803 -0.008887797243887649 0.0026802961010761184 -0.0050589031480028209
leaf_weight=3.0455248812213567 1.8718628846108902 2.3365995418280363 1.138054718030616 0.77604684233665355 0.51500600110739447 0.80953820375725627 0.59614621265791357 2.9927315581589902 0.8652865571202718 4.5830758605152369 3.8349843970499933 0.60586837818846362 19.92501829424873 29.70718369516544 1.7055999237345529
leaf_count=795 35 20 104 2 5 15 18 77 148 50 33 6 482 920 99
internal_value=0 0.0378587 -0.00224089 -0.000485293 -0.0511727 0.0012313 0.0774472 -0.00207509 0.0170224 0.026288 -0.00484859 -0.00633852 -0.0209196 0.00553111 -0.0713779
internal_weight=0 4.20846 71.1001 68.6375 2.4626 1.32454 1.37219 67.2653 12.2761 11.4108 6.82772 54.9892 24.6761 30.3131 4.75112
internal_count=2809 55 2754 2630 124 20 20 2610 308 160 110 2302 1376 926 894
is_linear=0
shrinkage=0.1


Tree=39
num_leaves=16
num_cat=0
split_feature=8 2 11 11 7 2 0 0 5 12 12 12 9 4 9
split_gain=0.514707 0.553122 0.464782 1.43873 1.23009 1.65434 1.29486 1.11787 1.18591 0.978839 1.59647 1.59491 1.17267 1.81323 1.10652
threshold=0.23335000000000003 105794.50000000001 0.42335000000000006 0.40720000000000006 21.492547962595015 10589.000000000002 0.028284553628029351 0.0079703448297084017 0.29031657170336383 0.50145000000000006 0.50635000000000008 0.51980000000000015 0.54500000000000015 0.053396780924067057 0.53500000000000014
decision_type=2 2 2 2 2 2 2 2 2 2 2 2 2 2 2
left_child=1 -1 3 4 6 -6 7 8 -2 12 -11 -12 14 -14 -4
right_child=2 -3 9 -5 5 -7 -8 -9 -10 10 11 -13 13 -15 -16
leaf_value=-0.036535754163143919 0.0034211921804002975 0.080596579111202715 -0.020628841805251132 0.094787222822456996 -0.11115300696644251 0.13618289156114191 0.058630170640164105 -0.081137606456831685 -0.10698305003727959 0.086123453477038592 -0.13207550908417023 -0.0010617520522515367 0.043909067715234756 -0.091112294280121658 0.10477492673414546
leaf_weight=0.55014664493501131 13.346385160170042 1.5088260546326635 3.3029084900626895 1.8547989048529405 0.34007665142416854 1.3204223818611351 2.8098095399327567 2.2016888448270029 1.0494316607946519 2.05454659188399 0.9538165734265921 35.983307098271325 1.2583248638547955 4.7456074322108179 0.89409007038921107
leaf_count=11 577 11 106 22 12 21 58 211 103 30 58 1259 17 303 10
internal_value=0 0.0492994 -0.00140756 0.010353 0.0029195 0.0855275 -0.00414849 -0.0147764 -0.0046271 -0.00688772 0.000327339 -0.00444488 -0.0344663 -0.0628141 0.00608603
internal_weight=0 2.05897 72.1152 22.9226 21.0678 1.6605 19.4073 16.5975 14.3958 49.1926 38.9917 36.9371 10.2009 6.00393 4.197
internal_count=2809 22 2787 1004 982 33 949 891 680 1783 1347 1317 436 320 116
is_linear=0
shrinkage=0.1


Tree=40
num_leaves=16
num_cat=0
split_feature=1 1 6 6 12 10 6 7 9 13 12 5 7 1 1
split_gain=0.682169 0.805296 0.676348 1.15476 0.896277 0.695771 0.62506 1.07238 0.767937 0.774235 0.715236 0.691872 0.736309 0.772163 0.722368
threshold=0.038788294515836458 0.036277550649678705 0.05405981031122141 0.058498410393010909 0.53530000000000011 0.8500000000000002 0.05405981031122141 0.006201147187528201 0.85500000000000009 0.15000000000000005 0.39375000000000004 0.074828263300649664 0.69475286671788128 0.0079519629488290517 0.0081081918193401017
decision_type=2 2 2 2 2 2 2 2 2 2 2 2 2 2 2
left_child=1 6 4 -4 -2 -5 7 -1 11 -10 -9 12 13 -8 -13
right_child=2 -3 3 5 -6 -7 8 10 9 -11 -12 14 -14 -15 -16
leaf_value=0.26246139457449663 0.094913460962146201 -0.10445210605358418 -0.075320686972757678 0.010873681101595561 -0.047648461974990439 0.08987324333884926 0.060510026396015965 0.034296326809176068 0.084705335281222538 -0.11349458148806875 -0.078069252542714213 -0.040576889445647794 0.01295145501817997 -0.068824006553466099 0.0094201212857330709
leaf_weight=0.11010979861020986 2.0356198999797956 0.81153673623339173 1.473256557015701 12.830564192438029 0.56295488239265967 1.2209397298283882 0.52423292538151045 0.71611705748364363 0.2417926792986681 1.0660565405851228 2.7109467686386779 3.1228882115101433 2.7052382808178663 3.8648621530737728 38.720411909656832
leaf_count=1 45 71 75 439 26 18 10 12 8 71 122 226 75 189 1421
internal_value=0 -0.00558049 0.0168105 0.00890697 0.0640289 0.017738 -0.0040886 -0.0447198 -0.00122825 -0.0768518 -0.0545894 0.000792779 -0.028084 -0.0533764 0.0056887
internal_weight=0 54.5942 18.1233 15.5248 2.59857 14.0515 53.7827 3.53717 50.2455 1.30785 3.42706 48.9376 7.09433 4.3891 41.8433
internal_count=2809 2206 603 532 71 457 2135 135 2000 79 134 1921 274 199 1647
is_linear=0
shrinkage=0.1


Tree=41
num_leaves=16
num_cat=0
split_feature=9 13 2 1 1 1 1 1 1 1 0 0 0 7 11
split_gain=0.526258 0.53027 0.433488 0.406172 0.737227 0.431546 0.423041 0.50953 0.483373 0.603535 0.493435 1.02196 0.934436 1.48723 0.752511
threshold=0.87500000000000011 0.15000000000000005 212965.50000000003 0.0078689013127403017 0.0065705874815158508 0.0059785154141463008 0.0079519629488290517 0.0081081918193401017 0.0082240407100760502 0.0084722185838157511 0.00064657771723520012 0.00083836061553700008 0.00054416247864505008 0.63851879679199586 0.56640000000000013
decision_type=2 2 2 2 2 2 2 2 2 2 2 2 2 2 2
left_child=2 -2 3 4 5 -1 -5 -8 -9 -10 12 -12 13 14 -11
right_child=1 -3 -4 6 -6 -7 7 8 9 10 11 -13 -14 -15 -16
leaf_value=-0.10555651548111429 0.067921963754340536 -0.10376417284714078 -0.078820460354315058 0.10093158927407274 -0.10383917773265483 0.016895305953185835 -0.12690954355776882 0.12868962921086563 -0.11282910629833104 0.10162273561560353 -0.0745620025079929 0.0034208741101411501 0.074779774815368114 -0.1463048035447993 -0.030325161835689493
leaf_weight=0.33745964951231133 0.22633839701302239 0.87677449500188231 0.67273011535871674 0.44295444386079807 1.0049385174643246 1.9559191812877541 0.3011049599153911 0.30684843135531892 0.44765933649614353 0.85999918170273237 1.7301748917670909 58.522717317100614 2.6355894797015935 0.60999230435118068 0.86893893405795097
leaf_count=48 8 32 52 12 94 72 22 12 23 6 60 2292 28 30 18
internal_value=0 -0.0685373 0.00106941 0.00183692 -0.0324187 -0.00112289 0.00353021 0.0028793 0.00347158 0.00288653 0.0036807 0.00118158 0.0339508 -0.0120568 0.0353077
internal_weight=0 1.10311 70.697 70.0243 3.29832 2.29338 66.726 66.283 65.9819 65.6751 65.2274 60.2529 4.97452 2.33893 1.72894
internal_count=2809 40 2769 2717 214 120 2503 2491 2469 2457 2434 2352 82 54 24
is_linear=0
shrinkage=0.1


Tree=42
num_leaves=16
num_cat=0
split_feature=8 4 12 9 0 9 0 6 0 2 0 12 9 5 7
split_gain=0.381703 0.694759 0.79051 0.549565 0.685913 0.495304 0.733007 1.48211 1.27177 0.949885 0.702619 0.899862 0.566526 0.56611 0.600749
threshold=0.70715000000000006 1.1121461747699348 0.38325000000000004 0.6150000000000001 0.013236626483999151 0.47500000000000003 0.028284553628029351 0.15400711659458274 0.00086440831061735009 178460.50000000003 0.027075007403305103 0.43200000000000005 0.52500000000000013 0.66824636590960973 2.6873041296574063
decision_type=2 2 2 2 2 2 2 2 2 2 2 2 2 2 2
left_child=1 2 -1 4 -4 6 7 8 -2 -9 12 -12 -7 14 -14
right_child=5 -3 3 -5 -6 10 -8 9 -10 -11 11 -13 13 -15 -16
leaf_value=-0.14363525996201709 0.15149484090700996 0.04032745507908661 -0.12572501767246 0.058729479369318133 0.00060351295662166237 -0.051320354620454159 0.086136809974768996 0.080734846598676122 -0.10025649521484802 -0.068470413075444089 0.04264073090855449 -0.11387050447509312 -0.0074079609532942724 -0.086364228943105317 0.016554971463939829
leaf_weight=0.41249237267765959 0.23109525442123313 5.8985359854996204 0.52115941536612842 1.1960187670774756 2.4517887807451189 2.4064380739000617 1.4551900825463233 2.1488522873842162 1.5236973013961685 0.53239362128078926 0.52004533098079164 1.2511594691313801 35.608105006453115 0.77728484652470697 14.814624234277288
leaf_count=25 1 95 34 19 41 130 20 34 104 15 20 99 1695 146 331
internal_value=0 0.0176358 -0.0115793 0.00148681 -0.0215419 -0.00301659 0.0245498 0.00434695 -0.0671024 0.0511083 -0.00594918 -0.0679171 -0.00390171 -0.001673 -0.000367449
internal_weight=0 10.48 4.58146 4.16897 2.97295 61.2689 5.89123 4.43604 1.75479 2.68125 55.3777 1.7712 53.6065 51.2 50.4227
internal_count=2809 214 119 94 75 2595 174 154 105 49 2421 119 2302 2172 2026
is_linear=0
shrinkage=0.1


Tree=43
num_leaves=16
num_cat=0
split_feature=12 0 10 10 4 4 6 7 9 7 7 4 2 3 5
split_gain=0.386763 1.11296 1.09639 1.01155 1.4312 0.967018 0.94439 0.941491 0.937129 0.883351 0.828062 1.73217 3.2016 1.33119 1.04447
threshold=0.67135000000000011 0.00069041976417160008 0.75000000000000011 0.65000000000000002 16.581774109303272 0.034294490867019807 0.90013507823645278 0.39085007329410387 0.75500000000000012 0.54762594431215084 5.3084138047557916 0.037039856438961453 17311.500000000004 170053.50000000003 0.18586265588824694
decision_type=2 2 2 2 2 2 2 2 2 2 2 2 2 2 2
left_child=2 -2 3 5 6 -1 -5 -4 10 -3 11 -7 -13 -12 -15
right_child=1 9 7 4 -6 8 -8 -9 -10 -11 13 12 -14 14 -16
leaf_value=-0.056622886147225965 0.091893245557368219 0.028163695933670369 -0.11184719094730056 0.038036651128169327 -0.08137152567682944 0.12205298462373471 0.16058720162258514 -0.021618890600562796 -0.076761322642792271 -0.04165280815023082 -0.076631764015999998 -0.11009980011066722 0.0025115489900011632 -0.094542315248182823 0.066683487835480268
leaf_weight=3.1891310075297943 1.7070845973212252 4.9850800849380903 1.3942612094979248 6.5167284302297031 0.93923501041717816 1.0741086937487114 0.69596747495234002 6.7804741018626373 1.5126354708336283 2.8473571756621823 0.90319607162382354 2.7578911210293873 29.853725497872801 0.4356200179317965 5.1782820876687765
leaf_count=76 26 207 220 218 38 6 3 260 118 115 87 237 1086 28 84
internal_value=0 0.0187292 -0.00291791 0.00233455 0.0347416 -0.00354859 0.0498618 -0.037008 0.000508924 0.00278302 0.00341622 -0.00289636 -0.00701174 0.0360449 0.0541729
internal_weight=0 9.53952 61.2313 53.0565 8.15193 44.9046 7.2127 8.17474 41.7155 7.83244 40.2028 33.6857 32.6116 6.5171 5.6139
internal_count=2809 348 2461 1981 259 1722 221 480 1646 322 1528 1329 1323 199 112
is_linear=0
shrinkage=0.1


Tree=44
num_leaves=16
num_cat=0
split_feature=5 7 1 0 9 3 4 9 2 7 3 8 4 7 1
split_gain=0.377689 0.978952 1.01871 1.95774 1.41624 0.92491 0.807256 1.78595 1.4832 0.967916 0.912772 0.969502 0.781499 0.774878 0.757152
threshold=0.23145188058874677 2.9426436025139595 0.011891116199215651 0.0019154922065890002 0.69500000000000006 194170.00000000003 0.053396780924067057 0.66500000000000015 17311.500000000004 93.193228225072033 204297.00000000003 0.30950000000000005 0.10489573145944951 3.9747642507363015 0.0097394738892592012
decision_type=2 2 2 2 2 2 2 2 2 2 2 2 2 2 2
left_child=6 -2 4 -4 13 -5 7 -1 9 -8 12 -12 -10 -3 -6
right_child=1 2 3 5 14 -7 8 -9 10 -11 11 -13 -14 -15 -16
leaf_value=0.059530508099355756 -0.053241813377030961 0.086294433583567004 -0.10363833324704547 0.030433663493232555 -0.021555577564669904 -0.088441353726104011 -0.1150436665168329 -0.11454419457147028 0.073952733093164941 0.092240204737954842 0.11340635367164416 -0.093332157765590576 0.0038096298363698884 -0.09731402901207363 0.083153916448951648
leaf_weight=5.1116503442171952 4.4514124972629387 0.29530146182514538 2.1435872575966641 4.0461737933801487 0.86938927369192232 0.78081909520551551 1.6425771382346273 0.66619833465665568 1.6522124968469132 0.26107715256512154 0.26359954476356495 1.6262810198822979 41.122536993119866 1.0370656041195614 3.3575532406684943
leaf_count=59 433 8 68 156 30 28 228 24 13 2 1 154 1496 63 46
internal_value=0 -0.012959 0.00135203 -0.024112 0.0332803 0.0112043 0.00420395 0.0394593 -0.000170276 -0.0866157 0.00351412 -0.0644964 0.00651897 -0.0566197 0.0616175
internal_weight=0 16.9813 12.5299 6.97058 5.55931 4.82699 52.3461 5.77785 46.5683 1.90365 44.6646 1.88988 42.7747 1.33237 4.22694
internal_count=2809 832 399 252 147 184 1977 83 1894 230 1664 155 1509 71 76
is_linear=0
shrinkage=0.1


Tree=45
num_leaves=16
num_cat=0
split_feature=2 6 0 0 2 0 0 12 3 0 7 3 7 1 0
split_gain=0.304235 0.296595 0.293688 0.595547 0.943956 0.59156 0.715627 0.565023 0.680852 0.713927 0.724237 0.512413 0.777159 0.42302 0.548943
threshold=212965.50000000003 0.29992734164281304 0.00040897536135915008 0.00026182604781195003 197945.50000000003 0.00064657771723520012 0.00083836061553700008 0.45045000000000007 201973.00000000003 0.00056215183320425016 0.29314110863655646 201973.00000000003 0.24652351658990088 0.010005150270978801 0.0010209512848403503
decision_type=2 2 2 2 2 2 2 2 2 2 2 2 2 2 2
left_child=2 -2 3 11 -5 7 -7 -4 9 10 -9 12 -1 -8 -15
right_child=1 -3 5 4 -6 6 13 8 -10 -11 -12 -13 -14 14 -16
leaf_value=0.045996615148657022 -0.12123399145609424 0.023317260770273567 -0.17775572280194799 -0.13427413922760384 0.050402510916327796 -0.065909898602368885 -0.076334854336622612 0.027893193379630116 0.089436309602740918 0.046941929274686316 -0.126286815889294 0.05340792640205419 -0.10446174243435789 0.033564611655325753 -0.00094112315171164963
leaf_weight=0.61644757690373786 0.39875450800172885 0.22040200419723988 0.12294807482976366 0.94416364934295394 0.39155836030840874 1.6335894517833356 0.69456816633464669 0.61631745524937309 1.7745055072009561 2.218598770792596 0.60250430821906775 1.1055994322523472 0.77478372165933251 5.0705289155011988 50.813448454398895
leaf_count=18 43 9 7 68 16 90 77 21 12 53 37 14 51 86 2207
internal_value=0 -0.0697779 0.000641195 -0.0262421 -0.0801374 0.00226254 -0.000658297 0.0341336 0.039132 0.0131634 -0.0483231 0.00259009 -0.0377944 0.00122571 0.00218969
internal_weight=0 0.619157 67.3796 3.83255 1.33572 63.547 58.2121 5.33487 5.21193 3.43742 1.21882 2.49683 1.39123 56.5785 55.884
internal_count=2809 52 2757 167 84 2590 2460 130 123 111 58 83 69 2370 2293
is_linear=0
shrinkage=0.1


Tree=46
num_leaves=16
num_cat=0
split_feature=2 5 1 0 7 0 6 7 0 8 11 5 7 3 13
split_gain=0.374191 0.298755 1.36722 0.990049 0.959276 1.57664 0.91903 0.921906 1.01372 0.934456 0.853344 0.848651 1.13703 0.902064 0.866616
threshold=212965.50000000003 0.11144249945997386 0.012757662221058402 0.00159206220571975 9.2093708065926538 0.0029711885359890006 0.077848848747769164 0.34815647812994294 0.016135121263820253 0.81665000000000021 0.19990000000000005 0.074828263300649664 0.79006991475129418 173219.50000000003 0.45000000000000007
decision_type=2 2 2 2 2 2 2 2 2 2 2 2 2 2 2
left_child=1 2 10 -3 5 -5 -7 9 -9 -8 -1 13 14 -4 -13
right_child=-2 3 11 4 -6 6 7 8 -10 -11 -12 12 -14 -15 -16
leaf_value=0.02494994890783829 -0.079999766240176448 0.010952089762175231 0.0074747651238731882 -0.094148947864182084 0.014839464137263165 -0.071493653317830183 0.002822601965195549 0.046224341162544993 -0.20011751190267535 -0.091483530465791121 -0.070048098894582647 0.048651076792678723 -0.12818111891025125 -0.092935758319600673 -0.082740407372476246
leaf_weight=1.3492401287658164 0.57964176719542493 19.683768791641342 9.9317519210744649 3.3763040036137708 5.4559531937120473 2.3279296242399132 2.9259800615254781 3.7232744884386197 0.17489457048941393 1.6393985439499363 3.1605247460538521 11.074269261560397 0.40293722343631166 0.98328161740209985 0.52582201024051833
leaf_count=42 52 601 313 331 174 147 74 153 10 279 136 294 30 134 39
internal_value=0 0.000694852 0.00870465 -0.00489419 -0.020789 -0.0345093 -0.01585 -0.000545001 0.035172 -0.0310421 -0.0416264 0.0186087 0.036959 -0.00157072 0.0426952
internal_weight=0 66.7353 27.4278 39.3075 19.6237 14.1678 10.7915 8.46355 3.89817 4.56538 4.50976 22.9181 12.003 10.915 11.6001
internal_count=2809 2757 988 1769 1168 994 663 516 163 353 178 810 363 447 333
is_linear=0
shrinkage=0.1


Tree=47
num_leaves=16
num_cat=0
split_feature=8 6 3 4 4 13 9 3 5 7 9 11 1 9 1
split_gain=0.354593 0.73928 0.652027 0.427985 0.460831 1.16531 0.86141 0.48817 0.432325 0.607666 0.40224 0.406701 0.383188 0.364289 0.788945
threshold=0.44950000000000007 0.11764643188621171 184261.00000000003 35.362158858841198 28.909954721192246 0.15000000000000005 0.69500000000000006 6380.0000000000009 0.12847706258482833 0.70117364634551438 0.60500000000000009 0.62860000000000005 0.0123814264608795 0.6150000000000001 0.011875230475877503
decision_type=2 2 2 2 2 2 2 2 2 2 2 2 2 2 2
left_child=1 2 -1 4 7 -6 8 -2 9 -7 11 -3 -5 -9 -15
right_child=3 10 -4 12 5 6 -8 13 -10 -11 -12 -13 -14 14 -16
leaf_value=-0.087870629474453565 -0.047204515153305378 0.045212978289338818 0.026823336637364265 -0.02314267162323071 -0.13827049074116837 -0.032973660717138725 -0.11120746238898238 0.0057967096477957326 0.10545191507790488 0.10184739124481323 0.090862680619962027 -0.084385750470902632 -0.12911259008262518 0.010784116347962541 -0.028152379190712142
leaf_weight=0.85723289614543263 2.3800128445145665 1.1796565679833295 1.175137303303927 1.332442485494538 0.35264891106635277 0.73722776118666 0.28961833543144155 32.11276230783551 1.5615732602309433 0.61169540463015437 1.6022563409060238 0.30468588974326838 0.45869947574101377 9.2559570302837546 11.887318764085647
leaf_count=22 270 22 21 49 18 21 17 1175 14 5 17 6 25 365 762
internal_value=0 0.0252796 -0.0215534 -0.0021221 -0.000664742 0.034253 0.0532649 -0.00289449 0.0696312 0.0281636 0.0561168 0.0186107 -0.0502809 -0.000914274 -0.011107
internal_weight=0 5.11897 2.03237 60.98 59.1888 3.55276 3.20011 55.6361 2.9105 1.34892 3.0866 1.48434 1.79114 53.256 21.1433
internal_count=2809 88 43 2721 2647 75 57 2572 40 26 45 28 74 2302 1127
is_linear=0
shrinkage=0.1


Tree=48
num_leaves=16
num_cat=0
split_feature=0 4 9 0 9 9 9 2 7 4 4 12 7 6 7
split_gain=0.320894 0.333443 0.30727 0.998763 0.42136 0.422675 0.352172 0.590123 0.454942 0.611398 0.494897 0.428554 0.403914 0.735599 0.695496
threshold=0.074248479538394876 1.0518410574650312 0.36500000000000005 0.00086440831061735009 0.37500000000000006 0.38500000000000006 0.47500000000000003 188529.50000000003 0.20187968767175349 0.10307142721604547 2.5814504737359338 0.44405000000000006 0.46592056369682705 0.056121854755729013 2.6873041296574063
decision_type=2 2 2 2 2 2 2 2 2 2 2 2 2 2 2
left_child=2 -2 3 -1 -4 -6 7 8 10 -10 -7 -11 13 -8 -14
right_child=1 -3 4 -5 5 6 12 -9 9 11 -12 -13 14 -15 -16
leaf_value=0.11368365375018402 -0.019374276228939356 0.10087571416590485 0.098479083966122011 -0.091576934546875668 -0.160148210381786 -0.08357067390594991 0.10879982082157734 -0.063283449958647209 -0.099625305145417398 -0.004765621282592729 0.035379990694017295 0.083983292233301476 -0.024472393402265782 0.0040874072268578488 0.0052992022719492334
leaf_weight=0.3024110933765759 0.36550050042569537 0.62475727871060371 0.43289932422339816 1.0969085629330946 0.1654390599578609 0.57753146800678112 0.6898235763656001 0.68870974250603456 0.23964166757650707 0.68483050831127945 0.88689775764942169 2.6477493982529268 16.195161108393226 24.429347014884115 15.222023367008658
leaf_count=2 8 7 4 50 4 51 27 43 11 23 11 35 742 1279 512
internal_value=0 0.0564919 -0.000870557 -0.0472175 0.000161165 -0.000520617 -9.64621e-05 0.0235371 0.0354089 0.0546519 -0.0115309 0.0657458 -0.0024898 0.00696302 -0.0100477
internal_weight=0 0.990258 64.2594 1.39932 62.8601 62.4272 62.2617 5.72536 5.03665 3.57222 1.46443 3.33258 56.5364 25.1192 31.4172
internal_count=2809 15 2794 52 2742 2738 2734 174 131 69 62 58 2560 1306 1254
is_linear=0
shrinkage=0.1


Tree=49
num_leaves=16
num_cat=0
split_feature=4 2 9 13 9 1 4 4 5 7 1 2 4 6 9
split_gain=0.297315 0.8803 0.361225 0.687589 0.410184 1.12371 0.49227 0.471615 0.610978 0.528902 0.459989 0.595565 0.366347 0.364194 0.631984
threshold=0.022010278282414603 4915.5000000000009 0.80500000000000016 0.15000000000000005 0.78500000000000014 0.015738683174158653 35.362158858841198 28.909954721192246 0.12847706258482833 0.69475286671788128 0.0078689013127403017 210139.00000000003 27.881546103014379 0.90013507823645278 0.59500000000000008
decision_type=2 2 2 2 2 2 2 2 2 2 2 2 2 2 2
left_child=-1 -2 4 -4 6 -6 7 10 9 -9 11 -3 13 -12 -15
right_child=1 2 3 -5 5 -7 -8 8 -10 -11 12 -13 -14 14 -16
leaf_value=0.035690870997824468 -0.078470158056339195 -0.10281203415512735 0.035361816922913236 -0.095512059085309506 0.099610047864887072 -0.092073326019582111 -0.061691380077480679 -0.040163949463017934 0.085836046123493381 0.072188800424191388 0.0028525248578637028 0.10290201589942075 -0.096956163222411365 -0.13503569423150263 0.010352167213542866
leaf_weight=2.2524241460487238 1.443610001617343 0.82650485646445204 0.65384517738129844 1.0399262747378086 1.2159800830995653 0.40860080975107838 1.2472825977019955 1.182398913893848 1.4931208919733761 0.64895824948325742 50.256394877957064 0.16961653158068657 0.38038723729550739 0.52653870871290454 0.69182631140574813
leaf_count=24 132 115 20 105 26 36 58 41 18 13 2163 2 10 24 22
internal_value=0 -0.00129277 0.000541465 -0.0449909 0.00184755 0.0513995 0.000445659 0.0018253 0.0383583 -0.000350719 -0.000472716 -0.0677837 0.000820306 0.00154285 -0.0524799
internal_weight=0 62.185 60.7414 1.69377 59.0476 1.62458 57.423 56.1757 3.32448 1.83136 52.8513 0.996121 51.8551 51.4748 1.21837
internal_count=2809 2785 2653 125 2528 62 2466 2408 72 54 2336 117 2219 2209 46
is_linear=0
shrinkage=0.1


Tree=50
num_leaves=16
num_cat=0
split_feature=5 5 1 4 0 0 4 0 0 11 8 0 7 13 5
split_gain=0.343316 0.701337 0.838358 0.921006 0.579771 0.760493 0.750371 1.86221 1.16808 1.16197 0.879624 0.648894 1.35213 0.679765 0.819698
threshold=0.11144249945997386 0.10421096847410642 0.012757662221058402 13.074836483006633 0.00159206220571975 0.0015314060394839002 0.07379827656128897 0.0044278677444773507 0.0045151748013271516 0.53270000000000006 0.84520000000000006 0.0012646681355113502 0.73390093214445662 0.45000000000000007 0.31697542618930957
decision_type=2 2 2 2 2 2 2 2 2 2 2 2 2 2 2
left_child=1 2 3 -1 5 11 9 -8 -9 -6 -10 13 -13 -2 -15
right_child=4 -3 -4 -5 6 -7 7 8 10 -11 -12 12 -14 14 -16
leaf_value=-0.11840166798780516 -0.0070839131991246897 0.06749823453986141 0.012644429408738299 -0.0097054014236845586 -0.069315373622438128 0.070751228264229679 -0.085545245046109483 0.11190825647123454 0.013916678956026975 0.030861821821689839 -0.058984662845220283 0.029508005337610929 -0.13305817039883822 0.057237429783384822 -0.056924092810045325
leaf_weight=1.0335640282137379 10.410477555444237 1.8860100295860309 20.259943188750185 3.1716048836242408 1.4948152550496185 1.6645690202713002 4.3813451508176495 0.7844808114459737 3.9047295609489083 5.1366763142868876 2.8728151959076058 1.0095202999655151 1.0373827814473768 3.9096202683867878 0.74952508875867341
leaf_count=85 406 52 800 103 56 20 515 10 99 100 388 27 54 57 37
internal_value=0 0.00874044 0.00421081 -0.0364212 -0.00616556 0.00622385 -0.0186925 -0.0336693 -0.00361296 0.00828072 -0.0169842 -5.13927e-05 -0.0528815 0.00712451 0.0388721
internal_weight=0 26.3511 24.4651 4.20517 37.356 18.7811 18.5749 11.9434 7.56203 6.63149 6.77754 17.1165 2.0469 15.0696 4.65915
internal_count=2809 1040 988 188 1769 601 1168 1012 497 156 487 581 81 500 94
is_linear=0
shrinkage=0.1


Tree=51
num_leaves=16
num_cat=0
split_feature=9 7 4 8 7 12 12 0 4 8 6 6 0 7 9
split_gain=0.345102 0.434152 0.479406 0.53994 0.534069 0.405974 0.395056 0.585358 0.387704 0.38349 0.589002 0.491064 0.392624 0.919413 0.354526
threshold=0.47500000000000003 0.51381410101347014 1.0518410574650312 0.23335000000000003 0.22927897172808429 0.55785000000000007 0.43085000000000007 0.00086440831061735009 0.10307142721604547 0.44950000000000007 0.11764643188621171 0.064112689013387805 0.027075007403305103 0.11364026552095556 0.52500000000000013
decision_type=2 2 2 2 2 2 2 2 2 2 2 2 2 2 2
left_child=1 2 3 -1 -4 -5 7 -3 -8 10 11 -2 14 -14 -11
right_child=9 6 4 5 -6 -7 8 -9 -10 12 -12 -13 13 -15 -16
leaf_value=0.09511962732544979 0.059240558365811172 0.10582395966116578 0.042158235666755473 -0.12735437087603227 -0.050599013066952608 0.0010491520100612008 -0.074334157395401113 -0.092558026894031295 0.080768246340503988 -0.038950063774384085 0.055788121450222508 -0.073083906510559848 0.016019203818103792 -0.11626500002180014 -0.0012075146999673768
leaf_weight=0.20986112253740419 0.42469895631074839 0.23515111207962069 2.6427386978175496 0.67363519663922378 0.81128275953233231 0.3880892027518712 0.17426644964143667 0.40474034694489092 2.1432363014901057 2.6297438341425723 2.524071179155726 0.82571639679372311 1.0971073902910569 1.0082631192635743 46.427942001115298
leaf_count=3 3 1 62 62 29 18 10 24 33 140 40 19 41 92 2232
internal_value=0 0.0198511 0.00104575 -0.0514486 0.0203714 -0.0804194 0.0499001 -0.0196554 0.0691052 -0.00277617 0.0279842 -0.0281404 -0.00504548 -0.0473318 -0.00323071
internal_weight=0 7.683 4.72561 1.27159 3.45402 1.06172 2.95739 0.639891 2.3175 54.9375 3.77449 1.25042 51.1631 2.10537 49.0577
internal_count=2809 242 174 83 91 80 68 25 43 2567 62 22 2505 133 2372
is_linear=0
shrinkage=0.1


Tree=52
num_leaves=16
num_cat=0
split_feature=9 7 7 5 6 5 5 12 0 7 7 6 4 1 0
split_gain=0.303195 0.436818 0.451704 0.360509 0.529426 0.335667 0.37792 0.519398 0.390036 0.329877 0.802861 1.14583 1.10404 0.806456 1.65772
threshold=0.47500000000000003 0.50019042865746033 0.42631352552285234 0.097936140627007714 0.097936140627007714 0.16217379476095542 0.15248835447197218 0.38325000000000004 0.028284553628029351 0.47056928822761174 2.6873041296574063 0.077848848747769164 0.18390017112789703 0.011891116199215651 0.0015314060394839002
decision_type=2 2 2 2 2 2 2 2 2 2 2 2 2 2 2
left_child=1 2 5 -3 -5 6 7 -1 -9 -2 11 -11 13 -12 -15
right_child=9 3 -4 4 -6 -7 -8 8 -10 10 12 -13 -14 14 -16
leaf_value=-0.11891712799169799 0.0058900722700041576 0.084834158193881418 -0.14248150311708591 -0.06526917586143309 0.057372327639377774 -0.13169269408313775 0.091010113692740438 -0.02436644150861041 0.046751790928564282 -0.11380443092481657 0.045203083495788353 -0.01725244340875335 -0.10374286026843441 -0.12600278478648846 0.011016873832173025
leaf_weight=0.33180075167911116 25.03468418988632 1.4276553476229312 0.2150091379880904 0.53570100537035603 1.0264010634273288 0.16928140158415761 0.52617244701832522 1.4778576240059922 1.6126465648412702 1.3505781616549963 5.1335529389325503 13.66929639992304 0.84796471457230005 0.99874429916962792 7.6168981335940771
leaf_count=26 1322 18 12 32 22 27 4 69 32 111 81 620 227 30 176
internal_value=0 0.0191085 -0.00118025 0.048511 0.0153141 0.00619781 0.0121095 -2.12748e-05 0.0127435 -0.00256026 -0.00970315 -0.0259343 0.00699807 0.0138279 -0.00486675
internal_weight=0 7.32253 4.33277 2.98976 1.5621 4.11776 3.94848 3.4223 3.0905 54.6517 29.617 15.0199 14.5972 13.7492 8.61564
internal_count=2809 242 170 72 54 158 131 127 101 2567 1245 731 514 287 206
is_linear=0
shrinkage=0.1


Tree=53
num_leaves=16
num_cat=0
split_feature=8 2 7 3 6 5 13 7 0 12 4 5 13 5 12
split_gain=0.955249 2.19777 0.380482 1.11872 1.37087 0.968721 0.936483 0.865579 0.619212 1.21628 0.653324 0.613552 1.02859 0.486795 0.478159
threshold=0.18335000000000004 115293.00000000001 8.1027172530168574 170053.50000000003 0.074828263300649664 0.38240872581199098 0.35000000000000003 9.7662540876441799 0.010691703275549353 0.57745000000000013 0.06650173949992251 0.31697542618930957 0.25000000000000006 0.34281263486567842 0.44080000000000008
decision_type=2 2 2 2 2 2 2 2 2 2 2 2 2 2 2
left_child=1 -1 11 14 7 -6 -7 -5 9 -9 13 -2 -13 -11 -4
right_child=2 -3 3 4 5 6 -8 8 -10 10 -12 12 -14 -15 -16
leaf_value=-0.15032100836962614 0.00094888254316596139 0.083182598185850345 0.021838793431636007 0.079843665064200986 0.18180231328007618 0.087480559602217123 -0.14771169046575247 -0.12537030896826368 0.060017831099101318 -0.071915247711247784 0.079807950001902647 0.012039777157551309 -0.12734951970236805 0.03331201849779547 -0.087318371053591512
leaf_weight=1.1968835312873114 47.846089869752177 0.6077640764415263 0.60120808845385809 1.4314574142917971 0.93322989344596896 0.91344395279884316 0.20781556650763378 0.95462941669393364 1.0084205919411031 1.0397488167509439 0.82996561471372832 1.1176651077403215 1.0058149159012826 0.76169797405600537 1.2068670617300084
leaf_count=9 2251 7 13 13 4 15 16 50 28 42 11 89 134 9 118
internal_value=0 -0.0716823 0.00216114 0.0200834 0.0359941 0.106535 0.0438897 0.0119437 -0.00921135 -0.0286791 0.00639875 -0.00138551 -0.0539838 -0.0274225 -0.0510222
internal_weight=0 1.80465 59.8581 9.88848 8.08041 2.05449 1.12126 6.02592 4.59446 3.58604 2.63141 49.9696 2.12348 1.80145 1.80808
internal_count=2809 16 2793 319 188 35 31 153 140 112 62 2474 223 51 131
is_linear=0
shrinkage=0.1


Tree=54
num_leaves=16
num_cat=0
split_feature=5 1 4 1 1 9 3 11 12 6 1 9 2 4 5
split_gain=0.268296 0.682002 0.771351 0.558091 1.30466 1.18799 1.08853 0.937529 0.922334 0.902215 0.825754 0.797221 0.708034 0.646946 0.818423
threshold=0.11144249945997386 0.012757662221058402 11.510348060144986 0.011891116199215651 0.011794028391186501 0.68500000000000016 201973.00000000003 0.84380000000000011 0.57480000000000009 0.047250632210540607 0.012024986011905351 0.79500000000000015 24778.500000000004 9.6818344884932603 0.12141638936285361
decision_type=2 2 2 2 2 2 2 2 2 2 2 2 2 2 2
left_child=1 2 -1 4 6 10 7 8 12 -7 -5 -11 -2 -12 -15
right_child=3 -3 -4 5 -6 9 -8 -9 -10 11 13 -13 -14 14 -16
