tree
version=v4
num_class=1
num_tree_per_iteration=1
label_index=0
max_feature_idx=13
objective=lambdarank
feature_names=Overlap_word-level Overlap_subword-level Transfer_lang_dataset_size Target_lang_dataset_size Transfer_over_target_size_ratio Transfer_lang_TTR Target_lang_TTR Transfer_target_TTR_distance GENETIC SYNTACTIC FEATURAL PHONOLOGICAL INVENTORY GEOGRAPHIC
feature_infos=[4.3251875634222231e-05:0.18988547396267541] [0.0047161030096183002:0.27096335660878701] [3317:214111] [3317:214111] [0.015491964448346799:64.54959300572807] [0.017032063752969898:0.94998301496263282] [0.017032063752969898:0.94998301496263282] [1.1870853535025483e-09:3000.4270736553231] [0.125:1] [0:0.92000000000000004] [0:1] [0:1] [0:0.70279999999999998] [0:1]
tree_sizes=1793 1786 1790 1806 1803 1800 1807 1799 1805 1812 1800 1804 1806 1807 1792 1809 1804 1803 1810 1813 1814 1801 1808 1800 1808 1814 1816 1802 1816 1800 1833 1822 1821 1824 1806 1818 1821 1824 1809 1828 1828 1823 1825 1809 1839 1832 1810 1831 1830 1825 1829 1825 1817 1815 1851 1824 1827 1837 1832 1835 1821 1832 1833 1836 1817 1843 1840 1833 1834 1834 1830 1834 1845 1827 1825 1818 1844 1846 1839 1834 1841 1842 1821 1819 1836 1826 1837 1836 1827 1842 1844 1843 1832 1836 1840 1836 1844 1830 1841 1852

Tree=0
num_leaves=16
num_cat=0
split_feature=1 4 4 3 2 5 2 12 7 7 1 11 1 12 3
split_gain=28.7127 21.5533 29.1241 11.0924 8.27284 7.67096 5.7619 4.83286 3.87991 4.53746 3.82489 3.92552 3.77679 2.67892 2.5622
threshold=0.049674887185997003 6.6303717347402324 0.15560500608316039 115293.00000000001 135612.50000000003 0.11764643188621171 184261.00000000003 0.45060000000000006 0.52933326226010557 0.26677629085331395 0.021091717776893951 0.54050000000000009 0.073783924873783963 0.39230000000000004 181506.50000000003
decision_type=2 2 2 2 2 2 2 2 2 2 2 2 2 2 2
left_child=1 2 3 -1 -3 7 -6 -4 9 -8 -5 -12 13 -2 -13
right_child=12 4 5 10 6 -7 8 -9 -10 -11 11 14 -14 -15 -16
leaf_value=-0.19748551456453201 -0.18678806276459525 -0.093214070642447522 0.079737411823653723 0.078406053883463667 0.14727699442330994 -0.18346174117668834 -0.11933324103892401 -0.10865966181710052 -0.16900835956963245 0.11633011322532523 -0.13153257320339096 0.10472965518801192 0.18632943780474062 0.094783563580923755 -0.11976304480034286
leaf_weight=2.0512182871461873 0.35608406667597403 2.7244472978054572 1.882589640328663 12.231047307053815 8.6703855546948017 15.858301700995069 1.1050694815930899 4.9203759185329545 0.94671164732426394 3.1343040053034201 2.0533120346663045 2.1138470469741155 6.5083322052960284 6.6147978540539043 0.66940169074223366
leaf_count=116 22 147 72 325 207 908 43 414 116 64 47 46 55 201 26
internal_value=0 -0.0303825 -0.0686664 0.0222314 0.0660839 -0.145355 0.0974049 -0.0565244 0.014026 0.0549002 0.0486374 -0.0266438 0.131547 0.0804004 0.0507367
internal_weight=0 58.361 41.7801 19.1188 16.5809 22.6613 13.8565 6.80297 5.18609 4.23937 17.0676 4.83656 13.4792 6.97088 2.78325
internal_count=2809 2531 1954 560 577 1394 430 486 223 107 444 119 278 223 72
is_linear=0
shrinkage=0.1


Tree=1
num_leaves=16
num_cat=0
split_feature=1 5 0 8 9 7 1 5 12 6 7 11 11 12 7
split_gain=37.11 27.9428 16.9244 20.8973 14.6051 18.0958 12.8274 10.3975 10.221 8.92906 9.15548 8.68839 7.159 6.62236 7.3264
threshold=0.073783924873783963 0.20334608381313682 0.0024110494912254507 0.84520000000000006 0.47500000000000003 8.6235797540524022 0.0089272199881007524 0.051478600591620807 0.44405000000000006 0.10421096847410642 0.078973468706162467 0.28375000000000006 0.33050000000000007 0.64835000000000009 0.029297864717911754
decision_type=2 2 2 2 2 2 2 2 2 2 2 2 2 2 2
left_child=2 9 6 -4 8 -6 7 -1 -5 10 -2 -8 -10 14 -13
right_child=1 -3 3 4 5 -7 11 -9 12 -11 -12 13 -14 -15 -16
leaf_value=0.1240842216220456 -0.1097966747930649 -0.19880879804256427 0.04128970934137341 -0.1617824150713599 -0.10865275047044082 0.058404861422171953 -0.053152541390178831 -0.10441365212643604 0.16936751756440874 0.17338117851073062 0.1119621411585785 -0.18823159018949087 -0.11970405849218065 -0.021209819351720574 0.073238313724710055
leaf_weight=2.3671745620667926 2.5143253989517742 2.8142476677894583 20.496805409668013 1.6606254018843163 55.678546942654066 7.3386549905408165 9.5886974744498712 12.54556902637705 4.9023409155197442 18.082250952720642 7.173055998980999 1.0986537486314762 1.038150785025209 10.570587076712398 43.577384516363963
leaf_count=5 14 10 248 51 1116 138 166 318 20 17 14 32 40 165 455
internal_value=0 0.101448 -0.0181588 -0.0476029 -0.0734037 -0.0891981 0.0154821 -0.068143 0.0575398 0.131877 0.0544054 0.0347167 0.11885 0.0499674 0.0668084
internal_weight=0 30.5839 170.863 91.1151 70.6183 63.0172 79.7481 14.9127 7.60112 27.7696 9.68738 64.8353 5.94049 55.2466 44.676
internal_count=2809 55 2754 1613 1365 1254 1141 323 111 45 28 818 60 652 487
is_linear=0
shrinkage=0.1


Tree=2
num_leaves=16
num_cat=0
split_feature=8 9 4 4 4 9 4 1 3 1 4 0 12 12 8
split_gain=33.905 22.5209 12.0507 12.5986 9.1294 6.74877 11.8413 6.45891 7.15543 6.39688 10.3795 7.54244 9.72495 8.67227 10.201
threshold=0.51665000000000016 0.56500000000000006 1.7524732721136014 0.30708951813127494 0.022197470248790502 0.47500000000000003 18.862500030094083 0.013968350959706352 128209.00000000001 0.06150245910305626 1.9654240071531797 0.0019639362480106007 0.50145000000000006 0.50635000000000008 0.96875000000000011
decision_type=2 2 2 2 2 2 2 2 2 2 2 2 2 2 2
left_child=-1 2 3 7 -3 -4 -7 -2 -9 11 -11 12 -6 -14 -15
right_child=1 4 5 -5 9 6 -8 8 -10 10 -12 -13 13 14 -16
leaf_value=0.099090654475429474 -0.049097016894587543 0.094993616109002726 0.12623750194666516 -0.12517396524062335 -0.13356704057441637 -0.051080495085200253 0.12098640303002468 -0.18109489800020809 0.1023507897204699 -0.17986066893626795 0.15214764018737245 -0.091418356265898434 0.14791161644190831 -0.14633047168639635 -0.0075418900357616314
leaf_weight=29.149818115867674 6.580224500037736 4.3990217065438619 14.1213108105585 7.6303849262185386 8.2970833024010044 8.34162590140477 7.6833888567052773 0.97957708034664293 9.8081707097589952 1.2970495242625464 3.436291016638279 39.217882374301553 3.0177784552797666 6.1822070563212028 36.93639952596277
leaf_count=139 64 22 56 288 149 144 34 25 82 26 8 1149 8 134 481
internal_value=0 -0.0182898 0.0332655 -0.0180699 -0.0459498 0.0758345 0.0314191 0.0289849 0.0766126 -0.0522517 0.0611694 -0.0579842 -0.0338958 -0.0159711 -0.027441
internal_weight=0 157.928 55.1447 24.9984 102.784 30.1463 16.025 17.368 10.7877 98.3847 4.73334 93.6514 54.4335 46.1364 43.1186
internal_count=2809 2670 693 459 1977 234 178 171 107 1955 34 1921 772 623 615
is_linear=0
shrinkage=0.1


Tree=3
num_leaves=16
num_cat=0
split_feature=1 7 0 5 3 11 9 13 1 0 4 5 6 11 5
split_gain=32.2203 19.099 14.8915 11.5155 19.655 10.4306 9.79543 6.56938 5.62687 10.236 5.5798 5.28572 7.88332 5.11878 5.06223
threshold=0.048841414416846259 0.086039942826937818 0.0067270783694669501 0.16217379476095542 115293.00000000001 0.87170000000000003 0.60500000000000009 0.35000000000000003 0.073783924873783963 0.029395734849930504 1.9654240071531797 0.12847706258482833 0.29992734164281304 0.093300000000000022 0.051478600591620807
decision_type=2 2 2 2 2 2 2 2 2 2 2 2 2 2 2
left_child=1 -1 3 6 -5 -6 13 11 9 -2 -11 12 -8 -3 -9
right_child=8 2 -4 4 5 -7 7 14 -10 10 -12 -13 -14 -15 -16
leaf_value=-0.13080895419367305 0.073524020938822418 -0.072675852483003248 -0.11515363511891491 -0.15385631187325255 -0.025791003356139538 0.12069435698282732 0.026205428779527685 0.032671497519178271 0.10634846982134992 -0.17060257255307934 0.035067333477924616 0.090232730987208687 -0.15209076950470901 0.08048377215206079 -0.13343474025744115
leaf_weight=15.174914222210644 17.660834299400452 2.3637154987081912 12.385927726514636 10.987794878892599 26.953343263827264 5.9304607808589926 10.111385999247437 2.6049651219509524 23.287962229456753 3.1228683767840257 2.2837541606277227 6.8952793255448332 3.2856685868464401 28.402974628610536 6.2050075368024409
leaf_count=503 137 48 406 410 387 19 133 34 55 89 18 58 76 247 189
internal_value=0 -0.025304 -0.0115171 0.000856454 -0.0380639 0.000627038 0.029377 -0.0122129 0.0716734 0.0366669 -0.0837277 0.0190926 -0.0175223 0.068717 -0.0843198
internal_weight=0 131.301 116.127 103.741 43.8716 32.8838 59.869 29.1023 46.3554 23.0675 5.40662 20.2923 13.3971 30.7667 8.80997
internal_count=2809 2510 2007 1601 816 406 785 490 299 244 107 267 209 295 223
is_linear=0
shrinkage=0.1


Tree=4
num_leaves=16
num_cat=0
split_feature=1 0 9 5 3 5 6 0 12 7 2 12 11 9 7
split_gain=21.0099 15.5146 11.485 7.92747 13.8831 7.78518 10.2184 7.46311 7.82683 7.44765 9.09419 6.83462 6.33161 5.67034 6.34764
threshold=0.048841414416846259 0.0019639362480106007 0.55500000000000016 0.17738567550977588 142059.00000000003 0.12847706258482833 0.31697542618930957 0.0067797069757710516 0.46505000000000002 0.1115466354991564 175411.00000000003 0.67135000000000011 0.87170000000000003 0.49500000000000005 5.8406819099679401
decision_type=2 2 2 2 2 2 2 2 2 2 2 2 2 2 2
left_child=1 3 7 5 -5 6 9 8 -3 -1 -11 13 -6 -2 -15
right_child=11 2 -4 4 12 -7 -8 -9 -10 10 -12 -13 -14 14 -16
leaf_value=-0.15216849304705204 0.083110860437826936 0.092199668573551774 -0.099078349179004779 -0.13220313520600874 -0.015879732924818809 0.090143310099487617 -0.14211579327192722 -0.11690074621842457 -0.043489720465262928 0.092449387578163553 -0.075935244356273898 0.13062341858449189 0.11583434762987957 -0.020020302989502511 0.12873061134145178
leaf_weight=1.987251196987933 15.560288615524767 8.6578285070136243 32.657569233328104 9.1374328611418623 14.457355108112099 16.864326719194651 4.1093783043324938 4.6902571651153258 8.351800690405069 13.372976956889035 4.2194629218429318 9.936177045106886 4.8820794038474551 17.951617500744764 3.4143873248249283
leaf_count=42 71 66 1127 340 210 86 101 188 179 84 75 30 12 185 13
internal_value=0 -0.0216494 -0.0616092 0.00981679 -0.0306236 0.0382143 0.00124585 -0.00521953 0.0255756 0.0313345 0.0520631 0.0570022 0.0173704 0.0371922 0.00375079
internal_weight=0 123.388 54.3575 69.0303 28.4769 40.5534 23.6891 21.6999 17.0096 19.5797 17.5924 46.8625 19.3394 36.9263 21.366
internal_count=2809 2510 1560 950 562 388 302 433 245 201 159 299 222 269 198
is_linear=0
shrinkage=0.1


Tree=5
num_leaves=16
num_cat=0
split_feature=8 9 4 4 1 12 7 12 9 2 2 3 4 9 10
split_gain=19.3045 10.4771 7.50735 19.7898 10.3217 6.59386 5.90526 5.83925 5.38319 4.78584 5.47264 7.37094 4.68529 5.51903 4.49948
threshold=0.51665000000000016 0.56500000000000006 8.1533655023323686 0.12713379230562422 0.06150245910305626 0.60055000000000014 10.186381468700352 0.42295000000000005 0.6150000000000001 188529.50000000003 135612.50000000003 128209.00000000001 0.30708951813127494 0.40500000000000008 0.55000000000000016
decision_type=2 2 2 2 2 2 2 2 2 2 2 2 2 2 2
left_child=8 7 3 5 -5 -3 -7 -2 -1 10 12 -12 -9 -14 -4
right_child=1 2 14 4 -6 6 -8 9 -10 -11 11 -13 13 -15 -16
leaf_value=0.037035950166167508 -0.077865730338425282 0.04644324240496156 0.11510142706936184 -0.13117239331286645 0.067072255173850709 -0.11629705504704113 0.025507692009089825 0.040945174284770347 0.12432171418367886 -0.054339320082744919 0.098053687453917335 -0.14310644714213597 0.049032470062666561 -0.14000684498063884 -0.0087922997007043712
leaf_weight=16.615817900747064 5.4210615786723784 15.774451097473504 3.3670485746115473 27.876554051414136 2.8995081000030032 6.5023251967504603 5.3553602434694767 13.190104523673655 12.293195525184272 5.6186271370388559 18.404596962034706 1.3611258147284377 2.5989915458485475 3.8060764600522816 22.651764925569296
leaf_count=107 109 204 23 1139 30 141 56 144 32 131 78 71 9 151 384
internal_value=0 -0.0158995 -0.0374376 -0.0573402 -0.112495 0.0040901 -0.0522529 0.0201794 0.0741531 0.0319961 0.0443202 0.0814467 0.00687054 -0.0633002 0.00724057
internal_weight=0 134.828 84.427 58.4082 30.7761 27.6321 11.8577 50.4006 28.909 44.9795 39.3609 19.7657 19.5952 6.40507 26.0188
internal_count=2809 2670 1977 1570 1169 401 197 693 139 584 453 149 304 160 407
is_linear=0
shrinkage=0.1


Tree=6
num_leaves=16
num_cat=0
split_feature=1 0 1 7 9 0 1 5 4 5 5 5 6 2 6
split_gain=19.3676 14.0254 8.4884 7.98802 5.82073 6.12641 5.39526 5.24484 5.03961 6.08653 5.21232 5.94729 5.09983 4.93672 5.55841
threshold=0.049674887185997003 0.0017150247706009003 0.013655332111405901 0.26677629085331395 0.6150000000000001 0.0067270783694669501 0.12894380892693999 0.23973175810125749 0.022197470248790502 0.21750072081203178 0.12847706258482833 0.077848848747769164 0.22979774810171641 170053.50000000003 0.084210986107070104
decision_type=2 2 2 2 2 2 2 2 2 2 2 2 2 2 2
left_child=1 2 8 -3 5 13 -2 -4 -1 10 11 -10 -12 14 -5
right_child=6 3 7 4 -6 -7 -8 -9 9 -11 12 -13 -14 -15 -16
leaf_value=0.082565407463389098 0.037473601029457682 -0.10970812076885413 0.094885059783032133 0.039635470058579925 -0.084501328901869649 -0.10975432143266411 0.11980548265018903 -0.1379245448671802 0.026384133001419376 -0.071100808171942795 -0.17291201984165483 -0.11279575230124972 0.078988649720050846 0.06789851326324646 -0.093784439446843074
leaf_weight=5.3627619296312323 30.795477697625756 18.401075532659888 13.982054531574247 6.4137087268754893 13.359849791042505 4.5700385402888051 10.733474016189573 1.0396275799721468 7.0686565181240457 14.859233876690267 0.87067718338221212 5.4276332259178162 10.448647392913697 10.41485931817442 6.0851211994886398
leaf_count=20 256 699 74 79 465 189 22 30 81 413 21 144 60 93 163
internal_value=0 -0.0206244 0.0138612 -0.0550021 -0.0303556 -0.00403538 0.0587529 0.0787727 -0.00828075 -0.0208777 0.0104579 -0.0340672 0.0596126 0.0170498 -0.0253207
internal_weight=0 118.304 59.0593 59.2447 40.8436 27.4837 41.529 15.0217 44.0376 38.6748 23.8156 12.4963 11.3193 22.9137 12.4988
internal_count=2809 2531 843 1688 989 524 278 104 739 719 306 225 81 335 242
is_linear=0
shrinkage=0.1


Tree=7
num_leaves=16
num_cat=0
split_feature=1 7 5 3 4 4 2 2 7 9 9 2 8 9 3
split_gain=16.7199 6.361 5.13509 9.14356 6.59101 14.6584 11.6033 4.86661 4.81577 4.64467 4.63377 4.42146 4.42071 3.50927 3.13055
threshold=0.073783924873783963 0.086039942826937818 0.21750072081203178 115293.00000000001 0.15560500608316039 1.7524732721136014 105794.50000000001 24778.500000000004 59.013997652448531 0.49500000000000005 0.79500000000000015 183118.50000000003 0.58570000000000011 0.7350000000000001 184261.00000000003
decision_type=2 2 2 2 2 2 2 2 2 2 2 2 2 2 2
left_child=1 12 4 -4 -3 9 -7 14 10 -6 13 -8 -1 -5 -2
right_child=7 2 3 8 5 6 11 -9 -10 -11 -12 -13 -14 -15 -16
leaf_value=0.017513125199561799 -0.18371151202756078 0.065590274098025259 -0.12693792416938515 -0.0035504074356170162 0.0058565303958143192 -0.12899493338802911 0.05232769990179173 0.10530356857085438 -0.16099159751779979 -0.1298680120361746 0.08849036554107903 -0.011726429820535757 -0.096443140891166401 -0.16086412095929173 0.084083906806686634
leaf_weight=4.5582171902060518 1.0147284306585813 16.564796345308423 8.4958576988428849 14.190188632346695 3.3256232636049381 4.8762577129527918 34.887073916383088 16.883126745000482 1.8326241448521603 10.426095046102999 5.3425599243491879 15.592871708795426 13.446227978914976 1.5754609322175372 0.76610511541366566
leaf_count=55 13 137 399 244 71 189 279 40 57 478 30 247 530 38 2
internal_value=0 -0.0122552 -0.00374765 -0.0383162 0.00893691 -0.0046426 0.0183123 0.0887193 -0.00549623 -0.0970453 0.00800395 0.0325419 -0.0675926 -0.0192708 -0.0685073
internal_weight=0 135.114 117.109 31.4367 85.6727 69.1079 55.3562 18.664 22.9408 13.7517 21.1082 50.4799 18.0044 15.7656 1.78083
internal_count=2809 2754 2169 768 1401 1264 715 55 369 549 312 526 585 282 15
is_linear=0
shrinkage=0.1


Tree=8
num_leaves=16
num_cat=0
split_feature=1 0 0 0 0 9 7 4 2 3 11 7 6 0 1
split_gain=14.4973 9.78732 6.358 5.58483 5.55646 5.23823 4.19721 3.96784 7.94604 4.31863 3.85609 4.43488 3.73744 3.48025 3.42428
threshold=0.049674887185997003 0.0017150247706009003 0.00054416247864505008 0.00064657771723520012 0.00083836061553700008 0.44500000000000006 0.26677629085331395 1.3187549744798368 142059.00000000003 100579.00000000001 0.28375000000000006 0.46930482667647272 0.26146560649407896 0.00014589658738720004 0.012078671143526301
decision_type=2 2 2 2 2 2 2 2 2 2 2 2 2 2 2
left_child=1 2 13 -4 -5 12 -7 8 9 -2 -6 14 -3 -1 -12
right_child=7 5 3 4 10 6 -8 -9 -10 -11 11 -13 -14 -15 -16
leaf_value=0.059329748672545514 -0.13973304767853462 -0.049705956157158414 0.095286769026485876 -0.1120834926144057 -0.06013425321057652 -0.10426260493776257 -0.040128981306694726 0.080914400057366831 -0.14629719015446782 0.063630814115450782 -0.093871260892684091 -0.00529273889602834 0.10644387048063578 -0.095006790022781895 0.088133748024835937
leaf_weight=1.8212429927661995 1.1418967321515072 2.7287060664966694 9.401693491265176 3.440711776725947 4.9314047656953326 14.594882684294133 33.922005466651171 21.958235705271363 2.5534937120974055 12.209547058679162 1.1199536174535776 13.615534630604087 3.4975116606801748 7.388231948018074 13.425033755600451
leaf_count=24 21 73 72 93 136 650 946 101 68 88 31 215 19 204 68
internal_value=0 -0.0183872 0.0113483 0.0265524 0.00886359 -0.0483403 -0.0594217 0.0533635 0.0153269 0.0462379 0.021439 0.0357239 0.0380096 -0.0644856 0.0741195
internal_weight=0 109.887 55.1438 45.9343 36.5326 54.7431 48.5169 37.8632 15.9049 13.3514 33.0919 28.1605 6.22622 9.20947 14.545
internal_count=2809 2531 843 615 543 1688 1596 278 177 109 450 314 92 228 99
is_linear=0
shrinkage=0.1


Tree=9
num_leaves=16
num_cat=0
split_feature=1 8 0 9 4 4 1 1 2 11 2 13 11 6 7
split_gain=13.1753 4.75984 6.13992 4.23986 5.03077 5.22928 3.92209 3.81573 4.83827 3.83966 3.59578 3.14437 3.05235 2.97451 2.92781
threshold=0.073783924873783963 0.58570000000000011 0.0019639362480106007 0.47500000000000003 0.15560500608316039 1.9654240071531797 0.052610522563076655 0.0087858260460655022 142059.00000000003 0.37835000000000008 183118.50000000003 0.15000000000000005 0.40720000000000006 0.48395817784086875 0.56053103271401572
decision_type=2 2 2 2 2 2 2 2 2 2 2 2 2 2 2
left_child=1 -1 7 11 12 -6 13 8 -3 -10 -9 -4 -5 -7 -12
right_child=-2 2 3 4 5 6 -8 10 9 -11 14 -13 -14 -15 -16
leaf_value=0.040713518401330112 0.085971844679920709 -0.10937314577336417 0.050468708934397616 -0.095832311680883825 -0.11665824367839671 -0.077714342232875433 0.045164242887739445 0.029644880397913749 0.10717896822119868 -0.075528513508997974 0.00070041574835168338 -0.13372191315029111 0.033256242099114534 0.049822542214880812 -0.13068382737917181
leaf_weight=15.76391999516636 15.849920742213724 5.8954061390832049 6.8740251208655527 2.3246203316375604 14.953116501215844 14.369347024708992 4.3619458749890319 38.768549487926066 2.6175613105297089 2.0518480222672224 4.7123556714504948 1.0712670506909487 8.6387764150276762 2.0953686442226163 2.649900590069592
leaf_count=146 55 254 91 81 832 428 28 439 14 43 72 48 141 27 110
internal_value=0 -0.010717 -0.0179959 -0.0419013 -0.0533808 -0.0715406 -0.0391471 0.00506328 -0.0491466 0.026893 0.0174784 0.0256342 0.00588499 -0.0614835 -0.0465888
internal_weight=0 127.148 111.384 54.6885 46.7432 35.7798 20.8267 56.6956 10.5648 4.66941 46.1308 7.94529 10.9634 16.4647 7.36226
internal_count=2809 2754 2608 1676 1537 1315 483 932 311 57 621 139 222 455 182
is_linear=0
shrinkage=0.1


Tree=10
num_leaves=16
num_cat=0
split_feature=1 4 4 2 3 5 2 7 6 6 12 12 9 2 11
split_gain=10.1441 3.85627 12.3362 7.4948 5.89311 5.5361 4.57349 5.55691 4.45992 4.05594 3.43442 3.19161 3.11438 2.72518 2.6399
threshold=0.073783924873783963 3.247666860288827 0.15560500608316039 105794.50000000001 115293.00000000001 0.11872723287321396 175411.00000000003 0.58208887265238973 0.34281263486567842 0.13575227821950142 0.53585000000000005 0.56690000000000007 0.56500000000000006 24778.500000000004 0.37190000000000006
decision_type=2 2 2 2 2 2 2 2 2 2 2 2 2 2 2
left_child=1 2 4 -3 -1 -4 12 8 9 -8 -6 -12 -5 -2 -13
right_child=13 3 5 6 10 -7 7 -9 -10 -11 11 14 -14 -15 -16
leaf_value=-0.13420336953101872 -0.063139433002284612 -0.11510774357470449 -0.032704486053526487 0.093376164983401233 0.059385291595197578 -0.11692482244398671 0.057383140182389471 -0.12766478517476584 0.11082897288607514 -0.04514382617524549 -0.10938485806750134 -0.089827356427900629 0.02109164379071941 0.089607984731606721 0.024963901927854037
leaf_weight=2.5534976515918961 1.2743099965155114 4.3322831261903039 16.949823392555121 10.661339666694404 15.138127665966747 14.466291552875189 5.8221007548272707 3.3687895024195305 3.6698938868939868 11.440211427398024 2.4855188904330161 2.2775750039145377 13.518119373358784 14.002251122146843 16.643103525973856
leaf_count=120 15 207 564 56 145 811 55 131 15 176 53 60 161 40 200
internal_value=0 -0.00952149 -0.0248249 0.0109111 0.0126683 -0.0714857 0.0221723 -0.00846507 0.0107187 -0.0105643 0.0229308 -0.00284917 0.0529637 0.0768664 0.0111459
internal_weight=0 123.327 70.5139 52.8127 39.0978 31.4161 48.4805 24.301 20.9322 17.2623 36.5443 21.4062 24.1795 15.2766 18.9207
internal_count=2809 2754 1953 801 578 1375 594 377 246 231 458 313 217 55 260
is_linear=0
shrinkage=0.1


Tree=11
num_leaves=16
num_cat=0
split_feature=8 7 9 9 4 9 4 4 12 1 5 2 10 7 6
split_gain=8.84638 5.25656 4.03671 3.57294 2.97009 2.83878 3.09293 6.49418 4.8455 3.1896 2.83547 3.35733 3.29908 2.95553 2.88199
threshold=0.70715000000000006 0.086039942826937818 0.56500000000000006 0.36500000000000005 0.022197470248790502 0.80500000000000016 8.015671807186143 0.12713379230562422 0.61245000000000005 0.062447889146149564 0.12847706258482833 175411.00000000003 0.65000000000000002 0.33512303531101434 0.23384089393777818
decision_type=2 2 2 2 2 2 2 2 2 2 2 2 2 2 2
left_child=3 -2 -3 -1 -4 6 7 8 -6 -9 11 13 -12 -8 -15
right_child=1 2 4 -5 5 -7 10 9 -10 -11 12 -13 -14 14 -16
leaf_value=-0.12795281331551459 -0.078186545545719355 0.023204754004346805 0.062418417156598405 0.057961822911527919 0.031964748714548026 -0.10907161632726392 -0.11881427798312563 -0.10214762860064644 -0.08798025056014909 0.068675330379509111 0.097940785043877154 -0.0774589017993247 -0.071353716313030502 0.090877292720253799 -0.025207000468888765
leaf_weight=1.0759475640952612 11.096239130012689 32.416345758829266 4.0669603720307341 26.331866877153516 13.118981511332096 3.8399087600409976 1.3419737275689865 13.693947278428821 4.5313463984057298 1.1878766752779473 5.4084402285516253 5.5691209947690359 1.4623078443109987 4.9390913080424053 3.7719825198873878
leaf_count=13 524 497 22 196 186 127 30 757 135 12 47 141 32 29 61
internal_value=0 -0.013045 -0.00546414 0.0506634 -0.0202315 -0.0259418 -0.0201406 -0.0398544 0.00117142 -0.0885124 0.0083721 -0.0151741 0.0619097 0.01933 0.0406116
internal_weight=0 106.445 95.3483 27.4078 62.9319 58.865 55.0251 32.5322 17.6503 14.8818 22.4929 15.6222 6.87075 10.053 8.71107
internal_count=2809 2600 2076 209 1579 1557 1430 1090 321 769 340 261 79 120 90
is_linear=0
shrinkage=0.1


Tree=12
num_leaves=16
num_cat=0
split_feature=8 7 7 0 1 10 9 2 8 6 7 5 2 9 9
split_gain=7.24733 4.21595 3.18535 5.79898 6.15288 4.92401 2.36501 4.70753 2.92526 2.59701 2.17621 3.03591 2.97653 2.04572 2.36563
threshold=0.70715000000000006 0.086039942826937818 0.22744210494116943 0.0015094370192131501 0.053691710461684007 0.65000000000000002 0.6150000000000001 19314.500000000004 0.44950000000000007 0.056259132428039108 0.33512303531101434 0.66824636590960973 194170.00000000003 0.58500000000000008 0.56500000000000006
decision_type=2 2 2 2 2 2 2 2 2 2 2 2 2 2 2
left_child=6 13 3 5 -5 -3 7 -1 -8 -9 12 -12 -4 14 -2
right_child=1 2 10 4 -6 -7 8 9 -10 -11 11 -13 -14 -15 -16
leaf_value=-0.14932032194033862 -0.077933309727440225 0.10660200296827137 -0.094651881957401318 -0.095606866776627081 0.080578525876923102 -0.1420489483513587 0.10870363812324138 -0.13653950270917006 -0.037289857299879846 0.049212862379147557 -0.0039497085283825084 -0.11731810080401738 0.041582107179953476 -0.11764705646333939 0.060143462337280996
leaf_weight=1.4427092554979086 3.5316193872131389 8.942315929569304 6.5733497347682697 5.2177907447330636 3.1964351870119572 0.87427874654531557 8.3747908081859332 0.79369278997182746 1.6414521755650628 14.562150168232618 63.307810208294541 2.4536890061572185 2.1213173782452941 5.08071932150051 1.9128883294761179
leaf_count=32 156 42 206 250 19 36 24 12 32 109 1344 148 31 322 46
internal_value=0 -0.0120336 -0.0052229 0.0322413 -0.0286767 0.0844568 0.0463181 0.0233859 0.0847784 0.0396119 -0.0143961 -0.0081797 -0.0614136 -0.0720093 -0.029421
internal_weight=0 103.212 92.687 18.2308 8.41423 9.81659 26.8148 16.7986 10.0162 15.3558 74.4562 65.7615 8.69467 10.5252 5.44451
internal_count=2809 2600 2076 347 269 78 209 153 56 121 1729 1492 237 524 202
is_linear=0
shrinkage=0.1


Tree=13
num_leaves=16
num_cat=0
split_feature=1 0 2 3 2 9 4 8 4 2 1 1 9 0 3
split_gain=7.06178 5.40495 3.91768 13.9039 5.10096 3.03077 2.64045 2.50923 2.43724 5.32027 2.41313 2.45045 3.10586 2.50497 2.26644
threshold=0.049674887185997003 0.0066374673262078509 142059.00000000003 115293.00000000001 183118.50000000003 0.53500000000000014 1.5991275444204032 0.70715000000000006 1.3187549744798368 142059.00000000003 0.0091071664236691014 0.010455645203212701 0.54500000000000015 0.0023842530492389504 100579.00000000001
decision_type=2 2 2 2 2 2 2 2 2 2 2 2 2 2 2
left_child=1 2 3 -1 6 -5 -4 -6 9 14 -7 -12 -13 -14 -2
right_child=8 -3 4 5 7 10 -8 -9 -10 -11 11 12 13 -15 -16
leaf_value=-0.10304684396818878 -0.12162219856549883 -0.081793786811632088 -0.11871691957882012 -0.082358714912582065 0.092369813192590869 -0.070450096920538732 0.052292611454907337 -0.045791593649927513 0.065628478342915034 -0.13912930095695328 0.094437561864717648 0.092914721223747082 0.021563596967152751 -0.063284958300083793 0.049294475248990111
leaf_weight=15.238662363495676 0.83976392820477741 10.308930086903272 0.93864095304161566 3.0316624189726999 1.4758422486484022 2.5412506693974164 23.709425616078079 12.025664499495178 17.826720047742128 2.0503532481379798 5.0269283642992404 4.3144206670112935 12.602158973924817 4.8065808205865315 10.193102624267338
leaf_count=833 21 539 68 61 6 71 171 396 101 68 26 24 174 162 88
internal_value=0 -0.0133827 -0.00515451 -0.024302 0.018717 0.0128222 0.0457803 -0.0306892 0.0415726 0.00879489 0.0226735 0.0315202 0.0169606 -0.00186322 0.0362852
internal_weight=0 96.0202 85.7112 47.5617 38.1496 32.323 24.6481 13.5015 30.9099 13.0832 29.2913 26.7501 21.7232 17.4087 11.0329
internal_count=2809 2531 1992 1351 641 518 239 402 278 177 457 386 360 336 109
is_linear=0
shrinkage=0.1


Tree=14
num_leaves=16
num_cat=0
split_feature=1 2 3 2 4 2 3 3 2 5 1 7 6 0 4
split_gain=5.96926 3.03256 2.38457 2.50025 2.14328 10.9674 6.74109 4.31708 2.44257 2.39506 2.75734 2.31588 2.24965 2.21193 2.29985
threshold=0.073783924873783963 24778.500000000004 159538.50000000003 159538.50000000003 0.15560500608316039 105794.50000000001 115293.00000000001 115293.00000000001 183118.50000000003 0.12847706258482833 0.019810645534267101 0.52933326226010557 0.26146560649407896 0.024724732648685254 0.30708951813127494
decision_type=2 2 2 2 2 2 2 2 2 2 2 2 2 2 2
left_child=4 -2 -3 -4 7 13 8 -1 9 -7 -11 -10 -12 -6 -15
right_child=1 2 3 -5 5 6 -8 -9 11 10 12 -13 -14 14 -16
leaf_value=-0.12795482109660014 -0.082256325963112595 0.10327673963450577 0.079537353318260492 -0.14134242516046278 -0.10463440804491507 0.013399383106284102 -0.094631479511885469 0.020823646934479901 0.005473090646680133 0.10195796021123515 -0.12293587910264162 -0.082245903513967544 0.06256184841611992 0.075798629703121428 -0.1296924910285927
leaf_weight=2.0682774493470779 1.2564621791243542 9.2553423494100553 1.1986845433711999 0.89519898034632195 13.994118871167304 24.249262302182615 6.2358158440329126 34.202263198792934 11.786226589232681 7.5611138092353922 1.1356654195114972 4.041884869337081 1.540819111280143 1.4830408208072179 0.86075601587072004
leaf_count=120 15 21 4 15 958 312 444 458 187 25 25 161 13 14 37
internal_value=0 0.0651547 0.0814745 -0.0148955 -0.00752406 -0.0174086 0.00344111 0.0123398 0.0155958 0.0305224 0.0710809 -0.0169269 -0.0161471 -0.0895761 0.000332311
internal_weight=0 12.6057 11.3492 2.09388 109.159 72.8887 56.5508 36.2705 50.315 34.4869 10.2376 15.8281 2.67648 16.3379 2.3438
internal_count=2809 55 40 19 2754 2176 1167 578 723 375 63 348 38 1009 51
is_linear=0
shrinkage=0.1


Tree=15
num_leaves=16
num_cat=0
split_feature=1 0 12 4 3 0 11 12 3 1 0 0 2 2 7
split_gain=4.19436 4.13979 2.99593 5.27688 2.76321 2.36198 2.53672 2.16947 3.12895 2.08016 2.52805 2.26439 2.5079 2.46152 2.3324
threshold=0.049674887185997003 0.0067797069757710516 0.49240000000000006 1.9196510296735212 194170.00000000003 0.0063415514468793512 0.093300000000000022 0.50145000000000006 178460.50000000003 0.0089272199881007524 0.00018618031684125002 0.00159206220571975 173219.50000000003 175411.00000000003 0.41153240727817325
decision_type=2 2 2 2 2 2 2 2 2 2 2 2 2 2 2
left_child=1 5 3 4 -2 6 -1 -4 -9 10 -8 14 -13 -14 -11
right_child=2 -3 7 -5 -6 -7 9 8 -10 11 -12 12 13 -15 -16
leaf_value=-0.051565818488081207 -0.13409474101659777 -0.078039565865167915 0.14129170028309312 0.056949851821527599 0.049609044398129437 0.078309792362240158 0.02659191608025907 0.054898504151802863 -0.10360052351780556 0.060143575647968663 -0.098825664549777634 -0.035816315552692303 0.088667729154835881 -0.01086586439146197 0.003027695940826062
leaf_weight=11.154237549053503 3.4898852573242056 8.3004173673689348 2.5476587116718319 5.1160022299736738 1.069796306081116 3.3512841598130754 2.5611229687929145 15.780177320353689 1.35223411861807 11.72153836861253 4.3150352607481182 18.735928357345987 3.8623340697959048 6.9656707795802504 18.330892702098936
leaf_count=469 87 519 4 27 7 51 36 115 38 100 193 639 25 201 298
internal_value=0 -0.0107799 0.0327919 -0.0127689 -0.090994 -0.00388738 -0.00743506 0.0551918 0.0423884 -3.20491e-05 -0.0521121 0.00597487 -0.0136746 0.0246376 0.025305
internal_weight=0 89.2985 29.3558 9.67568 4.55968 80.998 77.6468 19.6801 17.1324 66.4925 6.87616 59.6164 29.5639 10.828 30.0524
internal_count=2809 2531 278 121 94 2012 1961 157 153 1492 229 1263 865 226 398
is_linear=0
shrinkage=0.1


Tree=16
num_leaves=16
num_cat=0
split_feature=8 7 4 9 2 9 9 5 2 12 6 12 9 2 1
split_gain=4.99463 2.51454 2.47094 2.44317 2.22737 2.02627 2.10961 1.81354 1.79611 3.21957 3.03889 2.13722 2.59294 1.7041 1.66316
threshold=0.70715000000000006 0.086039942826937818 0.027598731221636055 0.47500000000000003 21428.500000000004 0.52500000000000013 0.55500000000000016 0.29992734164281304 105794.50000000001 0.49365000000000009 0.092972339561743861 0.64080000000000015 0.65500000000000014 188529.50000000003 0.013655332111405901
decision_type=2 2 2 2 2 2 2 2 2 2 2 2 2 2 2
left_child=8 2 -2 4 -3 -5 7 14 9 -1 -10 -11 -13 -6 -7
right_child=1 3 -4 5 13 6 -8 -9 10 11 -12 12 -14 -15 -16
leaf_value=-0.092783789010500273 0.16850703693782487 -0.084376343727770697 -0.073821005377061877 -0.084674837762977351 0.076818734144317766 -0.029950145571787753 -0.015518210534013175 -0.13802271421460457 -0.1170710392116599 0.10633378570384931 0.075321991664562604 -0.12917267373668273 0.078493697683750585 -0.046436138509226461 0.058527862145352265
leaf_weight=2.3827550187706974 0.44346433877944846 1.2410338511690486 8.2260576765984279 3.5695816432125858 7.5957275615073723 2.7587795672006878 57.938824082259089 0.61395989358425218 0.8740985170006742 2.8306310623884201 13.51151129323989 1.1632283180952074 1.2445466453209517 1.3160791085101662 9.2411450566723925
leaf_count=56 1 37 523 113 64 49 1634 23 23 7 77 35 11 32 124
internal_value=0 -0.0101429 -0.0614254 -0.00486734 0.0411379 -0.0111689 -0.00744987 0.0296101 0.0428379 0.0035877 0.0636318 0.0474235 -0.0218327 0.0586167 0.0381868
internal_weight=0 92.9447 8.66952 84.2751 10.1528 74.1223 70.5527 12.6139 22.0068 7.62116 14.3856 5.23841 2.40777 8.91181 11.9999
internal_count=2809 2600 524 2076 133 1943 1830 196 209 109 100 53 46 96 173
is_linear=0
shrinkage=0.1


Tree=17
num_leaves=16
num_cat=0
split_feature=1 2 4 2 3 3 0 1 1 5 1 1 0 4 4
split_gain=4.67991 1.61196 1.41908 8.24448 4.89973 3.20791 1.81045 2.64249 2.18471 2.2558 1.75586 1.70605 1.57143 1.66662 2.68541
threshold=0.073783924873783963 24778.500000000004 0.15560500608316039 105794.50000000001 115293.00000000001 115293.00000000001 0.00054416247864505008 0.010455645203212701 0.039042665557094562 0.14504716159449407 0.051967501830379757 0.054229085915515306 0.00059366972598845003 0.03541685938527301 0.03700738373637661
decision_type=2 2 2 2 2 2 2 2 2 2 2 2 2 2 2
left_child=2 -2 5 10 -5 -1 -7 -8 12 -10 -4 -12 -9 -14 -15
right_child=1 -3 3 4 -6 6 7 8 9 -11 11 -13 13 14 -16
leaf_value=-0.12504728322709865 -0.063479394604123662 0.075202930688079303 -0.10166966529500905 0.013509310162874988 -0.085125138218858767 -0.05653713984740915 0.095809333710703451 0.11220411216052738 -0.1501650694811269 0.095486231148831271 0.081692746192267851 -0.07547626391441388 -0.054548255020727604 0.12942959677068114 -0.0054784508846055817
leaf_weight=1.686438817065208 0.91746143996715446 9.6931014005094749 11.056998700369148 47.007778777740896 5.6406729668378821 3.1031885202974072 4.3516683038324144 1.1495344117283881 0.4098878800868978 4.248168833553791 1.1306719435378902 1.7746851500123737 5.5898871738463667 1.6584752872586239 13.372397545725105
leaf_count=120 15 40 953 723 444 76 24 3 12 39 12 44 99 9 196
internal_value=0 0.0632115 -0.00656397 -0.0151756 0.00294177 0.00956295 0.0162628 0.0236024 0.0117128 0.07387 -0.0834917 -0.0143111 -0.00158658 -0.00793001 0.00940702
internal_weight=0 10.6106 102.18 66.6108 52.6485 35.5696 33.8832 30.78 26.4284 4.65806 13.9624 2.90536 21.7703 20.6208 15.0309
internal_count=2809 55 2754 2176 1167 578 458 382 358 51 1009 56 307 304 205
is_linear=0
shrinkage=0.1


Tree=18
num_leaves=16
num_cat=0
split_feature=1 8 9 4 4 12 6 6 12 2 7 2 4 4 13
split_gain=4.35955 1.82861 2.04582 2.24201 5.74127 4.23735 2.79014 1.72967 2.33625 1.76344 1.86263 2.81921 3.2099 2.95195 2.57455
threshold=0.12894380892693999 0.70715000000000006 0.62500000000000011 0.10985714779705562 9.5757194723121142 0.59815000000000007 0.90013507823645278 0.34281263486567842 0.59355000000000013 188529.50000000003 9.1774843048599681 142059.00000000003 0.30708951813127494 1.9654240071531797 0.45000000000000007
decision_type=2 2 2 2 2 2 2 2 2 2 2 2 2 2 2
left_child=1 -1 7 5 6 -4 -5 9 -9 10 11 12 -3 -13 -12
right_child=-2 2 3 4 -6 -7 -8 8 -10 -11 14 13 -14 -15 -16
leaf_value=0.026839405308235722 0.089225304729603924 -0.0056180715343834078 0.045004034007523522 -0.11239227654462057 -0.0046344519114198532 -0.064859788883264796 0.30520799774287416 0.078173936514618861 -0.10539600752560102 -0.050116703532827878 0.10475421341941621 -0.11990994802922 -0.10312976784365049 0.039754447436382241 -0.083095573755184379
leaf_weight=15.860512271523474 5.2163948565721503 13.060416775289925 9.1372547666542214 9.5845716465264559 13.452331405598668 5.7010193467140189 0.16271059168502766 5.180833243764936 0.80040094489231695 6.9070856338366857 3.5122918756678692 1.2568516207393248 4.5525424575898787 14.716363409534095 0.9208809733390807
leaf_count=193 22 259 121 806 252 135 6 51 37 252 37 124 344 144 26
internal_value=0 -0.00444091 -0.0100187 -0.0275638 -0.0469799 0.00279321 -0.105421 0.00309085 0.0536088 -0.00363481 0.00480969 -0.00323184 -0.0308226 0.0271913 0.0657331
internal_weight=0 104.806 88.9456 38.0379 23.1996 14.8383 9.74728 50.9077 5.98123 44.9264 38.0193 33.5862 17.613 15.9732 4.43317
internal_count=2809 2787 2594 1320 1064 256 812 1274 88 1186 934 871 603 268 63
is_linear=0
shrinkage=0.1


Tree=19
num_leaves=16
num_cat=0
split_feature=1 7 4 2 3 3 4 8 5 5 0 6 1 5 10
split_gain=3.32624 1.53547 4.05713 3.53359 6.57919 3.15702 2.95612 2.2865 2.84772 3.35592 2.05825 1.99264 1.79848 2.76688 1.77577
threshold=0.12894380892693999 9.1774843048599681 0.12713379230562422 105794.50000000001 115293.00000000001 115293.00000000001 0.61442063922187062 0.70715000000000006 0.12847706258482833 0.097936140627007714 0.00057961768133535016 0.051478600591620807 0.039042665557094562 0.29031657170336383 0.65000000000000002
decision_type=2 2 2 2 2 2 2 2 2 2 2 2 2 2 2
left_child=1 3 12 4 -1 7 -7 -5 9 10 -9 -6 13 -3 -10
right_child=-2 2 -4 5 11 6 -8 8 14 -11 -12 -13 -14 -15 -16
leaf_value=-0.10342865201026295 0.081085070209996266 -0.088846541170307852 -0.11544925766557793 0.062783875851800938 -0.15946490823413811 0.11998085170421249 -0.094483277539032628 -0.12231020280740648 0.062807095691632023 -0.095611044560350328 0.0096349781234685555 -0.0017502448132671702 0.11520529781075894 0.054299709934352937 -0.063435060823097009
leaf_weight=9.6517511489801091 4.8310905322432509 1.6885945536196212 1.715130557771771 8.5390109829604608 0.82739467732608574 0.74584201467223366 4.6478344537317753 1.2458952395245493 9.8850816446356458 4.0298980441875747 23.144663611892611 25.202162793604657 3.0526877101510754 6.7400165088474751 1.2557895565405477
leaf_count=919 22 45 153 52 25 18 386 27 89 128 365 459 18 70 33
internal_value=0 -0.00382654 0.0280099 -0.00853778 -0.0329113 0.00771971 -0.064827 0.0158547 0.00572534 -0.0110727 0.00289508 -0.00676348 0.0494405 0.0256217 0.0485772
internal_weight=0 102.372 13.1964 89.1753 35.6813 53.494 5.39368 48.1003 39.5613 28.4205 24.3906 26.0296 11.4813 8.42861 11.1409
internal_count=2809 2787 286 2501 1403 1098 404 694 642 520 392 484 133 115 122
is_linear=0
shrinkage=0.1


Tree=20
num_leaves=16
num_cat=0
split_feature=1 0 0 6 7 8 12 11 1 1 0 8 8 0 12
split_gain=3.10155 2.5579 2.23966 1.60064 1.68369 1.83449 1.65342 1.54806 1.79455 1.67157 2.10521 1.53132 1.4532 1.35073 1.60722
threshold=0.049674887185997003 0.0066374673262078509 0.0063415514468793512 0.11144249945997386 83.802992994581402 0.93540000000000012 0.45265000000000005 0.093300000000000022 0.0079519629488290517 0.0087858260460655022 0.00018618031684125002 0.92820000000000014 0.81665000000000021 0.055407826773898002 0.61485000000000001
decision_type=2 2 2 2 2 2 2 2 2 2 2 2 2 2 2
left_child=1 2 7 4 5 11 -7 8 -1 10 -9 12 -2 14 -5
right_child=3 -3 -4 13 -6 6 -8 9 -10 -11 -12 -13 -14 -15 -16
leaf_value=0.059699016203845781 0.022608033566282808 -0.06512864757255378 0.085869498967079044 -0.027079353520272399 0.14327346452457942 0.064412601555606158 -0.10023826203624119 0.021474262961465037 -0.062116710614430172 0.0041861883899367396 -0.10157849255204149 0.11625669008609513 -0.11594526194529985 0.1030099536509259 0.064591262196878094
leaf_weight=1.4168971544131626 4.5882478896528474 7.4700046554207793 2.689276759279891 2.9042540900409204 0.80911737680435258 0.77916514314711216 2.8073653536848724 2.318955995142459 8.2555938297882658 54.953557861270383 3.4717955566011369 1.4195616506040094 0.90656170481815923 4.1270474456250659 5.601083355024457
leaf_count=58 46 539 31 50 1 15 66 36 411 1271 185 6 41 13 40
internal_value=0 -0.00939017 -0.0036948 0.0316018 0.00427594 -0.00643412 -0.0644683 -0.00711533 -0.0442723 -0.00119873 -0.052301 0.0236686 -0.000251196 0.0560672 0.0332892
internal_weight=0 80.5761 73.1061 23.9424 11.31 10.5009 3.58653 70.4168 9.67249 60.7443 5.79075 6.91437 5.49481 12.6324 8.50534
internal_count=2809 2531 1992 278 175 174 81 1961 469 1492 221 93 87 103 90
is_linear=0
shrinkage=0.1


Tree=21
num_leaves=16
num_cat=0
split_feature=8 6 2 12 10 9 5 7 3 8 4 3 9 4 2
split_gain=2.4415 1.85699 1.63524 1.97277 1.82924 2.46872 1.58175 2.19011 1.53779 1.39771 1.38064 4.01891 3.2912 3.07322 2.05744
threshold=0.51665000000000016 0.11144249945997386 197945.50000000003 0.66435000000000011 0.75000000000000011 0.76500000000000012 0.051478600591620807 10.186381468700352 212965.50000000003 0.96875000000000011 1.9654240071531797 115293.00000000001 0.68500000000000016 0.61442063922187062 142059.00000000003
decision_type=2 2 2 2 2 2 2 2 2 2 2 2 2 2 2
left_child=1 -1 4 -4 10 8 -7 9 -6 -8 11 -2 14 -13 -12
right_child=2 -3 3 -5 5 6 7 -9 -10 -11 12 13 -14 -15 -16
leaf_value=-0.027893883053092129 -0.085755752594956325 0.057904999897272241 -0.080299833745722804 0.018915918181694105 -0.083988240149302285 0.11477688566833673 0.09314515506962337 0.057593009063858495 0.11401288462382655 -0.10406409035753353 -0.039455439529301056 0.015315651651905435 -0.082730327041975138 -0.10373131837528918 0.044298595714351227
leaf_weight=3.2693197559565297 5.5530865190085015 11.04443165194243 5.9230885980650765 3.0289264512248337 7.1527914651669544 1.2016759710386393 0.42523461952805552 2.3761462466791272 0.41500750370323647 2.3208917488809675 3.3816636125557187 29.25111461640336 2.7097860137000671 2.3421175628900519 22.107566537801176
leaf_count=43 465 96 281 70 376 6 4 17 6 142 204 498 107 268 226
internal_value=0 0.0383082 -0.0062177 -0.04673 -0.00164072 -0.0345941 0.0115215 -0.0127021 -0.0731301 -0.0735265 0.00536484 -0.00729979 0.0220478 0.00649028 0.0331869
internal_weight=0 14.3138 88.1891 8.95202 79.2371 13.8917 6.32395 5.12227 7.5678 2.74613 65.3453 37.1463 28.199 31.5932 25.4892
internal_count=2809 139 2670 351 2319 551 169 163 382 146 1768 1231 537 766 430
is_linear=0
shrinkage=0.1


Tree=22
num_leaves=16
num_cat=0
split_feature=1 0 7 3 7 8 12 1 0 4 9 7 2 3 7
split_gain=2.72773 1.89821 1.51655 1.42803 1.22963 1.07082 1.12429 1.33185 1.2885 1.20486 1.02487 1.62192 2.54293 2.77866 2.13871
threshold=0.049674887185997003 0.0067797069757710516 28.11542050050986 5201.0000000000009 59.013997652448531 0.16025000000000003 0.49240000000000006 0.09975588939387886 0.007202021640040801 2.0580938697318012 0.55500000000000016 10.186381468700352 115293.00000000001 115293.00000000001 5.4204498121739126
decision_type=2 2 2 2 2 2 2 2 2 2 2 2 2 2 2
left_child=1 4 3 -3 10 -2 7 9 -8 -7 -1 12 13 -12 -15
right_child=5 2 -4 -5 -6 6 8 -9 -10 -11 11 -13 -14 14 -16
leaf_value=0.015745275362156738 0.094875739676369628 0.17958644558912776 0.071855871832261553 -0.088344764088442634 -0.12102284964040816 -0.11420738415276183 -0.13431631566453683 0.046150884850208705 0.04379370944197801 0.0064932622410979225 -0.10845639919089163 0.032264678485463001 0.0039434847918878146 -0.0091411535170510799 -0.14502329831369434
leaf_weight=21.260873871855438 2.3566991165280369 0.20644378382712503 0.75985238607972849 5.4628614878747612 0.88796614017337461 1.6809360277839034 0.41864393837749858 2.1583817899227142 13.631547815166412 1.6279964121058581 5.1157442891271812 7.5116695221513501 23.14779623132199 12.276919592171906 1.2789881220087398
leaf_count=382 10 7 20 492 61 83 10 14 143 18 629 139 517 251 33
internal_value=0 -0.00876079 -0.0608075 -0.0785882 -0.00407953 0.0312032 0.0235149 -0.0149604 0.0384867 -0.0548226 -0.00260852 -0.0105187 -0.0182035 -0.0456598 -0.0219615
internal_weight=0 77.9091 6.42916 5.66931 71.48 21.8742 19.5175 5.46731 14.0502 3.30893 70.592 49.3311 41.8194 18.6717 13.5559
internal_count=2809 2531 519 499 2012 278 268 115 153 101 1951 1569 1430 913 284
is_linear=0
shrinkage=0.1


Tree=23
num_leaves=16
num_cat=0
split_feature=1 0 7 3 6 0 7 9 7 12 8 2 1 1 3
split_gain=2.30001 1.43572 1.39058 1.34129 1.16188 1.25036 1.15986 1.40791 1.67843 1.13102 1.57536 1.05571 1.01932 1.25632 1.86781
threshold=0.048841414416846259 0.0067797069757710516 28.11542050050986 5201.0000000000009 0.11144249945997386 0.060976283856276056 69.391248473282403 0.49500000000000005 0.059364918749393654 0.43315000000000003 0.51665000000000016 19314.500000000004 0.044222274850987106 0.038993600656389009 10228.500000000002
decision_type=2 2 2 2 2 2 2 2 2 2 2 2 2 2 2
left_child=1 12 3 -3 6 11 7 8 -2 -9 -11 -6 13 -1 -15
right_child=4 2 -4 -5 5 -7 -8 9 -10 10 -12 -13 -14 14 -16
leaf_value=-0.0057427632566460982 -0.092804097275761846 0.16421813447283323 0.066971663994750991 -0.08698015120722874 -0.14889982787238989 0.12012310464155668 0.11859164178477209 0.031058752096787091 0.056385356392825908 0.043124251401982117 -0.1246950930295794 0.040984580975233033 -0.15266616122957141 -0.13974050528500814 0.10841028263085617
leaf_weight=67.597210556152277 0.92053856188431371 0.22251792438328166 0.79136424371972669 4.751763736247085 0.3025008887052526 2.1056302040815345 0.81268925964832384 1.2498917253687976 4.170683984644711 0.7480987198650827 2.2171992158982916 9.1272901613265258 0.45972339436411758 0.35972246993333046 1.9345343564637003
leaf_count=1966 22 7 19 474 9 7 2 22 33 6 101 97 13 15 16
internal_value=0 -0.00818074 -0.0561548 -0.0757431 0.0287557 0.0504508 0.0040242 -0.00598048 0.0294106 -0.0487268 -0.0823569 0.0348932 -0.00424902 -0.00327278 0.0695021
internal_weight=0 76.1168 5.76565 4.97428 21.6545 11.5354 10.1191 9.30641 5.09122 4.21519 2.9653 9.42979 70.3512 69.8915 2.29426
internal_count=2809 2510 500 481 299 113 186 184 55 129 107 106 2010 1997 31
is_linear=0
shrinkage=0.1


Tree=24
num_leaves=16
num_cat=0
split_feature=1 4 8 5 7 5 3 9 13 9 1 6 7 2 1
split_gain=1.95372 1.74676 1.13276 0.941971 1.3603 1.58225 3.17105 2.77367 1.64105 1.49107 1.31307 1.30726 1.75666 1.14587 2.15073
threshold=0.073783924873783963 1.6399178010939872 0.30950000000000005 0.66824636590960973 9.1774843048599681 0.26146560649407896 212965.50000000003 0.79500000000000015 0.15000000000000005 0.82500000000000007 0.0097394738892592012 0.051478600591620807 0.0066589170138789512 9928.5000000000018 0.011891116199215651
decision_type=2 2 2 2 2 2 2 2 2 2 2 2 2 2 2
left_child=3 2 -2 4 5 9 7 -7 -9 11 -6 12 -1 14 -12
right_child=1 -3 -4 -5 10 6 -8 8 -10 -11 13 -13 -14 -15 -16
leaf_value=0.44261217025212291 0.032732529318455078 0.089946867800241193 -0.098768133906134148 -0.079156003104542752 -0.10870316452864509 -0.10244736578880023 0.1297624114560478 0.11800187348144434 -0.13260007601071644 -0.087281117471989578 0.084579940844157847 0.0016735823143324776 -0.15240156680190409 0.073548465910210373 -0.037311779176553393
leaf_weight=0.052627619355915978 2.0665195221081381 4.3585157692432404 0.95908271335065265 1.6416463491041202 0.65310078207403321 5.7357038721675035 0.8771112486720084 1.0401144349016247 0.34898291877470899 2.0182915632612994 2.3225130410864931 64.533669093274511 0.86748681170865893 4.858317022677511 3.8424744987860322
leaf_count=1 17 18 20 154 18 344 8 10 37 79 15 1875 67 80 66
internal_value=0 0.0494237 -0.00895174 -0.00411017 -0.00269654 -0.00761058 -0.0496546 -0.071742 0.0550431 -0.00262433 0.0290668 -1.39078e-05 -0.118369 0.0372293 0.00860804
internal_weight=0 7.38412 3.0256 88.792 87.1504 75.474 8.00191 7.1248 1.3891 67.4721 11.6764 65.4538 0.920114 11.0233 6.16499
internal_count=2809 55 37 2754 2600 2421 399 391 47 2022 179 1943 68 161 81
is_linear=0
shrinkage=0.1


Tree=25
num_leaves=16
num_cat=0
split_feature=1 0 3 7 0 1 1 9 2 4 3 1 2 1 9
split_gain=1.88578 1.20306 1.09436 1.19777 1.04266 1.53707 1.72286 2.42156 1.17358 1.16424 3.43139 1.79279 1.66094 1.62486 1.47846
threshold=0.048841414416846259 0.0066374673262078509 5201.0000000000009 28.11542050050986 0.0063415514468793512 0.022157234762827802 0.020524614082472303 0.66500000000000015 173219.50000000003 4.7472598131455603 115293.00000000001 0.013185588759207752 183118.50000000003 0.016951759679655554 0.53500000000000014
decision_type=2 2 2 2 2 2 2 2 2 2 2 2 2 2 2
left_child=1 4 -3 -4 5 6 9 -8 -7 10 -1 12 -11 14 -12
right_child=-2 2 3 -5 -6 8 7 -9 -10 11 13 -13 -14 -15 -16
leaf_value=-0.086633348808616964 0.027252198181781574 0.14687958285883254 -0.078062104648137176 0.049180676075592324 0.062064371964679066 -0.032247402998929336 0.10157275288591956 -0.14251054712077624 -0.1439024890019967 0.0097484065186986685 -0.07292079995783822 0.041301452251433966 -0.06608109457936294 -0.14179082743283059 0.0096686787275670205
leaf_weight=5.9072708218591279 20.031893730396405 0.27007859339937468 4.9476470053195953 0.86984954960644234 2.3415150623768559 4.6129229951184234 2.943537761457264 0.47157919406890858 1.182718778029084 9.675615838030355 2.3889829530380728 10.952216856880112 4.117864823434501 0.81045791669748624 23.379334102617577
leaf_count=640 299 7 492 21 31 169 23 18 38 156 76 156 143 44 496
internal_value=0 -0.00729133 -0.0499008 -0.0590364 -0.00352027 -0.00583155 -0.00112969 0.0678683 -0.0550329 -0.00524692 -0.017695 0.0110949 -0.0128895 -0.00237313 0.0020118
internal_weight=0 74.8716 6.08758 5.8175 68.784 66.4425 60.6469 3.41512 5.79564 57.2317 32.486 24.7457 13.7935 26.5788 25.7683
internal_count=2809 2510 520 513 1990 1959 1752 41 207 1711 1256 455 299 616 572
is_linear=0
shrinkage=0.1


Tree=26
num_leaves=16
num_cat=0
split_feature=1 6 0 12 1 0 3 0 3 7 1 2 2 3 12
split_gain=1.46942 1.1105 1.09748 2.35056 1.64633 1.54155 1.78803 1.48686 1.53651 1.35947 1.1968 1.13765 1.80816 3.50935 1.53026
threshold=0.048841414416846259 0.11144249945997386 0.0023842530492389504 0.48715000000000003 0.040364667227029659 0.0067797069757710516 142059.00000000003 0.0023412941685098504 194170.00000000003 28.11542050050986 0.014940207263267351 183118.50000000003 142059.00000000003 142059.00000000003 0.66435000000000011
decision_type=2 2 2 2 2 2 2 2 2 2 2 2 2 2 2
left_child=2 -2 7 5 -5 6 10 11 -9 -7 -4 12 13 -1 -13
right_child=1 -3 3 4 -6 9 -8 8 -10 -11 -12 14 -14 -15 -16
leaf_value=-0.075927106213850265 -0.0010817016027219071 0.046316546410183096 -0.040040349974975548 -0.067682679403796103 0.0085645482054203283 -0.11313821220955474 -0.067298576318400014 -0.12072612267312546 0.19759435059331168 0.10926001470973246 0.066286836563120677 -0.073997211088798157 0.036524762432332811 0.011323911742003808 0.025621805389984483
leaf_weight=5.9883314863545847 9.293946929508822 10.558845696039496 1.2687698046211169 11.326786224730311 3.7758658631937569 1.4868596090236668 1.6086341170594094 0.19277940783649583 0.71051832940429449 0.33718795049935568 6.3906360507244244 4.2712718131951979 13.337185591924934 20.025639153085649 2.4131713472306728
leaf_count=482 186 113 73 802 175 164 61 20 4 4 102 202 101 280 40
internal_value=0 0.0241274 -0.0065496 -0.0229479 -0.0486198 0.0120063 0.0285448 0.00260164 0.129659 -0.0720263 0.0486739 0.000108547 0.00658759 -0.00876099 -0.0380334
internal_weight=0 19.8528 73.1336 26.1947 15.1027 11.0921 9.26804 46.9389 0.903298 1.82405 7.65941 46.0356 39.3512 26.014 6.68444
internal_count=2809 299 2510 1381 977 404 236 1129 24 168 175 1105 863 762 242
is_linear=0
shrinkage=0.1


Tree=27
num_leaves=16
num_cat=0
split_feature=1 4 9 6 6 1 3 1 7 7 9 5 11 1 7
split_gain=1.28555 1.36652 1.03835 1.36756 1.91303 1.69934 2.9315 1.645 1.31921 1.16046 1.09669 1.02503 1.6518 2.33921 1.64542
threshold=0.10888959064369017 1.0571845466701182 0.58500000000000008 0.90013507823645278 0.32721266157026413 0.012207826007127153 212965.50000000003 0.012320876776530602 0.078973468706162467 0.088116516160079109 0.59500000000000008 0.097936140627007714 0.58540000000000003 0.013968350959706352 18.548836746286405
decision_type=2 2 2 2 2 2 2 2 2 2 2 2 2 2 2
left_child=2 -2 3 4 5 6 -1 -7 -4 -10 -11 -9 14 -14 -13
right_child=1 -3 8 -5 -6 7 -8 11 9 10 -12 12 13 -15 -16
leaf_value=-0.1119644092512504 -0.031616681113706781 0.092761280549108691 -0.072329520382398677 -0.16049127518154363 0.092668998938678471 0.11286196188172304 0.13686418940745629 0.025208367799923123 0.10079973907817007 -0.1212598567510131 -0.008111317877264065 -0.077458760905304513 -0.11711967487340079 0.031171844870292977 0.053143819163210954
leaf_weight=2.5300968339433889 1.2769576534628857 2.8656950332224369 3.4393564657075322 0.46920505911111732 2.6890123365446916 1.537871791049837 0.58246511220931996 15.769306774251161 0.95889073610305686 0.87467752979136904 41.478854194981977 4.8991680166218456 1.2041173258330662 9.1247828319901583 1.2011710419319568
leaf_count=110 16 14 340 23 19 9 4 369 16 63 1373 234 29 167 23
internal_value=0 0.0544222 -0.00259861 0.00922759 0.0112417 0.00529961 -0.0654002 0.0118225 -0.0127187 -0.00798513 -0.010448 0.0069966 -0.0104836 0.0138844 -0.0517428
internal_weight=0 4.14265 86.759 40.0072 39.538 36.849 3.11256 33.7364 46.7518 43.3124 42.3535 32.1985 16.4292 10.3289 6.10034
internal_count=2809 30 2779 987 964 945 114 831 1792 1452 1436 822 453 196 257
is_linear=0
shrinkage=0.1


Tree=28
num_leaves=16
num_cat=0
split_feature=8 0 0 0 0 6 2 7 4 9 4 1 4 5 3
split_gain=1.04704 0.859326 2.26007 1.60513 1.66173 1.53916 1.30158 1.36848 2.50847 2.22835 1.62636 1.59661 1.4538 2.00595 1.5604
threshold=0.16025000000000003 0.00054416247864505008 0.00064657771723520012 0.0009439649955646001 0.00097326744145295014 0.058498410393010909 5201.0000000000009 9.1774843048599681 0.12713379230562422 0.7350000000000001 1.9196510296735212 0.06150245910305626 0.61442063922187062 0.11872723287321396 142059.00000000003
decision_type=2 2 2 2 2 2 2 2 2 2 2 2 2 2 2
left_child=-1 -2 -3 5 -5 -4 -6 10 9 -9 12 -12 13 14 -8
right_child=1 2 3 4 6 -7 7 8 -10 -11 11 -13 -14 -15 -16
leaf_value=0.07811923967330954 -0.035791461319615664 0.065087166391120041 0.10058575588651222 0.10126233907484131 -0.068905833782868617 -0.080759338293183672 -0.12890481910058135 0.07846178230599804 -0.10698785545618582 -0.11827675924349167 0.0017784897504417791 0.066128899760448917 -0.060793968566548742 -0.0303629693396213 0.057607885933491421
leaf_weight=1.6833125241100777 6.7455660405103108 5.2063683148007831 0.52829555002972384 1.6058036228641857 2.761635474395006 4.1027157140197232 0.49121123971418157 6.4348873021081072 1.0187303614802656 0.63227930618450034 28.452629303443246 4.4600327229127279 7.315411409479565 12.490806823363526 5.1659503448754549
leaf_count=12 228 72 4 24 116 162 45 61 117 21 726 27 642 470 82
internal_value=0 -0.00150435 0.00136282 -0.00303382 0.000695481 -0.0600719 -0.0016374 0.00115774 0.0397132 0.0608601 -0.00418273 0.0104987 -0.0231592 -0.00798866 0.041413
internal_weight=0 87.4123 80.6668 75.4604 70.8294 4.63101 69.2236 66.4619 8.0859 7.06717 58.376 32.9127 25.4634 18.148 5.65716
internal_count=2809 2797 2569 2497 2331 166 2307 2191 199 82 1992 753 1239 597 127
is_linear=0
shrinkage=0.1


Tree=29
num_leaves=16
num_cat=0
split_feature=1 2 9 7 4 2 3 4 0 1 0 2 9 5 5
split_gain=1.19046 1.07033 0.804678 1.333 2.69654 2.27725 1.70117 1.30795 1.24513 1.38086 3.16207 1.50254 1.3536 1.18089 1.17222
threshold=0.10888959064369017 24778.500000000004 0.57500000000000007 2.9928997025902433 0.11952443533425382 115293.00000000001 135612.50000000003 0.61442063922187062 0.00054416247864505008 0.011891116199215651 0.0015314060394839002 7071.5000000000009 0.69500000000000006 0.29992734164281304 0.12847706258482833
decision_type=2 2 2 2 2 2 2 2 2 2 2 2 2 2 2
left_child=2 -2 13 5 8 6 -4 -7 -5 12 -11 -12 -10 -1 -9
right_child=1 -3 3 4 -6 7 -8 14 9 10 11 -13 -14 -15 -16
leaf_value=0.013112773224272296 -0.063994202534390435 0.08006621863912497 -0.10330888145137207 -0.14973926512566968 -0.11259133141287946 0.16560827294621955 -0.027343007368873663 -0.017360958061328893 -0.064537655470327623 -0.15594702486217116 -0.028268959546907731 0.07830967579185015 0.096929851206634263 -0.076863688753128934 0.037899654990580005
leaf_weight=33.347790178027935 0.62059367168694679 3.0523620638996363 4.584583389107137 0.36545753385871549 1.4471514968899999 0.45707186497748153 8.25743552634958 17.540174315683547 0.58946313895284941 1.0006976397708056 2.1566212100442499 3.4211545796133578 4.3545996705070138 1.5253780977800477 4.9140766164055085
leaf_count=812 10 20 701 18 197 6 211 510 13 18 61 37 34 72 89
internal_value=0 0.0557253 -0.00243774 -0.0106891 0.0162935 -0.020753 -0.0544627 -0.00185836 0.0319829 0.0377466 0.00773557 0.0371015 0.0776787 0.00917714 -0.00526726
internal_weight=0 3.67296 83.9617 49.0885 13.3351 35.7533 12.842 22.9113 11.888 11.5225 6.57847 5.57778 4.94406 34.8732 22.4543
internal_count=2809 30 2779 1895 378 1517 912 605 181 163 116 98 47 884 599
is_linear=0
shrinkage=0.1


Tree=30
num_leaves=16
num_cat=0
split_feature=0 9 0 5 2 0 12 0 9 1 7 4 5 7 9
split_gain=0.910692 1.28598 1.19055 1.12238 0.920626 0.856937 1.35454 1.05478 0.886704 0.817301 0.956848 1.56111 1.48224 1.68347 1.47942
threshold=0.00054416247864505008 0.68500000000000016 0.00063372075156115017 0.12141638936285361 205071.50000000003 0.0009439649955646001 0.56990000000000007 0.00097326744145295014 0.83500000000000008 0.10888959064369017 9.1774843048599681 0.12713379230562422 0.17738567550977588 2.597959406509927 0.40500000000000008
decision_type=2 2 2 2 2 2 2 2 2 2 2 2 2 2 2
left_child=1 3 -2 -1 -3 6 -4 -7 9 10 12 -12 -9 14 -14
right_child=2 4 5 -5 -6 7 -8 8 -10 -11 11 -13 13 -15 -16
leaf_value=-0.12070908934658109 0.055253011355028463 -0.13129451946039775 0.0035353682897244195 0.018259978058278208 0.032355561548397797 0.084025535711613364 -0.10300073796431256 0.0028601561473130394 -0.066010370805381469 0.050268694308532785 0.043991495715181399 -0.10221479935135165 0.075142789885002337 0.0033608730292426104 -0.10135237165131289
leaf_weight=0.69402670348063011 4.1218968303874126 1.7383105991757477 2.9041257228236637 3.5739164300030097 0.42849183455109585 1.5661793439649034 2.0260014123050496 45.733527674048673 1.9178382153040718 3.4621369345113626 8.0970488693565095 0.80269714584574181 0.53393218200653603 4.4583597743185237 4.2974352046148852
leaf_count=21 60 96 83 104 7 24 95 1420 90 28 100 116 13 130 422
internal_value=0 -0.0361914 0.0029139 -0.00433832 -0.0989322 6.77466e-05 -0.0402449 0.00287216 0.00103817 0.00294643 0.000383409 0.0308047 -0.00453708 -0.0409539 -0.0818472
internal_weight=0 6.43475 79.9212 4.26794 2.1668 75.7993 4.93013 70.8692 69.303 67.3851 63.923 8.89975 55.0233 9.28973 4.83137
internal_count=2809 228 2581 125 103 2521 178 2343 2319 2229 2201 216 1985 565 435
is_linear=0
shrinkage=0.1


Tree=31
num_leaves=16
num_cat=0
split_feature=0 9 4 1 1 3 7 11 6 0 6 5 4 1 1
split_gain=0.832562 1.15666 1.04692 1.37518 1.79309 1.11569 0.922631 1.55453 1.15639 0.92414 0.836034 0.823347 0.70685 0.703337 0.694363
threshold=0.00054416247864505008 0.71500000000000008 0.027598731221636055 0.011938711424597901 0.013968350959706352 210139.00000000003 0.029297864717911754 0.81735000000000013 0.051478600591620807 0.060976283856276056 0.90013507823645278 0.09695096852271691 1.6399178010939872 0.011794028391186501 0.011794028391186501
decision_type=2 2 2 2 2 2 2 2 2 2 2 2 2 2 2
left_child=1 10 3 -2 -5 6 7 8 -4 14 11 -1 -11 -7 -8
right_child=2 -3 5 4 -6 13 9 -9 -10 12 -12 -13 -14 -15 -16
leaf_value=-0.11771267420001651 0.10729174873009391 -0.10961332486225123 0.22195023737908712 -0.11226803829651402 0.07133489467318882 -0.00051796788455429682 -0.024012123231189834 0.073307026611603682 -0.080296771027704203 -0.011343664651914867 -0.18031636035914483 0.01578967860247988 0.11908752599936655 -0.12144116371045011 0.006967318833795969
leaf_weight=0.52360031474381585 2.1522080078721038 1.5623146760044617 0.13116935174912159 0.91297900117933783 1.274402151815593 0.7971780346706504 8.2762087049195525 0.9527153328526764 3.621043691993691 0.62972673447802563 0.27267201710492361 3.9241406614892185 1.2213231921195982 1.2127370021771637 57.509624883648939
leaf_count=14 12 85 4 23 13 11 363 18 261 16 9 120 6 80 1774
internal_value=0 -0.0350312 0.00279689 0.0505405 -0.00529812 1.03034e-05 0.00205214 -0.0407667 -0.0697309 0.00503068 -0.0103467 7.3414e-05 0.0747149 -0.0734803 0.00306994
internal_weight=0 6.28273 78.6913 4.33959 2.18738 74.3517 72.3418 4.70493 3.75221 67.6369 4.72041 4.44774 1.85105 2.00992 65.7858
internal_count=2809 228 2581 48 36 2533 2442 283 265 2159 143 134 22 91 2137
is_linear=0
shrinkage=0.1


Tree=32
num_leaves=16
num_cat=0
split_feature=1 4 0 9 0 6 2 9 2 10 9 1 4 0 0
split_gain=0.719438 0.801442 0.7109 0.740764 0.875342 1.36125 0.759569 0.696304 1.09887 0.947074 0.751845 2.927 1.3567 0.76583 2.12967
threshold=0.10888959064369017 1.0571845466701182 0.048357546577423208 0.47500000000000003 0.028717650951791605 0.26146560649407896 194170.00000000003 0.52500000000000013 201973.00000000003 0.65000000000000002 0.54500000000000015 0.01250155304372255 29.38015950160997 0.0023842530492389504 0.0023412941685098504
decision_type=2 2 2 2 2 2 2 2 2 2 2 2 2 2 2
left_child=2 -2 3 4 5 -1 -7 8 9 -5 11 -9 -13 14 -12
right_child=1 -3 -4 7 -6 6 -8 10 -10 -11 13 12 -14 -15 -16
leaf_value=-0.022738536933978454 -0.022530852517590481 0.083692790267307415 -0.082507379995844538 -0.10726374580969118 0.077770841745042008 0.093469543509827779 -0.054357907483122747 -0.13068337762057533 0.065853491610291789 -0.0048489799237659073 -0.00094354633676981047 0.058425601908517102 -0.15668627958111428 -0.019884042376596661 0.1373702738971502
leaf_weight=4.8529551996616629 1.0856273612007492 2.0543669648468494 1.0773557913489629 2.1842671827762383 2.3855979824438691 2.0527978793252264 0.41843102313578118 1.0342503930442015 0.77645390620455135 1.5392318624071775 33.524618960276712 6.8748597491066903 0.30625560320913781 23.000235836836509 1.1514572103042144
leaf_count=161 16 14 46 112 19 27 7 38 22 31 959 126 7 1206 18
internal_value=0 0.0469668 -0.00181667 -0.000731392 0.0251612 0.00802546 0.0684392 -0.004303 -0.0423614 -0.0649272 -0.00170388 0.0265992 0.0492516 -0.00573535 0.00364932
internal_weight=0 3.13999 81.1788 80.1014 9.70978 7.32418 2.47123 70.3916 4.49995 3.7235 65.8917 8.21537 7.18112 57.6763 34.6761
internal_count=2809 30 2779 2733 214 195 34 2519 165 143 2354 171 133 2183 977
is_linear=0
shrinkage=0.1


Tree=33
num_leaves=16
num_cat=0
split_feature=8 6 4 4 10 11 4 0 12 9 4 2 7 3 1
split_gain=0.799891 1.03079 0.926774 1.25624 1.1929 0.79886 0.785755 0.746285 1.67402 1.62825 0.991886 2.85875 1.91321 1.38451 1.33327
threshold=0.51665000000000016 0.11144249945997386 33.486712699992772 28.305746199514569 0.65000000000000002 0.62860000000000005 27.513151106635494 0.00054416247864505008 0.69785000000000008 0.67500000000000016 0.15560500608316039 44732.500000000007 0.96551908560250854 201973.00000000003 0.010951122505895203
decision_type=2 2 2 2 2 2 2 2 2 2 2 2 2 2 2
left_child=1 -1 3 6 -5 -4 7 8 9 -2 14 -12 13 -13 -9
right_child=2 -3 5 4 -6 -7 -8 10 -10 -11 11 12 -14 -15 -16
leaf_value=-0.028296857360987832 -0.014298536107971202 0.044957570129663803 -0.098992163742199046 0.070663516953266767 -0.05944504351683795 -0.0013356032957001214 -0.13973772609824731 0.064896664542125435 0.15462739317303908 -0.13875734589904593 -0.10318478631127311 0.007118435036228667 -0.11276633093511711 -0.10649639918795567 0.003769774873785393
leaf_weight=2.5759289376437646 2.9877449815394348 7.5540025467053056 1.8505445220507675 4.012993562500923 0.85477601457387198 1.5304097733460365 0.42907385155558486 4.3171601248905089 0.40226071886718262 1.6217227625893427 3.1157121591386376 28.559489619568929 1.5037720024120051 1.1144215452950437 20.569102000095882
leaf_count=43 102 96 73 38 25 33 11 36 2 86 637 872 199 122 434
internal_value=0 0.0263298 -0.00366024 -0.00117265 0.0478166 -0.0547873 -0.00486294 -0.0039614 -0.041013 -0.0580862 -0.000823624 -0.0118522 -0.00272496 0.00285156 0.0143738
internal_weight=0 10.1299 72.8692 69.4882 4.86777 3.38095 64.6205 64.1914 5.01173 4.60947 59.1797 34.2934 31.1777 29.6739 24.8863
internal_count=2809 139 2670 2564 63 106 2501 2490 190 188 2300 1830 1193 994 470
is_linear=0
shrinkage=0.1


Tree=34
num_leaves=16
num_cat=0
split_feature=1 2 1 4 3 2 2 4 7 5 3 12 5 4 7
split_gain=0.814908 0.653641 0.578953 0.49991 2.45036 1.91322 1.57251 1.09313 1.36614 2.06655 2.30456 1.27985 1.2624 1.22559 1.1244
threshold=0.12894380892693999 212965.50000000003 0.0059785154141463008 1.9654240071531797 100579.00000000001 142059.00000000003 100579.00000000001 1.9995309185837822 0.54196209938783479 0.051478600591620807 10589.000000000002 0.60365000000000013 0.12847706258482833 16.798067828368438 0.63670204789115803
decision_type=2 2 2 2 2 2 2 2 2 2 2 2 2 2 2
left_child=1 2 -1 4 -4 -6 -5 -8 -9 10 11 13 -11 -10 -14
right_child=-2 -3 3 6 5 -7 7 8 9 12 -12 -13 14 -15 -16
leaf_value=-0.11393354765512925 0.057993621926915866 -0.095094487302304687 -0.089050552834489205 -0.085522398641415989 0.0070518778265252274 -0.06773158465654866 0.12519949595094168 0.021721622166067295 0.13733286241954903 -0.11425437867566111 -0.13791630284792869 0.10344008801447389 0.1221693749793954 -0.062268143970226723 -0.1006234068308855
leaf_weight=0.45007025462109496 2.3527104500681153 0.7428118356037875 3.3976209317333987 1.69847764604492 34.253235410084017 3.8005758749786756 0.84760139044374128 25.338482506806031 0.40680339932441567 2.7791889584623282 0.76916283601894964 2.1226836498826742 0.49991437792778004 1.2617844473570583 0.41422100830823183
leaf_count=48 22 52 589 268 786 388 7 418 1 108 27 13 1 24 57
internal_value=0 -0.00173188 -0.000843221 -0.000187225 -0.00768199 -0.000417025 0.00840943 0.0130419 0.0102119 -0.0251221 0.019908 0.0519269 -0.0807242 -0.0136052 0.0212156
internal_weight=0 78.7826 78.0398 77.5898 41.4514 38.0538 36.1383 34.4398 33.5922 8.25376 4.56043 3.79127 3.69332 1.66859 0.914135
internal_count=2809 2787 2735 2687 1763 1174 924 656 649 231 65 38 166 25 58
is_linear=0
shrinkage=0.1


Tree=35
num_leaves=16
num_cat=0
split_feature=8 9 7 2 7 6 7 2 13 13 1 2 1 2 3
split_gain=0.679235 0.820477 1.12043 0.762716 0.779489 0.793452 0.756559 0.743212 1.81294 0.987673 0.941468 0.832332 2.65911 0.831391 2.4979
threshold=0.51665000000000016 0.6150000000000001 1.0777354639126624 184261.00000000003 0.44449271668099061 0.48395817784086875 0.0014894967073644002 181506.50000000003 0.15000000000000005 0.35000000000000003 0.073783924873783963 175411.00000000003 0.06095832775560326 142059.00000000003 100579.00000000001
decision_type=2 2 2 2 2 2 2 2 2 2 2 2 2 2 2
left_child=1 2 -1 6 -5 -6 -2 11 10 -10 -9 13 -13 14 -8
right_child=3 -3 -4 4 5 -7 7 8 9 -11 -12 12 -14 -15 -16
leaf_value=0.017122935114210685 -0.12704320941576577 0.067638541560582674 -0.13541442385736907 -0.0080892303088572325 -0.098345637616811796 0.0019274219029575008 -0.061096254162363133 -0.10295226083236045 0.10846536015898051 -0.012487488923433472 0.11355743688942098 -0.11431740386383858 0.099524914269716436 0.023312655067819616 0.0058743140422217316
leaf_weight=6.028671143576501 0.45882370200706546 3.0626418958418071 0.52334339078515757 6.4673879389883933 2.4514324867632244 1.1637614532373843 6.7654939161438952 1.0479631160851557 2.5912925763987009 0.91298350482247759 0.24845646321773518 2.0580993574112649 0.81049992400221516 12.991095167351885 31.501695021754131
leaf_count=94 58 32 13 241 223 33 943 56 18 26 1 84 7 248 732
internal_value=0 0.0249112 0.00493898 -0.00344777 -0.0288776 -0.0660669 0.000869692 0.00186565 0.0395752 0.076953 -0.0614586 -0.00147894 -0.053898 0.00145462 -0.00596583
internal_weight=0 9.61466 6.55201 69.469 10.0826 3.61519 59.3864 58.9276 4.8007 3.50428 1.29642 54.1269 2.8686 51.2583 38.2672
internal_count=2809 139 107 2670 497 256 2173 2115 101 44 57 2014 91 1923 1675
is_linear=0
shrinkage=0.1


Tree=36
num_leaves=16
num_cat=0
split_feature=1 12 6 7 9 6 9 8 12 0 5 6 4 0 12
split_gain=0.637799 0.878931 1.14419 0.916914 0.862405 1.09337 0.924327 0.884679 1.0015 0.789636 0.774968 0.736011 0.657676 0.639062 1.75297
threshold=0.048841414416846259 0.65405000000000013 0.10421096847410642 69.391248473282403 0.47500000000000003 0.14504716159449407 0.46500000000000002 0.58570000000000011 0.47655000000000008 0.016778666851224453 0.15168222432906728 0.095990568966833958 1.0571845466701182 0.0024110494912254507 0.48715000000000003
decision_type=2 2 2 2 2 2 2 2 2 2 2 2 2 2 2
left_child=13 3 -3 4 6 7 11 -6 -9 -7 -4 12 -2 -1 -15
right_child=1 2 10 -5 5 9 -8 8 -10 -11 -12 -13 -14 14 -16
leaf_value=0.0029531583238235448 -0.12706781869492939 -0.10434255562429864 0.086482863527058862 0.11812912288349925 0.0050194455846388495 -0.063027931130925197 0.096410966267642728 -0.010329558126259753 -0.13397944489065575 0.076799599797530371 -0.056613608302622014 0.035678017401675755 0.023250286880717529 0.014673881639203114 -0.042708878080081766
leaf_weight=39.277876521460712 0.68298493046313546 0.40702852932736178 3.6258517345413566 0.65573015809059221 1.5651799025945363 0.57574277743697155 1.4161826800554989 1.0332689904607835 1.7894247500225899 1.3528891880996523 0.42257336247712363 2.070378826931119 0.50722752790898085 9.2374504437320883 12.565183762519153
leaf_count=1141 19 16 29 2 18 13 7 58 82 13 11 21 10 402 967
internal_value=0 0.0177033 0.0554781 0.00325535 -0.00359667 -0.0276972 0.0289538 -0.0552803 -0.0887164 0.0350577 0.0715465 -0.000345093 -0.0630074 -0.00466764 -0.0183967
internal_weight=0 16.1045 4.45545 11.649 10.9933 6.31651 4.67677 4.38787 2.82269 1.92863 4.04843 3.26059 1.19021 61.0805 21.8026
internal_count=2809 299 56 243 241 184 57 158 140 26 40 50 29 2510 1369
is_linear=0
shrinkage=0.1


Tree=37
num_leaves=16
num_cat=0
split_feature=1 1 1 3 9 6 0 1 9 12 1 5 5 1 4
split_gain=0.599546 1.27465 0.760654 1.24959 1.21005 2.90226 1.10118 1.04093 1.15727 1.17593 0.92206 1.07587 1.18204 1.06404 1.02008
threshold=0.038993600656389009 0.023197723472951456 0.013225434448680802 207049.00000000003 0.68500000000000016 0.90013507823645278 0.0015421272922493503 0.020524614082472303 0.58500000000000008 0.48895000000000005 0.012320876776530602 0.11764643188621171 0.051478600591620807 0.0087858260460655022 18.383894612653027
decision_type=2 2 2 2 2 2 2 2 2 2 2 2 2 2 2
left_child=1 2 10 4 6 -6 -4 8 -8 -10 11 12 -1 14 -13
right_child=-2 -3 3 -5 5 -7 7 -9 9 -11 -12 13 -14 -15 -16
leaf_value=0.02787136198443832 0.015059727168297399 -0.052024370280167889 0.060545550645193083 -0.087441762114832067 -0.098041688274720928 0.1797960874280938 0.01834001718352728 0.081386215719506688 0.03753755007750878 -0.091645100383229788 -0.049286634413413202 -0.075629769406713759 -0.076575858460905422 0.022616050371760631 0.044321556646449899
leaf_weight=1.5882098423317135 19.593092937080655 5.2798716499237335 6.2954436433501639 1.189510348252951 2.0692963858018625 0.45944777131080616 9.0045843961415795 1.7937191757373501 1.0269699804484838 2.2451362986466847 5.3166963048861353 2.3983444041223296 3.4097999730147421 13.020715919614302 1.0064844833686946
leaf_count=18 598 325 60 93 175 1 284 23 45 215 190 236 149 375 22
internal_value=0 -0.00525926 -0.000401081 0.0124896 0.0176816 -0.0475613 0.0257825 0.0102287 -0.000167926 -0.0511004 -0.0120113 -0.00276065 -0.0433858 0.00960089 -0.0401716
internal_weight=0 56.1042 50.8244 24.0841 22.8946 2.52874 20.3659 14.0704 12.2767 3.27211 26.7403 21.4236 4.99801 16.4255 3.40483
internal_count=2809 2211 1886 896 803 176 627 567 544 260 990 800 167 633 258
is_linear=0
shrinkage=0.1


Tree=38
num_leaves=16
num_cat=0
split_feature=1 1 2 0 9 1 12 13 3 7 7 6 7 7 9
split_gain=0.668175 0.993459 1.2978 1.2138 1.18494 1.13777 1.39973 1.50486 1.09549 0.981872 0.963001 0.873865 0.896869 1.11232 0.86494
threshold=0.013225434448680802 0.013583476579270051 115293.00000000001 0.0015421272922493503 0.68500000000000016 0.038993600656389009 0.48715000000000003 0.35000000000000003 142059.00000000003 20.875129031283489 7.2549487383354423 0.29992734164281304 9.1774843048599681 0.81972144450319617 0.57500000000000007
decision_type=2 2 2 2 2 2 2 2 2 2 2 2 2 2 2
left_child=-1 2 9 4 -3 6 7 8 -5 -2 -10 12 13 -7 -8
right_child=1 3 -4 5 -6 11 14 -9 10 -11 -12 -13 -14 -15 -16
leaf_value=-0.012785727379319572 -0.11806245251117103 0.054034880003510893 0.11670360982947348 0.050884242130382479 -0.11470272072051986 0.0091687702654038149 -0.016094932075692358 -0.087282783967372254 -0.1066755445512912 0.13802112983541379 0.058874972338876431 0.096050108526853167 0.065388319326559141 -0.075665697058061615 -0.071887684892013123
leaf_weight=26.361029121908359 0.51130996196297873 6.2925021832343182 1.7121997729409484 5.375220524088947 0.44564490986522276 14.041877069335902 5.6765894347918202 1.3073700157110577 0.95161981089040615 0.2117211096920073 0.55705478205345571 1.2163797297980625 2.4049095925874999 1.7367167682386924 5.4428300486470107
leaf_count=990 48 62 21 125 28 432 271 97 55 3 12 18 34 112 501
internal_value=0 0.00703879 0.0692646 0.00370461 0.042875 -0.00311358 -0.0202971 0.011071 0.02975 -0.0430749 -0.0455486 0.013991 0.00850165 -0.000168782 -0.0434049
internal_weight=0 47.8839 2.43523 45.4487 6.73815 38.7106 19.3107 8.19127 6.8839 0.723031 1.50867 19.3999 18.1835 15.7786 11.1194
internal_count=2809 1819 72 1747 90 1657 1061 289 192 51 67 596 578 544 772
is_linear=0
shrinkage=0.1


Tree=39
num_leaves=16
num_cat=0
split_feature=4 4 12 11 1 7 7 0 3 12 1 2 9 4 3
split_gain=0.746807 1.17582 1.05091 0.886017 0.519131 0.507389 0.475516 0.473723 0.731289 0.637775 0.552222 0.473252 1.91141 1.56249 0.766333
threshold=33.486712699992772 30.283673223886662 0.62330000000000008 0.60420000000000007 0.12894380892693999 0.50484725985206735 0.36149058128136607 0.00040897536135915008 210139.00000000003 0.69785000000000008 0.010005150270978801 5201.0000000000009 0.79500000000000015 0.027598731221636055 210139.00000000003
decision_type=2 2 2 2 2 2 2 2 2 2 2 2 2 2 2
left_child=1 4 -3 -2 7 -5 -4 8 9 10 -1 12 -9 -13 -15
right_child=3 2 6 5 -6 -7 -8 11 -10 -11 -12 13 -14 14 -16
leaf_value=-0.11240920704625529 -0.10432661524170293 0.094397801053750924 -0.15754620968187383 0.030899629499178641 0.048897822251642221 -0.080068312127902219 0.01579399529606848 -0.11350630670869924 0.069129337471946772 0.11757651148579479 0.030242452148719453 0.10133685434093274 0.027963574222583987 0.0013064904687231807 -0.063659898100552073
leaf_weight=1.5388648016378281 1.4673113273456686 2.3741274317726488 0.24526279792189587 1.3976794439367948 2.0588117390871039 0.58430286648217578 0.44612585008144379 1.7043113477411673 0.45920012705028046 0.16547641158103932 0.32946839183568943 1.5370971132069815 2.172415325359907 54.939759354951093 1.8777395263314236
leaf_count=126 57 27 5 20 22 33 12 113 5 1 5 11 44 2237 91
internal_value=0 0.00224308 0.0628013 -0.0454226 -0.000536697 -0.00181453 -0.0456966 -0.00210916 -0.0448527 -0.070588 -0.0872535 -0.000396833 -0.0342303 0.00185086 -0.000840559
internal_weight=0 69.8487 3.06552 3.44929 66.7831 1.98198 0.691389 64.7243 2.49301 2.03381 1.86833 62.2313 3.87673 58.3546 56.8175
internal_count=2809 2699 44 110 2655 53 17 2633 137 132 131 2496 157 2339 2328
is_linear=0
shrinkage=0.1


Tree=40
num_leaves=16
num_cat=0
split_feature=1 1 4 4 7 5 12 11 4 13 3 1 0 0 5
split_gain=0.463768 0.824745 1.08593 1.17323 0.870078 0.961666 0.904526 1.22462 0.957516 0.923004 0.809719 0.798499 0.953523 1.05738 0.947788
threshold=0.013225434448680802 0.012320876776530602 23.684762056482651 28.305746199514569 0.12188138337019207 0.11764643188621171 0.61245000000000005 0.85980000000000012 0.018589277414055954 0.15000000000000005 212965.50000000003 0.013583476579270051 0.0015421272922493503 0.0023161246696397505 0.23973175810125749
decision_type=2 2 2 2 2 2 2 2 2 2 2 2 2 2 2
left_child=1 4 -3 -4 -1 -6 8 10 -7 -9 -8 -2 14 -14 -13
right_child=11 2 3 -5 5 6 7 9 -10 -11 -12 12 13 -15 -16
leaf_value=-0.11225169018838282 0.063600994205265285 -0.072938251503655377 0.1034278111526243 -0.086380690006854277 -0.038176388564816484 -0.18712284444116201 -0.088042874510551705 0.11575287026276133 0.034344298812972796 -0.029346152937317051 0.053357249069109949 0.049569789587109947 -0.0611447746231287 0.0017719812085588435 -0.099113635298576239
leaf_weight=0.68764332326828181 2.2864378555095746 3.9021554146893314 0.84630520083010174 0.5293358308263123 4.5488217931706485 0.19893747195601363 2.3417196357622738 0.87138284835964419 10.450926822668405 0.88230226840823889 0.48966433620080341 5.9059718060307196 2.8935163798741987 34.757145040057367 0.46229137270711351
leaf_count=157 72 161 5 24 163 2 157 10 283 21 7 59 105 1552 31
internal_value=0 -0.0107585 -0.0460058 0.030391 -0.00167133 0.00217222 0.0142194 -0.0229161 0.0302073 0.0427516 -0.0635889 0.00598254 0.00298971 -0.00306328 0.0387764
internal_weight=0 25.7492 5.2778 1.37564 20.4714 19.7838 15.2349 4.58507 10.6499 1.75369 2.83138 46.3054 44.0189 37.6507 6.36826
internal_count=2809 990 190 29 800 643 480 195 285 31 164 1819 1747 1657 90
is_linear=0
shrinkage=0.1


Tree=41
num_leaves=16
num_cat=0
split_feature=1 1 10 0 9 3 8 1 7 4 3 1 1 13 13
split_gain=0.600126 1.04734 1.21036 0.813619 0.885978 0.774381 0.760001 0.649989 1.06229 0.813958 0.784664 1.19147 1.82626 1.42166 1.38661
threshold=0.013225434448680802 0.013559340646487252 0.65000000000000002 0.0015421272922493503 0.68500000000000016 197945.50000000003 0.35415000000000002 0.012320876776530602 0.50484725985206735 26.332971992690748 207049.00000000003 0.011743884094109853 0.010346684147324552 0.45000000000000007 0.15000000000000005
decision_type=2 2 2 2 2 2 2 2 2 2 2 2 2 2 2
left_child=7 2 -2 4 -3 -5 -7 10 9 -9 11 12 13 -1 -14
right_child=1 3 -4 5 -6 6 -8 8 -10 -11 -12 -13 14 -15 -16
leaf_value=-0.029357997788648577 -0.08017371393895624 0.04695270418083318 0.11931679318699112 0.0012421268953836787 -0.10792284591765539 0.090611910298743409 -0.095661229585763535 -0.039261955007059812 -0.081761911939424545 0.095084240187325905 0.039898757697717557 0.026125197311590131 0.032806452224766421 0.068354248335201137 -0.12462687568206043
leaf_weight=6.040848299715444 0.38018642255337809 5.8321788921020916 1.520433494239114 36.661135219590506 0.39434076694305975 0.25791073590517033 1.4531354332575563 1.1415543801849697 3.0308441035449505 0.74547524284571398 3.3185938200913361 5.2467094952007747 0.70342308841645662 1.9761070895474402 2.7333510034368373
leaf_count=337 34 62 26 1531 28 2 136 80 103 7 42 140 46 55 180
internal_value=0 0.00671213 0.0794121 0.00361394 0.0371441 -0.00182687 -0.0675838 -0.012516 -0.0450895 0.0138118 -0.00451395 -0.0133393 -0.0314172 -0.00527281 -0.0924041
internal_weight=0 46.4993 1.90062 44.5987 6.22652 38.3722 1.71105 24.9369 4.91787 1.88703 20.019 16.7004 11.4537 8.01696 3.43677
internal_count=2809 1819 60 1759 90 1669 138 990 190 87 800 758 618 392 226
is_linear=0
shrinkage=0.1


Tree=42
num_leaves=16
num_cat=0
split_feature=2 1 4 7 7 11 7 9 13 9 6 6 13 4 2
split_gain=0.413775 0.393725 0.38178 0.334252 0.416174 1.09947 0.666722 0.36627 1.19939 0.645539 0.973413 0.778683 0.766326 0.70987 0.737358
threshold=212965.50000000003 0.16826246440653983 1.0571845466701182 158.48966195264953 42.862885179246959 0.54050000000000009 33.142541474947627 0.85500000000000009 0.15000000000000005 0.78500000000000014 0.90013507823645278 0.90013507823645278 0.35000000000000003 33.486712699992772 4579.0000000000009
decision_type=2 2 2 2 2 2 2 2 2 2 2 2 2 2 2
left_child=1 3 -3 4 6 -6 7 9 -9 11 12 13 -11 14 -1
right_child=-2 2 -4 -5 5 -7 -8 8 -10 10 -12 -13 -14 -15 -16
leaf_value=-0.10021559007129884 -0.084052311879774591 -0.019338958866439476 0.093037008940210761 -0.093903979827362677 -0.10613129702429036 0.083396939354902 -0.1327371462270418 0.093979163196517237 -0.10990442653215249 0.037080804290113893 0.14500268492718968 -0.075643159185253536 -0.11099411262012503 -0.057995254300416611 0.0033350643746502869
leaf_weight=0.69609856914030288 0.58085322426631947 0.46081171371042617 0.87898693233728409 0.37979096814524282 0.38146726414561172 1.5487793093780053 0.38290784228593011 0.40594250813592114 0.99759099853690714 2.3914012019522488 0.73128495085984457 1.3919646488502611 0.40932557231280942 2.0367344737751401 56.715526598738506
leaf_count=54 52 7 7 33 33 33 22 10 74 90 2 50 40 82 2220
internal_value=0 0.000699371 0.0543863 -0.000351175 0.000170649 0.0459412 -0.00116475 -0.000398815 -0.0509354 0.000703052 0.042265 -0.00170978 0.0154397 2.13474e-05 0.00207954
internal_weight=0 69.8086 1.3398 68.4688 68.089 1.93025 66.1588 65.7759 1.40353 64.3723 3.53201 60.8403 2.80073 59.4484 57.4116
internal_count=2809 2757 14 2743 2710 66 2644 2622 84 2538 132 2406 130 2356 2274
is_linear=0
shrinkage=0.1


Tree=43
num_leaves=16
num_cat=0
split_feature=0 4 7 2 5 9 0 12 3 12 4 12 2 1 2
split_gain=0.437679 0.411948 0.359037 1.15772 1.12691 1.09954 1.30863 1.0679 1.49654 0.923119 0.826187 0.723976 0.700208 0.793187 0.837756
threshold=0.077600472666412068 1.1141154649762803 2.597959406509927 24778.500000000004 0.17738567550977588 0.40500000000000008 0.00061075346937120012 0.65580000000000005 210139.00000000003 0.52435000000000009 0.027598731221636055 0.65405000000000013 8723.5000000000018 0.013968350959706352 6380.0000000000009
decision_type=2 2 2 2 2 2 2 2 2 2 2 2 2 2 2
left_child=2 -2 4 7 -1 -6 9 11 -9 -7 -11 -4 13 -8 -15
right_child=1 -3 3 -5 5 6 12 8 -10 10 -12 -13 -14 14 -16
leaf_value=0.0011444920180160205 -0.0020762037996203465 0.11177311603746461 0.02152185472935169 -0.095025977633331177 0.0876712142008991 0.067032128593812607 -0.1138886677355409 -0.11556074851832726 0.06628950018727485 0.029465090171957982 -0.11208217688584257 0.10256965743148627 -0.11710870752446317 -0.089094837811337424 0.09176411776957305
leaf_weight=44.355606287426781 0.60184725001454242 0.6734529435634613 11.931880689051464 0.95089883857872415 0.6259353900095429 1.2448754680808636 0.77344047997030418 1.2562746241455904 0.70734787173569191 0.76447947416454531 0.89526198469684459 1.2143193846568472 2.6497902948176488 0.4279543219017794 0.63784550249692984
leaf_count=1591 8 6 259 197 14 28 126 53 7 14 99 9 312 54 32
internal_value=0 0.0580447 -0.00108166 0.0119983 -0.00509261 -0.0395895 -0.0503632 0.0187337 -0.0500536 0.00193802 -0.0468853 0.0290083 -0.0842046 -0.0367996 0.0191432
internal_weight=0 1.2753 68.4359 16.0607 52.3752 8.01958 7.39365 15.1098 1.96362 2.90462 1.65974 13.1462 4.48903 1.83924 1.0658
internal_count=2809 14 2795 525 2270 679 665 328 60 141 113 268 524 212 86
is_linear=0
shrinkage=0.1


Tree=44
num_leaves=16
num_cat=0
split_feature=0 4 0 7 3 0 11 6 1 6 8 0 0 2 11
split_gain=0.389866 0.441826 0.347445 0.351665 0.882112 0.860851 0.849734 0.55873 0.46104 0.589458 0.427329 1.02633 1.15064 0.664195 0.912821
threshold=0.077600472666412068 1.0571845466701182 0.00011159435218345002 0.078973468706162467 20595.500000000004 0.048357546577423208 0.34655000000000008 0.05405981031122141 0.014871604347397852 0.90013507823645278 0.70715000000000006 0.029395734849930504 0.028717650951791605 184261.00000000003 0.46690000000000004
decision_type=2 2 2 2 2 2 2 2 2 2 2 2 2 2 2
left_child=2 -2 -1 4 -4 6 -6 -8 9 -9 -5 12 13 -12 -15
right_child=1 -3 3 10 5 -7 7 8 -10 -11 11 -13 -14 14 -16
leaf_value=-0.10337960037146308 -0.021246907136208072 0.10404564072385723 -0.11113310215417549 0.024866755604304621 -0.080609018190583831 -0.11918991701588069 0.20858459430313012 -0.11999898295832889 0.024025375727679401 0.29207225722309554 0.0035831593161035702 -0.09832201562547728 0.11927225306260383 -0.086721796187472847 -0.0062103603435008873
leaf_weight=0.32989797554910083 0.45304379612207302 0.7430853545665741 0.94526895767194119 7.2366808129008851 0.99894739751471195 0.62976033776067186 0.15288464445620764 0.39627662830753241 4.4630725913448259 0.038047265261411667 43.446908011712367 1.0629424916114647 0.80896641965955396 2.0044511760352171 4.7342505173292011
leaf_count=12 7 7 223 128 115 25 4 61 152 1 1593 79 6 146 250
internal_value=0 0.0565901 -0.00100655 -0.000501868 -0.0207181 -0.00792173 0.00366195 0.0203308 0.014454 -0.0839011 0.0020976 -0.00106761 0.000959581 -0.000947559 -0.0301588
internal_weight=0 1.19613 67.2484 66.9185 7.62426 6.67899 6.04923 5.05028 4.8974 0.434324 59.2942 52.0575 50.9946 50.1856 6.7387
internal_count=2809 14 2795 2783 581 358 333 218 214 62 2202 2074 1995 1989 396
is_linear=0
shrinkage=0.1


Tree=45
num_leaves=16
num_cat=0
split_feature=1 4 0 0 9 2 9 7 7 6 7 5 4 12 3
split_gain=0.338331 0.575111 0.501601 0.423164 0.382823 0.315099 0.317263 0.847919 1.38816 1.18942 1.17727 0.82423 0.812598 0.776628 0.862301
threshold=0.10888959064369017 1.0571845466701182 0.048357546577423208 0.077600472666412068 0.6150000000000001 212965.50000000003 0.57500000000000007 3.5606489389449769 5.4204498121739126 0.070716342126032811 8.6235797540524022 0.15400711659458274 0.11952443533425382 0.47525000000000006 201973.00000000003
decision_type=2 2 2 2 2 2 2 2 2 2 2 2 2 2 2
left_child=2 4 5 -4 -2 6 -1 9 -9 -8 -10 13 -12 -11 -15
right_child=1 -3 3 -5 -6 -7 7 8 10 11 12 -13 -14 14 -16
leaf_value=0.0085638886729290497 -0.091246866859182041 0.077301021092677419 -0.12676952877432449 0.04030717077010653 0.036874389323757528 -0.077547498814097893 -0.11920974860224068 0.088012799913265494 -0.12654987889337607 -0.051752804285435154 0.020235253540415193 -0.045145280293293379 -0.10587640477189304 0.010934941287176975 -0.095940846292098897
leaf_weight=26.686706728069112 0.44208710081875269 1.4212297834455965 0.56119688064791162 0.20769572257995605 0.49360720440745354 0.52493900712579389 1.0544902442488844 2.2531142410007297 0.68118146318010797 2.6709968290524619 6.8504470309708267 5.5086238039948503 0.55211327405413602 16.77320861857152 0.79049659962765773
leaf_count=834 10 14 44 2 6 52 86 55 51 143 113 592 129 602 76
internal_value=0 0.0372201 -0.00134723 -0.0816382 -0.023659 -0.000387805 0.000246843 -0.00573017 0.0185999 -0.0151151 -0.000747014 -0.0108512 0.0108293 -0.00151514 0.00612474
internal_weight=0 2.35692 65.1152 0.768893 0.935694 64.3463 63.8214 37.1347 10.3369 26.7978 8.08374 25.7433 7.40256 20.2347 17.5637
internal_count=2809 30 2779 46 16 2733 2681 1847 348 1499 293 1413 242 821 678
is_linear=0
shrinkage=0.1


Tree=46
num_leaves=16
num_cat=0
split_feature=8 2 7 2 4 9 4 12 12 2 13 4 2 0 13
split_gain=0.30318 0.412483 0.350505 0.318737 0.849966 0.952376 0.697241 0.668313 0.783889 0.573142 1.1843 0.965599 0.766096 1.29406 0.815511
threshold=0.23335000000000003 105794.50000000001 5.8406819099679401 184261.00000000003 1.262744091973093 0.57500000000000007 1.2870213623461635 0.5375000000000002 0.53915000000000013 181506.50000000003 0.15000000000000005 8.4470279307563541 175411.00000000003 0.0064317283766226509 0.45000000000000007
decision_type=2 2 2 2 2 2 2 2 2 2 2 2 2 2 2
left_child=1 2 -1 9 -5 6 -6 -7 -9 12 -11 -12 -2 -14 -15
right_child=3 -3 -4 4 5 7 -8 8 -10 10 11 -13 13 14 -16
leaf_value=-0.11058366123867913 0.002005550534757036 0.073126006959202641 0.051070717647473979 -0.099853540407008709 0.24664598585764363 -0.11890638839577168 0.015116739719270734 0.13790248854409448 -0.039999016440079235 -0.047146889662411783 -0.082658528480286403 0.093386133430935214 -0.12735074882205757 -0.049126307080519911 0.087983190469681796
leaf_weight=0.27609945833682914 48.074699951335788 1.2201744914054868 0.26084593683481216 1.1208570030285034 0.13375934958457758 0.94477496173931319 4.7133376556448638 0.27869018912315402 2.2261135734152049 1.170083024422637 0.35475182696245644 2.5594180305488408 1.2598843118175858 1.1100395091343669 0.71209240518510331
leaf_count=9 2062 11 2 152 1 64 139 1 160 59 22 23 50 49 5
internal_value=0 0.0409852 -0.0320526 -0.00111379 -0.0181183 -0.00707615 0.021506 -0.0472377 -0.0202053 0.00178516 0.0378344 0.0719556 -0.00109293 -0.0494245 0.00445633
internal_weight=0 1.75712 0.536945 64.6585 9.41753 8.29668 4.8471 3.44958 2.5048 55.241 4.08425 2.91417 51.1567 3.08202 1.82213
internal_count=2809 22 11 2787 517 365 140 225 161 2270 104 45 2166 104 54
is_linear=0
shrinkage=0.1


Tree=47
num_leaves=16
num_cat=0
split_feature=0 7 3 9 0 13 13 11 2 5 0 6 0 4 4
split_gain=0.287346 0.561551 0.484335 0.562003 0.453894 0.70327 0.645897 0.60269 0.559837 0.497546 0.46018 0.701277 0.625159 0.640044 1.68048
threshold=0.00054416247864505008 0.42655923793101963 201973.00000000003 0.72500000000000009 0.00064657771723520012 0.45000000000000007 0.15000000000000005 0.54050000000000009 159538.50000000003 0.17738567550977588 0.0009439649955646001 0.058498410393010909 0.00097326744145295014 0.03541685938527301 0.03700738373637661
decision_type=2 2 2 2 2 2 2 2 2 2 2 2 2 2 2
left_child=1 -1 -3 -4 5 6 -2 -8 9 -9 11 -6 -12 -14 -15
right_child=4 2 3 -5 10 -7 7 8 -10 -11 12 -13 13 14 -16
leaf_value=0.012414456716149085 0.087021354670573592 -0.10057648981019802 0.024299671568065676 -0.14185556602374888 0.088313631648304997 0.1005593227868594 -0.14533979879112013 0.091904304024408218 -0.11299467398512819 -0.054107389954359403 0.068417106325107321 -0.053426127909460421 -0.03735552947651747 0.11554344333429432 0.00032237961266750898
leaf_weight=2.2309124510211396 0.68775297142565239 1.2477211487130264 0.94165875576436497 0.25971360644325614 0.39649094373453353 1.1571981454035265 0.34738950163591642 0.64456071704626061 0.31857667688745994 0.36583507992327213 1.3774539337027807 2.9182608020782936 4.1837482010014346 1.3006335571408261 47.285235872928752
leaf_count=95 12 108 15 10 4 14 20 3 8 15 24 162 96 10 2213
internal_value=0 -0.0238794 -0.0569399 -0.0116199 0.00183257 0.0366831 0.00541671 -0.0280628 0.00259302 0.0390377 -0.000303107 -0.0364721 0.00191107 0.00017505 0.00340682
internal_weight=0 4.68001 2.44909 1.20137 60.9831 3.52131 2.36411 1.67636 1.32897 1.0104 57.4618 3.31475 54.1471 52.7696 48.5859
internal_count=2809 228 133 25 2581 72 58 46 26 18 2509 166 2343 2319 2223
is_linear=0
shrinkage=0.1


Tree=48
num_leaves=16
num_cat=0
split_feature=7 7 2 7 2 4 3 7 4 6 9 4 4 9 0
split_gain=0.296452 0.333722 0.797039 0.507618 0.312976 2.11267 0.790906 0.903047 0.719831 0.701909 1.03393 0.87641 0.70366 0.671829 0.757724
threshold=158.48966195264953 42.862885179246959 20595.500000000004 33.142541474947627 17311.500000000004 0.072620377858162069 210139.00000000003 21.925461535492769 0.10016071057064967 0.077848848747769164 0.57500000000000007 1.262744091973093 0.30708951813127494 0.49500000000000005 0.060976283856276056
decision_type=2 2 2 2 2 2 2 2 2 2 2 2 2 2 2
left_child=1 3 -3 4 5 -1 7 8 -6 10 11 12 -10 -11 -15
right_child=-2 2 -4 -5 6 -7 -8 -9 9 13 -12 -13 -14 14 -16
leaf_value=0.0026613145496656759 -0.093163349419243549 0.079250908614950807 -0.090991861457956763 -0.1278554900858633 0.079114444301822962 -0.097704115710703351 -0.10357983614687741 0.11248450865236242 0.0057489841515886951 0.03499667077618103 -0.12123828329981522 0.076586575370407722 -0.094346839182031794 -0.0019403438508573266 0.11360686685594029
leaf_weight=14.879335107747467 0.33977074106223781 1.3421612437814463 0.34587502188514907 0.31233322818297793 1.2409523855894793 2.4414499794074791 0.6693061850965013 0.78154440084472199 1.6663208813406525 6.7658300480106837 1.0607820055447517 0.90054497309029091 1.2139742332510648 30.417098878097026 0.57832517847418685
leaf_count=331 33 10 56 22 10 526 66 22 34 143 134 15 115 1285 7
internal_value=0 0.000489883 0.0443685 -0.00068716 -5.28297e-05 -0.0114857 0.00431912 0.00593742 0.00403815 0.0018513 -0.0339954 -0.00951781 -0.036439 0.00644744 0.000215583
internal_weight=0 64.6158 1.68804 62.9278 62.6155 17.3208 45.2947 44.6254 43.8438 42.6029 4.84162 3.78084 2.8803 37.7613 30.9954
internal_count=2809 2776 66 2710 2688 857 1831 1765 1743 1733 298 164 149 1435 1292
is_linear=0
shrinkage=0.1


Tree=49
num_leaves=16
num_cat=0
split_feature=0 4 3 8 0 9 4 0 1 7 1 2 2 5 7
split_gain=0.35358 0.287275 1.83576 0.710597 0.677986 0.644353 0.743854 0.713698 0.795014 0.690232 0.685547 0.575038 0.923363 0.743948 0.66359
threshold=0.077600472666412068 3.9938951092946877 44732.500000000007 0.70715000000000006 0.048357546577423208 0.71500000000000008 33.486712699992772 0.0011509863016496002 0.012647389703514552 0.12490076211330411 0.038993600656389009 170053.50000000003 184261.00000000003 0.070716342126032811 0.44449271668099061
decision_type=2 2 2 2 2 2 2 2 2 2 2 2 2 2 2
left_child=1 2 -1 -3 -4 6 7 -5 -9 -10 -7 13 -13 -11 -14
right_child=-2 3 4 5 -6 10 -8 8 9 11 -12 12 14 -15 -16
leaf_value=-0.095344169754379621 0.060435364653701452 0.051854872783431372 0.001489415968174771 0.049055705093189024 -0.077655673795648944 -0.057502303026714399 -0.059533198559277571 -0.07265793991270772 -0.066423267232522329 0.059654324624666577 0.085957636338696033 0.061815156243302118 0.01285718461402361 -0.048857439418934272 -0.11823609128656253
leaf_weight=2.1826519923197329 0.95358916558325191 3.1595402471721199 35.379916669800878 4.3837464158423343 1.1165195595240209 2.8041561631252985 1.4781106689479191 1.2779197327326972 1.0436964368564066 0.89673761371522998 0.37800326704746101 4.4390898866113275 1.629306976683438 2.1386142461560667 0.5060704982606693
leaf_count=589 14 45 1410 96 50 163 73 48 60 19 10 63 35 95 39
internal_value=0 -0.000917477 -0.0062595 0.00764373 -0.000931835 0.000984189 0.00839625 0.0145505 0.00187286 0.010813 -0.0404609 0.0192015 0.0358228 -0.0167997 -0.0182111
internal_weight=0 62.8141 38.6791 24.135 36.4964 20.9755 17.7933 16.3152 11.9314 10.6535 3.18216 9.60982 6.57447 3.03535 2.13538
internal_count=2809 2795 2049 746 1460 701 528 455 359 311 173 251 137 114 74
is_linear=0
shrinkage=0.1


Tree=50
num_leaves=16
num_cat=0
split_feature=8 4 12 11 9 9 10 7 7 13 12 0 4 10 4
split_gain=0.329456 0.461502 0.670035 0.492931 0.414224 0.865043 0.329084 0.570472 0.65808 0.967687 0.815689 0.777756 0.714664 0.565127 1.10841
threshold=0.51665000000000016 4.7472598131455603 0.38325000000000004 0.54050000000000009 0.40500000000000008 0.53500000000000014 0.75000000000000011 0.28654820507263684 0.46553838239810064 0.80000000000000016 0.64080000000000015 0.00086440831061735009 0.022197470248790502 0.65000000000000002 19.546017895523779
decision_type=2 2 2 2 2 2 2 2 2 2 2 2 2 2 2
left_child=1 2 -1 -3 -4 -6 13 -8 10 12 -9 -11 -10 -2 -15
right_child=6 3 4 -5 5 -7 7 8 9 11 -12 -13 -14 14 -16
leaf_value=-0.14530880402472129 -0.0043677363970366706 0.099320141230021919 0.059984425480815319 0.013100552508573633 -0.092711995958382309 0.024320683277874375 -0.081956335915132017 -0.11745647820625482 0.020265621747692902 -0.17055348957356423 0.067984695057815972 0.049501947463438029 -0.08098506927555843 0.035588256114247201 -0.098537803012324857
leaf_weight=0.29356052319053461 38.096112777522649 1.2372108399868014 1.2282589534297583 1.4289463390596209 0.87826130329631302 2.2485276774968952 1.2812454026716276 0.27755867579253379 0.92128819320350919 0.17630544817075122 1.6312344540201591 1.8044151738286016 2.8649804424494505 7.5152350543648918 0.67115543800173316
leaf_count=17 1720 10 14 21 30 47 227 45 13 5 37 37 229 311 46
internal_value=0 0.0199432 0.000920673 0.0531101 0.0107776 -0.00855179 -0.00264086 -0.0201859 -0.00987517 -0.0267206 0.0410196 0.0299146 -0.0563484 0.00075463 0.024592
internal_weight=0 7.31477 4.64861 2.66616 4.35505 3.12679 55.2395 8.95703 7.67578 5.76699 1.90879 1.98072 3.78627 46.2825 8.18639
internal_count=2809 139 108 31 91 77 2670 593 366 284 82 42 242 2077 357
is_linear=0
shrinkage=0.1


Tree=51
num_leaves=16
num_cat=0
split_feature=1 0 0 9 11 6 9 0 6 13 9 12 11 3 0
split_gain=0.814609 2.25273 0.686422 0.524149 1.58307 1.58752 1.13811 1.09449 0.593619 0.743423 0.614348 0.510803 0.457434 0.437158 0.40877
threshold=0.0091071664236691014 0.00069041976417160008 0.00061075346937120012 0.74500000000000011 0.23645000000000002 0.12141638936285361 0.7350000000000001 0.0043867015048046007 0.90013507823645278 0.15000000000000005 0.75500000000000012 0.56230000000000013 0.73735000000000006 188529.50000000003 0.0012833447029895002
decision_type=2 2 2 2 2 2 2 2 2 2 2 2 2 2 2
left_child=1 2 -1 6 5 14 -2 8 9 -6 -11 -4 -12 -14 -5
right_child=3 -3 11 4 7 -7 -8 -9 -10 10 12 -13 13 -15 -16
leaf_value=-0.025340670197355326 0.0019803126119121522 -0.15906072004419636 -0.032940843811239462 0.11243019816601202 0.082770645256539294 0.15936781956658419 -0.11271063122047154 -0.10382133547775561 0.11983878540416089 0.077298645854130613 -0.10995132300073765 0.11778592113093318 0.0070005024787478361 -0.15069083430684616 -0.11487471491940369
leaf_weight=3.3384745785879195 48.988070919149322 1.1818181549897415 0.33448293217224978 0.10443881154060264 0.97041859396267716 1.4224865772703195 0.88077397429151361 0.83873291040072206 0.53253934159874905 0.5419584080227654 0.67935766000300679 0.68590633530402556 1.434601450251648 0.20035355910658825 0.32628916238900274
leaf_count=222 2101 84 19 1 24 25 60 75 2 18 67 10 66 5 30
internal_value=0 -0.0366034 -0.00340163 0.00356303 0.0290829 0.108438 -4.53368e-05 0.000790797 0.0209186 0.00715241 -0.0185389 0.0683778 -0.0409818 -0.0123236 -0.05976
internal_weight=0 5.54068 4.35886 56.92 7.05118 1.85321 49.8688 5.19796 4.35923 3.82669 2.85627 1.02039 2.31431 1.63496 0.430728
internal_count=2809 335 251 2474 313 56 2161 257 182 180 156 29 138 71 31
is_linear=0
shrinkage=0.1


Tree=52
num_leaves=16
num_cat=0
split_feature=8 6 3 9 3 3 7 9 9 1 4 7 10 2 12
split_gain=0.279061 0.470458 0.508277 0.307508 0.697425 0.743704 0.561802 0.393044 0.645937 1.15577 0.84073 0.756262 0.649603 0.582231 0.616198
threshold=0.51665000000000016 0.11144249945997386 184261.00000000003 0.47500000000000003 100579.00000000001 184261.00000000003 0.6677937131683801 0.53500000000000014 0.54500000000000015 0.013968350959706352 0.18468202478315318 18.548836746286405 0.65000000000000002 201973.00000000003 0.61140000000000005
decision_type=2 2 2 2 2 2 2 2 2 2 2 2 2 2 2
left_child=1 2 -1 4 -2 -6 -7 13 9 11 -11 -9 -12 14 -5
right_child=3 -3 -4 7 5 6 -8 8 -10 10 12 -13 -14 -15 -16
leaf_value=-0.08664529688764655 0.048418147618264566 0.035335067071972419 0.018673253065053193 -0.085429897752252681 -0.070360368679219062 -0.086705909267446271 0.064215942695637046 -0.13838733486502652 -0.006188088324650425 0.093565154313501667 -0.095267911052850263 0.090007987403256662 0.073411647485684822 0.051383340381670722 -0.00060255212062483522
leaf_weight=0.75888346694409747 3.4729871819145037 4.9370825447840616 1.1566741270944474 2.0803416594862933 1.3993250597268345 0.31442319462075818 1.1442695546429602 0.5394699335447507 39.694982785134926 2.333251539152116 0.50640089029911894 0.19825576315633953 0.41574724204838276 0.66647553909569968 1.4554693869431501
leaf_count=21 83 96 22 143 68 28 17 32 2153 14 39 2 17 25 49
internal_value=0 0.0190142 -0.0230506 -0.00240306 0.0183093 -0.0182781 0.0316845 -0.0051412 -0.00233151 0.0360061 0.061617 -0.0770086 -0.0192193 -0.0343514 -0.0505119
internal_weight=0 6.85264 1.91556 54.2214 6.331 2.85802 1.45869 47.8904 43.6881 3.99313 3.2554 0.737726 0.922148 4.20229 3.53581
internal_count=2809 139 43 2670 196 113 45 2474 2257 104 70 34 56 217 192
is_linear=0
shrinkage=0.1


Tree=53
num_leaves=16
num_cat=0
split_feature=4 4 2 4 0 3 7 9 2 5 12 4 2 3 4
split_gain=0.278844 1.54034 1.19336 1.1034 0.72096 0.695965 0.686361 1.158 1.12019 0.79879 1.26422 0.768944 0.646688 0.667439 0.6173
threshold=0.03541685938527301 0.03700738373637661 6380.0000000000009 0.027598731221636055 0.0063415514468793512 210139.00000000003 4.6243463418164934 0.7350000000000001 17311.500000000004 0.23973175810125749 0.53585000000000005 0.20906174738733663 5442.0000000000009 115293.00000000001 0.10016071057064967
decision_type=2 2 2 2 2 2 2 2 2 2 2 2 2 2 2
left_child=3 -2 12 -1 -5 6 8 11 9 -4 -11 -8 13 -3 -10
right_child=1 2 5 4 -6 -7 7 -9 14 10 -12 -13 -14 -15 -16
leaf_value=0.019091243623504939 0.10526830579927278 -0.1123230763171878 -0.10532684265833686 -0.079505281494648264 0.042956904512794034 -0.072836092582280104 0.057289156624631771 -0.10812775666459212 0.076802431785907524 0.12512595947996957 -0.092371415656980441 -0.073496166531008697 -0.12833517107417772 0.071187802136867359 0.0019491577670507781
leaf_weight=3.7596824229694894 1.4197343382984389 0.35583042200596438 1.6676220645167625 2.8892406835220759 0.57669171504676331 1.1919887099647883 5.5901596036273977 0.52424572175368656 1.134602729231118 0.48404122475767486 0.59669597563333809 0.48886159050744016 1.0913009311625499 0.44737378181889653 38.024398443318205
leaf_count=72 12 152 213 85 11 84 81 58 10 28 85 134 145 7 1632
internal_value=0 0.00251165 -0.000315774 -0.0184289 -0.059129 0.00265337 0.00450828 0.0344739 -0.000213354 -0.0619267 0.00504144 0.0467717 -0.0782118 -0.01011 0.00411798
internal_weight=0 53.0169 51.5971 7.22561 3.46593 49.7026 48.5106 6.60327 41.9074 2.74836 1.08074 6.07902 1.89451 0.803204 39.159
internal_count=2809 2641 2629 168 96 2325 2241 273 1968 326 113 215 304 159 1642
is_linear=0
shrinkage=0.1


Tree=54
num_leaves=16
num_cat=0
split_feature=0 0 1 1 1 0 2 9 4 4 4 2 1 12 7
split_gain=0.386972 0.226656 0.371589 0.365052 0.661768 0.291576 0.267316 0.91345 0.507263 0.403914 1.48641 1.03847 0.65848 0.503641 0.44933
threshold=0.00011159435218345002 0.00014589658738720004 0.0076155574197033513 0.0079519629488290517 0.0084722185838157511 0.00026244118138415003 5201.0000000000009 0.79500000000000015 0.027598731221636055 0.03541685938527301 0.03700738373637661 6380.0000000000009 0.012919009728301551 0.69045000000000012 5.1438982693541364
decision_type=2 2 2 2 2 2 2 2 2 2 2 2 2 2 2
left_child=-1 -2 -3 -4 -5 -6 7 -7 -8 12 -11 13 -10 -12 -13
right_child=1 2 3 4 5 6 8 -9 9 10 11 14 -14 -15 -16
