tree
version=v4
num_class=1
num_tree_per_iteration=1
label_index=0
max_feature_idx=8
objective=lambdarank
feature_names=Transfer_lang_dataset_size Target_lang_dataset_size Transfer_over_target_size_ratio GENETIC SYNTACTIC FEATURAL PHONOLOGICAL INVENTORY GEOGRAPHIC
feature_infos=[81:10000] [81:10000] [0.0080999999999999996:123.45679012345678] [0.090899999999999995:1] [0.31900000000000001:1] [0.37540000000000001:0.97670000000000001] [0.00020000000000000001:1] [0:0.71299999999999997] [0.013599999999999999:1]
tree_sizes=1786 1760 1777 1783 1785 1792 1790 1797 1795 1806 1802 1801 1808 1802 1806 1806 1814 1815 1823 1826 1823 1819 1820 1835 1825 1837 1836 1841 1846 1853 1849 1846 1846 1853 1851 1846 1859 1852 1850 1859 1845 1851 1840 1856 1837 1850 1851 1839 1852 1840 1866 1869 1848 1863 1859 1875 1868 1869 1868 1873 1856 1865 1875 1873 1864 1876 1881 1886 1874 1879 1882 1885 1880 1881 1879 1889 1884 1882 1888 1884 1882 1891 1876 1892 1895 1889 1891 1888 1880 1890 1890 1890 1898 1895 1892 1891 1903 1898 1902 1888

Tree=0
num_leaves=16
num_cat=0
split_feature=8 7 3 5 8 8 6 4 4 8 5 8 8 8 7
split_gain=23.191 3.19639 2.55292 0.637684 0.872638 0.56223 1.09263 0.415688 0.75444 0.364225 0.268595 0.237242 0.525244 0.211654 0.148343
threshold=0.090850000000000014 0.33110000000000001 0.59820000000000018 0.56850000000000012 0.23750000000000002 0.53200000000000014 0.68165000000000009 0.61365000000000014 0.71895000000000009 0.20154999999999998 0.50430000000000008 0.15600000000000003 0.15135000000000001 0.10475000000000001 0.4139000000000001
decision_type=2 2 2 2 2 2 2 2 2 2 2 2 2 2 2
left_child=7 -2 -3 4 9 11 -7 -1 10 14 -9 12 13 -5 -4
right_child=1 2 3 5 -6 6 -8 8 -10 -11 -12 -13 -14 -15 -16
leaf_value=0.18704738360320461 0.099228889703653678 0.19354586166615873 -0.032962548646095123 0.011353610323284746 -0.1960803483850404 -0.15559033653326229 0.04001182664384758 0.040354899744931366 0.15698642354391323 0.014631991919460142 -0.1991989212883622 -0.18503278255646058 0.091525764752383734 -0.18554941946322356 -0.18848226754949848
leaf_weight=3.8205691101029515 0.67653214000165451 0.23781405296176661 0.10279089491814353 0.062895223498344754 0.43173755425959826 1.0351685807108877 0.39437859738245595 0.10662430897355069 0.7947015673853457 0.67223144019953907 0.083426677621901035 3.3578524754848331 0.10098080895841122 0.41347417002543807 0.15206974977627397
leaf_count=22 11 2 4 3 33 46 10 3 9 7 7 218 3 33 13
internal_value=0 -0.108285 -0.128451 -0.13984 -0.0786485 -0.15534 -0.101628 0.172115 0.114183 -0.0239616 -0.064802 -0.174852 -0.115638 -0.159552 -0.125758
internal_weight=0 7.63793 6.96139 6.72358 1.35883 5.36475 1.42955 4.80532 0.984753 0.927092 0.190051 3.9352 0.57735 0.476369 0.254861
internal_count=424 383 372 370 57 313 56 41 19 24 10 257 39 36 17
is_linear=0
shrinkage=0.1


Tree=1
num_leaves=16
num_cat=0
split_feature=3 7 8 4 8 5 5 2 7 5 2 1 6 4 2
split_gain=20.923 8.74535 4.50309 5.29038 4.17046 3.60878 3.37197 2.43108 2.2223 2.00048 1.69453 2.17269 0.781813 0.661416 0.639949
threshold=0.77500000000000013 0.35810000000000003 0.045550000000000007 0.52905000000000013 0.53200000000000014 0.41840000000000005 0.41840000000000005 16.271604938271608 0.51970000000000016 0.64750000000000008 12.63702281936447 301.00000000000006 0.60020000000000007 0.69335000000000013 1.1986988623466479
decision_type=2 2 2 2 2 2 2 2 2 2 2 2 2 2 2
left_child=2 5 -1 -4 7 -2 -5 -3 -9 -10 11 -6 -13 -7 -8
right_child=1 4 3 6 10 13 14 8 9 -11 -12 12 -14 -15 -16
leaf_value=0.17080377034495997 0.17064170870956913 -0.16476372715126097 0.13787316846214995 0.11197828344068797 0.19404560362025 0.030730524084819185 -0.16960909684514858 -0.15393139018236082 0.064984062368009882 -0.17417832265068953 -0.18178095359474766 -0.16456662375234066 0.0047426515206906751 -0.066090562284355392 -0.059035937067217062
leaf_weight=5.5180346071720141 1.6997789405286337 7.5820726184174401 3.1066021323204041 0.91720062494277987 0.60405296087265004 1.5429440736770632 1.1174221597611906 1.5172193720936777 1.4655275847762821 0.45936986990272988 0.45478583499789227 0.3215202195569874 1.7974819000810385 1.3000537008047102 0.98462663404643525
leaf_count=6 3 263 3 1 1 4 9 34 14 12 13 20 24 13 4
internal_value=0 -0.0653979 0.10528 0.0462581 -0.104029 0.055373 -0.0480076 -0.133123 -0.0634273 0.00790882 -0.00309778 0.0267446 -0.020947 -0.0135441 -0.117815
internal_weight=0 18.7448 11.6439 6.12585 14.202 4.54278 3.01925 11.0242 3.44212 1.9249 3.17784 2.72306 2.119 2.843 2.10205
internal_count=424 401 23 17 381 20 14 323 60 26 58 45 44 17 13
is_linear=0
shrinkage=0.1


Tree=2
num_leaves=16
num_cat=0
split_feature=7 8 0 2 4 5 7 8 8 3 4 7 8 6 5
split_gain=22.4424 3.24018 2.14754 2.07746 2.27484 2.26328 2.39499 1.53082 1.37289 0.742611 2.2278 0.571111 0.508075 0.442428 0.296268
threshold=0.39835000000000004 0.078250000000000014 7564.5000000000009 2.9835285156621922 0.72120000000000017 0.6120000000000001 0.63060000000000016 0.53200000000000014 0.56150000000000011 0.96875000000000011 0.6785500000000001 0.59195000000000009 0.064400000000000013 0.57140000000000013 0.78785000000000005
decision_type=2 2 2 2 2 2 2 2 2 2 2 2 2 2 2
left_child=1 12 -3 7 5 -5 9 -2 -9 -7 14 -10 -1 -12 -11
right_child=3 2 -4 4 -6 6 -8 8 11 10 13 -13 -14 -15 -16
leaf_value=0.14484616520774113 -0.13194672950322514 -0.18690630734637947 0.048177070764719533 -0.13101487303204187 -0.14126960736961158 0.16927754782239876 -0.17003874772531344 0.11403621046497532 -0.15811608099816793 -0.18275295652064866 0.035107546724997482 -0.049363745245110821 0.095349969041353164 0.13486515089741571 -0.032771972073952237
leaf_weight=6.6094865482300538 6.8298452878370863 0.49906146340072077 1.755569027736783 0.98167048953473468 1.4227561540901659 0.62768381834030229 0.47020057588815678 0.44979807920753989 0.62896813824772868 0.35513721499592099 0.69653454609215248 2.0790821518748999 3.0221535190939903 1.2290571769699452 0.20934785809367895
leaf_count=11 223 8 13 24 50 1 12 3 19 7 9 22 9 6 7
internal_value=0 0.104055 -0.00385853 -0.0773977 -0.0308488 0.00353081 0.0403427 -0.105326 -0.0477502 0.072071 0.0475678 -0.0746224 0.129316 0.0987803 -0.12713
internal_weight=0 11.8863 2.25463 15.9801 5.99239 4.56963 3.58796 9.98769 3.15785 3.11776 2.49008 2.70805 9.63164 1.92559 0.564485
internal_count=424 41 21 383 116 66 42 267 44 30 29 41 20 15 14
is_linear=0
shrinkage=0.1


Tree=3
num_leaves=16
num_cat=0
split_feature=8 3 8 4 8 7 0 6 0 6 7 6 8 6 4
split_gain=18.555 3.59449 2.31459 0.901005 0.899671 1.14359 1.04295 0.829848 0.659252 1.04274 0.625087 0.440458 0.324435 0.323374 0.318731
threshold=0.077450000000000005 0.59820000000000018 0.54110000000000003 0.69335000000000013 0.23235000000000003 0.54215000000000013 9621.5000000000018 0.52590000000000015 967.50000000000011 0.68165000000000009 0.46905000000000002 0.56100000000000005 0.20060000000000003 0.60020000000000007 0.63205000000000011
decision_type=2 2 2 2 2 2 2 2 2 2 2 2 2 2 2
left_child=7 -2 4 -4 5 6 14 -1 -5 -10 -8 12 -12 -9 -3
right_child=1 2 3 8 -6 -7 10 13 9 -11 11 -13 -14 -15 -16
leaf_value=0.053384872184155566 0.11113637871410574 -0.017511996037619239 -0.098125352654262643 0.09879378057986922 -0.13084834592394784 -0.13747209260290891 -0.075239642944375781 0.13992925017318694 -0.13840577571673765 0.015049130929308456 -0.12415983548589998 0.072233975243034612 0.033251145405911058 0.096869220585912061 -0.1482067623060711
leaf_weight=2.068984445184471 1.0853486638516212 0.23861378431320035 1.0746359433978785 0.63418031297624144 5.5032478775829077 1.8023999053984878 0.77097844332456622 4.9548182990401983 0.54508004337549243 2.3600143417716026 0.24468236416578282 1.0458701327443121 0.28165654465556145 2.6913781426846981 0.85599048994481564
leaf_count=10 5 5 29 4 190 60 20 8 17 14 8 9 5 11 29
internal_value=0 -0.0647393 -0.0771689 -0.0179288 -0.10261 -0.0729548 -0.039129 0.10957 0.00642137 -0.0137435 -0.00148307 0.0346856 -0.0399255 0.124773 -0.119716
internal_weight=0 16.4427 15.3574 4.61391 10.7434 5.24019 3.43779 9.71518 3.53927 2.90509 2.34319 1.57221 0.526339 7.6462 1.0946
internal_count=424 395 390 64 326 136 76 29 35 31 42 22 13 19 34
is_linear=0
shrinkage=0.1


Tree=4
num_leaves=16
num_cat=0
split_feature=8 4 8 2 7 3 7 8 8 2 1 6 8 5 7
split_gain=14.8743 2.46832 2.34836 0.9761 0.936421 0.887945 1.74496 0.921031 0.858041 0.616519 1.11547 0.765024 0.519292 0.364129 0.353724
threshold=0.077450000000000005 0.53350000000000009 0.53200000000000014 16.271604938271608 0.61615000000000009 0.77500000000000013 0.31645000000000006 0.035550000000000005 0.21215000000000003 16.271604938271608 301.00000000000006 0.60020000000000007 0.090850000000000014 0.62650000000000017 0.58525000000000016
decision_type=2 2 2 2 2 2 2 2 2 2 2 2 2 2 2
left_child=5 4 3 -3 -2 -1 -7 -8 12 10 -4 -12 -5 -14 -10
right_child=1 2 9 8 -6 6 7 -9 14 -11 11 -13 13 -15 -16
leaf_value=0.12122798047724991 -0.036612094137520972 -0.12151644939465683 0.14497681508184393 0.11143276955598747 0.13702958441002275 0.11824951298631643 0.033493378676893469 -0.14564395410228359 -0.14073038945591848 -0.13788180978021974 -0.13197932422901928 -0.0043885944411596722 0.0012494996818797795 -0.13585615985536437 0.00351266881810978
leaf_weight=6.3236434012651443 0.5020784381777037 6.7682580109685642 0.44560959935188194 0.3364093899726871 0.81424117088317871 1.7543176561594029 0.71454779990017392 0.47969192266464233 0.91750195622444131 0.37941757403314103 0.54456992633640799 3.4288001228123903 0.82753334566950776 0.25290593318641186 0.20867718011140823
leaf_count=12 11 260 1 1 2 4 5 8 31 12 21 31 13 8 4
internal_value=0 -0.0601658 -0.0723837 -0.10167 0.0707981 0.100097 0.0547778 -0.038461 -0.0488493 -0.0155534 -0.00505015 -0.0218755 0.00293765 -0.0308438 -0.114003
internal_weight=0 15.426 14.1097 9.31129 1.31632 9.2722 2.94856 1.19424 2.54303 4.7984 4.41898 3.97337 1.41685 1.08044 1.12618
internal_count=424 395 382 317 13 29 17 13 57 65 53 52 22 21 35
is_linear=0
shrinkage=0.1


Tree=5
num_leaves=16
num_cat=0
split_feature=5 4 8 6 2 8 2 2 5 8 3 5 1 8 5
split_gain=11.7044 1.95207 2.03559 1.67557 0.95162 0.650831 0.521068 0.66852 0.62311 0.493179 0.553331 0.620709 0.359252 0.346774 0.292779
threshold=0.53100000000000003 0.55110000000000015 0.53200000000000014 0.24835000000000002 16.271604938271608 0.21215000000000003 16.271604938271608 2.9835285156621922 0.57825000000000004 0.064400000000000013 0.59820000000000018 0.45255000000000006 8572.5000000000018 0.090850000000000014 0.62650000000000017
decision_type=2 2 2 2 2 2 2 2 2 2 2 2 2 2 2
left_child=3 -2 4 -1 -3 13 7 8 -4 -5 -11 -12 -10 -6 -15
right_child=1 2 6 9 5 -7 -8 -9 12 10 11 -13 -14 14 -16
leaf_value=-0.055072465308666531 0.083552683197537642 -0.11558632871529986 0.10974873967466017 0.11897465653741113 0.095546685002997553 -0.1042834943444539 -0.13140541137779158 0.046763243684715267 -0.12966707643798184 0.12604852896683669 0.079754645455619833 -0.049419499302193165 -0.031736065117211672 0.0040028737268577586 -0.12278500565487692
leaf_weight=0.73333169706166046 0.93419205956160922 6.2276143105700594 0.27284328266978208 5.6936953682452422 0.3148777782917026 0.94864366576075543 0.34914960898458947 1.6160739883780477 0.45617242529988322 0.94743088632821981 0.95007157325744696 0.61137571558356285 2.0946231745183468 0.82501115091145016 0.23372997716069221
leaf_count=14 8 256 2 11 1 31 12 7 16 2 3 13 27 13 8
internal_value=0 -0.0561903 -0.0659773 0.0897503 -0.0952137 -0.0405805 -0.0137796 -0.00452925 -0.0338859 0.102698 0.0657589 0.0291773 -0.0492496 0.00341391 -0.0239871
internal_weight=0 14.2729 13.3387 8.93591 8.54988 2.32226 4.78886 4.43971 2.82364 8.20257 2.50888 1.56145 2.5508 1.37362 1.05874
internal_count=424 381 373 43 309 53 64 52 45 29 18 16 43 22 21
is_linear=0
shrinkage=0.1


Tree=6
num_leaves=16
num_cat=0
split_feature=8 3 8 8 7 7 3 7 2 8 4 6 4 2 4
split_gain=9.46249 1.58929 1.33077 0.637328 0.731742 0.678914 0.548718 1.08785 0.411005 0.387458 0.377705 0.384749 0.333834 0.236157 0.322759
threshold=0.077450000000000005 0.59820000000000018 0.53200000000000014 0.23235000000000003 0.54215000000000013 0.51970000000000016 0.77500000000000013 0.31645000000000006 0.95572326478149117 0.22550000000000003 0.69335000000000013 0.60020000000000007 0.63205000000000011 16.271604938271608 0.71895000000000009
decision_type=2 2 2 2 2 2 2 2 2 2 2 2 2 2 2
left_child=6 -2 3 4 5 9 -1 -8 -9 12 11 -4 -3 14 -7
right_child=1 2 10 -5 -6 13 7 8 -10 -11 -12 -13 -14 -15 -16
leaf_value=0.1068739895202874 0.090597393541523033 0.0069792574248385758 -0.1263553034721559 -0.11019829349403198 -0.11624859731348006 0.056037542648615934 0.10701512096152233 0.055823542929517238 -0.066987405220372012 0.081766609925673417 -0.00082212376221856085 -0.012407715133937538 -0.10545538078780195 0.06431345740965759 -0.12813247003181191
leaf_weight=5.1712528318166733 0.76732240803539831 0.33616948127746082 0.55445703864097662 4.0657716514542699 1.3241197820752857 0.19966325908899285 1.5161846913397341 0.43333314731717087 0.7342278566211462 0.16054993681609619 3.7537504956126213 0.636491809040308 1.2314007692039011 0.77821191772818565 0.18180115334689617
leaf_count=12 5 7 22 188 60 4 4 3 10 3 37 7 49 5 8
internal_value=0 -0.0493172 -0.0574367 -0.0819563 -0.0546942 -0.0264702 0.0878337 0.0511453 -0.0214069 -0.0661898 -0.0163897 -0.065457 -0.0813435 0.032719 -0.0317356
internal_weight=0 13.9897 13.2224 8.27769 4.21192 2.8878 7.855 2.68375 1.16756 1.72812 4.9447 1.19095 1.56757 1.15968 0.381464
internal_count=424 395 390 324 136 76 29 17 13 59 66 29 56 17 12
is_linear=0
shrinkage=0.1


Tree=7
num_leaves=16
num_cat=0
split_feature=5 4 8 8 5 2 8 4 6 7 8 3 8 1 0
split_gain=8.03088 1.04887 1.48323 1.00671 0.866367 0.612146 0.461842 0.324183 0.321981 0.251786 0.237115 0.204942 0.163228 0.191058 0.157848
threshold=0.53100000000000003 0.53350000000000009 0.53200000000000014 0.064400000000000013 0.47255000000000008 16.271604938271608 0.21215000000000003 0.69335000000000013 0.60020000000000007 0.58525000000000016 0.090850000000000014 0.59820000000000018 0.20060000000000003 301.00000000000006 967.50000000000011
decision_type=2 2 2 2 2 2 2 2 2 2 2 2 2 2 2
left_child=3 -2 5 -1 11 -3 10 8 -4 -8 -7 -5 13 -12 -9
right_child=1 2 7 4 -6 6 9 14 -10 -11 12 -13 -14 -15 -16
leaf_value=0.10957864560773717 0.075556012724330768 -0.10139852258165437 -0.12223194800718279 0.09124252482683716 -0.094055586382538692 0.081758268655134622 -0.12505801880422526 0.05426198721975295 -0.014167671944548888 0.0085511563307053545 -0.10370357387293322 0.032025336582459756 0.037788562916081708 0.003272743581286105 -0.0063370342249596829
leaf_weight=4.7801720611751106 0.65354572702199121 5.2282133400440198 0.47453027032315709 1.0473180562257769 0.4437229586765169 0.28126686811447166 0.63950208574533451 0.49286474846303496 0.65809166058897972 0.18095601163804531 0.33397294394671917 1.322331424802542 0.30783642269670963 0.33383344858884811 3.3614086909219623
leaf_count=12 6 258 21 4 19 1 27 4 7 4 11 8 4 6 32
internal_value=0 -0.0478895 -0.0544526 0.0816454 0.0341844 -0.083152 -0.0372301 -0.0124093 -0.0594429 -0.0955899 0.000864781 0.0581977 -0.0224559 -0.0502266 0.00141206
internal_weight=0 12.946 12.2925 7.59354 2.81337 7.30558 2.07737 4.9869 1.13262 0.820458 1.25691 2.36965 0.975643 0.667806 3.85427
internal_count=424 381 375 43 31 311 53 64 28 31 22 12 21 17 36
is_linear=0
shrinkage=0.1


Tree=8
num_leaves=16
num_cat=0
split_feature=8 2 3 0 0 6 6 1 0 3 7 6 8 6 7
split_gain=6.60054 0.904567 1.00168 0.784445 0.706977 0.617258 0.421636 0.391634 0.357891 0.340152 0.701663 0.346172 0.334872 0.523219 0.306714
threshold=0.077450000000000005 2.9835285156621922 0.59820000000000018 363.50000000000006 1709.0000000000002 0.57140000000000013 0.56100000000000005 6946.5000000000009 9621.5000000000018 0.77500000000000013 0.31645000000000006 0.62860000000000005 0.54110000000000003 0.57140000000000013 0.44339999999999996
decision_type=2 2 2 2 2 2 2 2 2 2 2 2 2 2 2
left_child=9 4 -3 -4 -2 14 -6 -8 -7 -1 -11 -12 13 -9 -5
right_child=1 2 3 5 6 8 7 12 -10 10 11 -13 -14 -15 -16
leaf_value=0.098023560017424807 -0.1225581467313332 0.12940480901097789 0.11850335725307855 0.015170631672162061 -0.087301365572279008 -0.12506620945819816 -0.1209216685312897 0.061931096007955946 -0.00088306167324613937 0.097995335669434358 -0.082392855689638 0.037980685407086448 0.0089638963969939801 -0.083719658134631669 -0.1107432723725949
leaf_weight=4.290926918387413 1.6388650219887475 0.46560925245285023 0.35833770036697377 0.23133824951946724 1.8552318196743725 0.25201301369816098 0.41686475928872857 0.31057470478117477 2.9331124750897288 1.3117874935269385 0.42086763679981221 0.55258685909211636 1.9567906074225903 1.1980218412354586 1.1814504675567148
leaf_count=12 91 1 1 5 94 15 19 6 49 4 9 4 14 49 51
internal_value=0 -0.0418396 -0.0108303 -0.0240045 -0.0646325 -0.0351108 -0.0480865 -0.0293467 -0.0107087 0.0814262 0.0502617 -0.0140621 -0.0183308 -0.0537345 -0.0901254
internal_weight=0 12.7982 5.42186 4.95625 7.37635 4.59791 5.73748 3.88225 3.18513 6.57617 2.28524 0.973454 3.46539 1.5086 1.41279
internal_count=424 395 122 121 273 120 182 88 64 29 17 13 69 55 56
is_linear=0
shrinkage=0.1


Tree=9
num_leaves=16
num_cat=0
split_feature=7 8 2 3 8 0 2 8 2 3 4 5 5 4 4
split_gain=5.35097 1.34959 0.84023 0.662006 0.739669 0.437939 0.641464 0.344317 0.296111 0.295117 0.282449 0.209502 0.199345 0.158074 0.329588
threshold=0.40660000000000002 0.064400000000000013 0.95572326478149117 0.59820000000000018 0.54110000000000003 9621.5000000000018 1.1986988623466479 0.090850000000000014 16.271604938271608 0.59820000000000018 0.57790000000000019 0.46195000000000003 0.54250000000000009 0.6785500000000001 0.71010000000000006
decision_type=2 2 2 2 2 2 2 2 2 2 2 2 2 2 2
left_child=1 -1 10 -4 7 -6 -7 8 -5 -3 -2 -11 -13 -9 -15
right_child=2 9 3 4 5 6 -8 13 -10 11 -12 12 -14 14 -16
leaf_value=0.10366609834190606 0.014412587951657542 0.071139157288386878 0.081835997194451546 -0.07751952938284723 0.10908704209714236 0.0079208610014194544 -0.11506802178219833 -0.10399095038353495 0.063780276355949281 0.045974951633811913 -0.1200326621941173 -0.074821161406501219 0.0039262329548557214 -0.0095332730404667776 -0.084683461007541677
leaf_weight=3.8721601031720665 0.17174980044364829 0.92551086470484722 0.46376047469675619 0.25555335730313977 0.31415903568267856 2.2220101598650221 0.52409715205430973 1.3603362888097761 0.35341547429561615 0.96301183477044139 1.7326648542657492 0.38959744479507241 1.8381982175633309 0.82894632499665055 1.9717415021732447
leaf_count=11 4 5 3 9 1 22 24 74 2 6 103 6 16 25 113
internal_value=0 0.0612874 -0.0480067 -0.0342527 -0.0411282 -0.00275659 -0.0155517 -0.0657461 0.00448391 0.0214224 -0.107908 0.00700183 -0.00984513 -0.0760243 -0.0624405
internal_weight=0 7.98848 10.1984 8.29402 7.83026 3.06027 2.74611 4.76999 0.608969 4.11632 1.90441 3.19081 2.2278 4.16102 2.80069
internal_count=424 44 380 273 270 47 46 223 11 33 107 28 22 212 138
is_linear=0
shrinkage=0.1


Tree=10
num_leaves=16
num_cat=0
split_feature=5 6 8 4 2 4 5 7 3 5 5 6 0 6 8
split_gain=4.34463 1.10394 0.785026 0.872861 0.669279 0.417351 0.408336 0.40267 0.372972 0.692123 0.227066 0.151613 0.258142 0.295697 0.123949
threshold=0.53100000000000003 0.24835000000000002 0.54110000000000003 0.55110000000000015 16.271604938271608 0.6785500000000001 0.64450000000000007 0.51970000000000016 0.90455000000000008 0.44340000000000007 0.50430000000000008 0.68165000000000009 967.50000000000011 0.60020000000000007 0.19335000000000002
decision_type=2 2 2 2 2 2 2 2 2 2 2 2 2 2 2
left_child=1 -1 3 -2 -5 -6 7 14 -3 -10 -11 12 -4 -14 -7
right_child=2 8 11 4 5 6 -8 -9 9 10 -12 -13 13 -15 -16
leaf_value=-0.056523401497712282 0.053585855636036073 0.10319740685501784 0.043122538054426257 -0.096993797730249076 -0.1274732618501308 -0.0088483314953967055 -0.10808790505486066 0.061186036062227833 0.10108439155762577 0.017912340636906932 -0.090475955381542239 0.0060829710710963089 -0.11540821513960536 -0.016068146594616396 -0.12296758516781206
leaf_weight=0.63282864727080124 0.60430381260812094 3.3998126834630966 0.36386786773800817 3.7833231827244163 0.32024457305669773 0.20352481864392735 0.29319139383733261 0.857645308598876 1.1065709888935087 0.58243078272789706 0.28927641268819571 3.1398148946464062 0.47100139874964952 0.82358011975884438 0.17877998016774654
leaf_count=14 8 10 6 258 15 5 16 8 3 6 10 16 28 12 9
internal_value=0 0.0684087 -0.0372488 -0.060631 -0.072876 -0.0236444 -0.00195646 0.0231388 0.0831092 0.0485863 -0.0180564 -0.00683592 -0.0312943 -0.0522106 -0.0622148
internal_weight=0 6.01092 11.0393 6.24101 5.63671 1.85339 1.53314 1.23995 5.37809 1.97828 0.871707 4.79826 1.65845 1.29458 0.382305
internal_count=424 43 381 319 311 53 38 22 29 19 16 62 46 40 14
is_linear=0
shrinkage=0.1


Tree=11
num_leaves=16
num_cat=0
split_feature=5 6 8 2 6 5 7 8 3 7 6 0 6 5 4
split_gain=3.7707 0.784939 0.743672 0.655584 0.658066 0.496723 0.38818 0.381843 0.305342 0.183535 0.146518 0.223027 0.25042 0.125395 0.122134
threshold=0.53100000000000003 0.24835000000000002 0.54110000000000003 8.2446443873179103 0.89550000000000007 0.64450000000000007 0.51970000000000016 0.064400000000000013 0.59820000000000018 0.33110000000000001 0.68165000000000009 967.50000000000011 0.60020000000000007 0.46195000000000003 0.69395000000000018
decision_type=2 2 2 2 2 2 2 2 2 2 2 2 2 2 2
left_child=1 -1 3 -2 5 6 -5 -3 -9 -10 11 -4 -13 -11 -8
right_child=2 7 10 4 -6 -7 14 8 9 13 -12 12 -14 -15 -16
leaf_value=-0.041868076283559943 -0.090209302022705731 0.10063614905521286 0.038940758314386419 -0.079093238416770462 0.096510088095675822 -0.11922987703879245 -0.030609514156715714 0.10187092138257192 0.05827181635525476 0.024165036127368852 0.0052318884514177023 -0.11333001004209656 -0.020127012416799817 -0.066988833148427143 0.050607025689419542
leaf_weight=0.58294888213277118 3.1194663150235993 3.2504774071276188 0.36023767851293054 0.54220387432724304 0.39808567613363255 0.61502663418650616 0.25790291652083397 0.54396372288465489 0.44807617366313912 0.27410667389631271 3.3700632639229298 0.42270063050091267 0.9064980186522007 0.33578907698392868 0.6564618069678545
leaf_count=14 232 11 6 25 9 39 7 2 2 2 16 28 12 12 7
internal_value=0 0.0677715 -0.0345924 -0.0597359 -0.0212447 -0.0438729 -0.0120539 0.0809431 0.0409842 0.00967879 -0.00681689 -0.0308516 -0.0497666 -0.0260214 0.0276993
internal_weight=0 5.43536 10.6486 5.58915 2.46968 2.0716 1.45657 4.85241 1.60194 1.05797 5.0595 1.68944 1.3292 0.609896 0.914365
internal_count=424 43 381 319 87 78 39 29 18 16 62 46 40 14 14
is_linear=0
shrinkage=0.1


Tree=12
num_leaves=16
num_cat=0
split_feature=8 0 6 4 4 3 6 7 8 4 5 4 8 7 7
split_gain=3.09826 0.627181 0.748058 0.392037 0.448477 0.357224 0.352407 0.350031 0.305578 0.294401 0.206806 0.149188 0.173629 0.106511 0.101053
threshold=0.077450000000000005 9621.5000000000018 0.56100000000000005 0.70255000000000012 0.70065000000000011 0.59820000000000018 0.62860000000000005 0.43495000000000006 0.058200000000000009 0.52905000000000013 0.5716500000000001 0.66975000000000018 0.18295000000000003 0.46250000000000008 0.54215000000000013
decision_type=2 2 2 2 2 2 2 2 2 2 2 2 2 2 2
left_child=6 3 7 4 10 -4 8 -3 -1 -10 13 12 -7 -2 -13
right_child=1 2 5 -5 -6 11 -8 -9 9 -11 -12 14 -14 -15 -16
leaf_value=0.10168873367260281 -0.082403728958970732 0.05376010120524042 0.10727531917417477 -0.11346678345296167 0.072008195804674616 -0.00088345388079444159 0.013703496432496937 -0.092417202904239243 0.091510363558900479 -0.010972292460083395 -0.12019923816919652 0.011351270582609929 -0.11893603883676435 0.027662039992097792 -0.015328244791529669
leaf_weight=2.5373884439468397 0.14751832373440021 0.18398594669997681 0.28866544459014853 1.2619487619958816 0.30214149318635464 0.25311274547130125 0.93569474853575219 1.4940029587596653 0.54722544550895669 0.57468740083277225 0.41142109036445618 2.8512325100600719 0.2453550691716373 0.21762220375239849 2.8275983026251197
leaf_count=10 6 6 2 112 3 8 8 107 2 9 34 40 19 6 52
internal_value=0 -0.0300075 -0.0168955 -0.0756291 -0.0313636 -0.00145616 0.0684695 -0.0763893 0.0824734 0.0390148 -0.0715831 -0.00653719 -0.0589911 -0.016805 -0.00193297
internal_weight=0 10.4846 8.14395 2.34065 1.0787 6.46596 4.595 1.67799 3.6593 1.12191 0.776562 6.1773 0.498468 0.365141 5.67883
internal_count=424 395 234 161 49 121 29 113 21 11 46 119 27 12 92
is_linear=0
shrinkage=0.1


Tree=13
num_leaves=16
num_cat=0
split_feature=5 8 6 2 7 5 3 5 3 4 6 5 0 5 6
split_gain=2.6679 0.603707 0.555915 0.50879 0.448523 0.343609 0.247843 0.46572 0.206336 0.228459 0.135196 0.187199 0.175766 0.215147 0.132438
threshold=0.53100000000000003 0.53200000000000014 0.24835000000000002 8.2446443873179103 0.51970000000000016 0.75925000000000009 0.90455000000000008 0.44340000000000007 0.96875000000000011 0.6785500000000001 0.68165000000000009 0.62415000000000009 967.50000000000011 0.66400000000000015 0.57140000000000013
decision_type=2 2 2 2 2 2 2 2 2 2 2 2 2 2 2
left_child=2 3 -1 14 -5 8 -4 -8 -6 -10 11 -3 -13 -14 -2
right_child=1 10 6 4 5 -7 7 -9 9 -11 -12 12 13 -15 -16
leaf_value=-0.032597698150290684 -0.067514395560020271 -0.10656410802058254 0.095658264524213332 -0.090786770597151345 0.11951263569958588 -0.081882937634594741 0.094457555769282775 -0.015280296604139971 -0.11858197183176625 0.032723673976667832 0.0051969905319640894 0.055900845650088044 -0.0074131924773760214 -0.11571476706731265 -0.11430700236135477
leaf_weight=0.53551153931766826 1.5415507806465014 0.26681961538270105 2.4574489593505859 0.6215666672214869 0.23328843712806702 0.31784173194318999 0.85291340947151162 0.70755902724340558 0.11351719219237544 0.82538039796054363 3.4879360822960734 0.2776371808722613 0.74234133213758469 0.24362744484096766 0.99545058654621232
leaf_count=14 119 17 10 33 1 31 3 16 7 15 17 4 8 18 111
internal_value=0 -0.0297272 0.0631109 -0.0556922 -0.0194292 0.0103377 0.075867 0.0446995 0.0353436 0.0144301 -0.00567533 -0.030454 -0.0143829 -0.0341739 -0.0858745
internal_weight=0 9.66696 4.55343 4.6486 2.11159 1.49003 4.01792 1.56047 1.17219 0.938898 5.01836 1.53043 1.26361 0.985969 2.537
internal_count=424 381 43 317 87 54 29 19 23 22 64 47 30 26 230
is_linear=0
shrinkage=0.1


Tree=14
num_leaves=16
num_cat=0
split_feature=5 8 8 8 8 2 5 8 6 3 6 8 8 5 5
split_gain=2.15562 0.574628 0.543708 0.430441 0.374185 0.310454 0.277107 0.269021 0.263062 0.26254 0.235482 0.179101 0.195078 0.181382 0.193317
threshold=0.53100000000000003 0.54110000000000003 0.064400000000000013 0.27710000000000007 0.087750000000000009 8.2446443873179103 0.47255000000000008 0.20154999999999998 0.57140000000000013 0.59820000000000018 0.31235000000000007 0.15600000000000003 0.27005000000000007 0.61535000000000017 0.6120000000000001
decision_type=2 2 2 2 2 2 2 2 2 2 2 2 2 2 2
left_child=2 3 -1 4 -2 7 -4 -6 10 -7 -9 -11 13 14 -13
right_child=1 -3 6 -5 5 9 -8 8 -10 11 -12 12 -14 -15 -16
leaf_value=0.090168751615743239 -0.15472969633337494 -0.0038720408876435175 0.03423215106618737 -0.10357023703131517 -0.11168627756525983 0.11665396495818528 -0.075060227795781947 -0.1150461979174434 -0.1168144949168515 0.033080840781836984 0.061450333966114136 -0.088489570231657447 0.084781319007507905 -0.11551176871808705 0.052543254282956031
leaf_weight=2.4257501605898151 0.2352584782056496 4.9543130304664373 1.49619710072875 1.2396798988338558 0.56796787120401881 0.18799920380115498 0.27456098189577449 0.095898495987057686 0.1873242324218154 0.58284221077337839 0.35702164471149445 0.1824680482968688 0.10923629999160767 0.31339729623869061 0.20796430110931396
leaf_count=12 13 62 12 141 62 1 19 9 23 15 11 11 1 30 2
internal_value=0 -0.027039 0.0594152 -0.0539372 -0.0336129 -0.0234079 0.0172861 -0.0615869 -0.0171432 0.00571529 0.0240801 -0.0092258 -0.0395531 -0.0588501 -0.0133683
internal_weight=0 9.22137 4.19651 4.26706 3.02738 2.79212 1.77076 1.20821 0.640244 1.58391 0.45292 1.39591 0.813066 0.70383 0.390432
internal_count=424 381 43 319 178 165 31 105 43 60 20 59 44 43 13
is_linear=0
shrinkage=0.1


Tree=15
num_leaves=16
num_cat=0
split_feature=7 8 6 0 0 2 8 3 7 8 6 8 8 5 1
split_gain=1.85056 0.721557 0.35906 0.425219 0.269517 0.341026 0.142443 0.12841 0.11833 0.110799 0.10788 0.0980219 0.195894 0.157799 0.123737
threshold=0.40660000000000002 0.064400000000000013 0.56100000000000005 9621.5000000000018 363.50000000000006 2.9835285156621922 0.078250000000000014 0.64585000000000015 0.43110000000000009 0.026150000000000003 0.57140000000000013 0.22970000000000004 0.53200000000000014 0.6120000000000001 301.00000000000006
decision_type=2 2 2 2 2 2 2 2 2 2 2 2 2 2 2
left_child=1 7 4 10 5 -2 -3 -1 -5 -10 -4 13 14 -11 -13
right_child=2 6 3 8 -6 -7 -8 -9 9 11 -12 12 -14 -15 -16
leaf_value=0.11079521463839777 -0.11437673441498478 0.042981213741910433 -0.020165952269344083 -0.1435249672518559 -0.081604721815179498 0.092508064161328188 0.0011053585032656996 0.060865947394037695 -0.21325080429967574 -0.066108351130358622 -0.11634545016416926 0.0064812714647038616 -0.0011162538520229782 0.041389994073368581 -0.098495000489609089
leaf_weight=1.1847708495333793 0.12739897053688776 1.2312650978565218 0.15210963785648335 0.062674100045114645 1.9114319207146764 0.2127031683921814 2.3871604492887855 0.91129775717854489 0.025414243340492138 0.16357450978830446 0.49985353159718215 0.15960969589650664 2.6110743153840303 0.82660726667381823 0.378687345655635
leaf_count=5 13 9 7 4 172 1 24 6 1 8 73 6 20 28 47
internal_value=0 0.0423999 -0.0339769 -0.0187346 -0.0670106 0.015011 0.0153547 0.0890877 -0.0071421 -0.00508982 -0.0939058 -0.00381184 -0.0124402 0.0236316 -0.0673686
internal_weight=0 5.71449 7.13114 4.8796 2.25153 0.340102 3.61843 2.09607 4.22764 4.16497 0.651963 4.13955 3.14937 0.990182 0.538297
internal_count=424 44 380 194 186 14 33 11 114 110 80 109 73 36 53
is_linear=0
shrinkage=0.1


Tree=16
num_leaves=16
num_cat=0
split_feature=7 4 2 6 0 5 8 8 7 4 8 1 7 7 4
split_gain=1.53295 0.577417 0.290729 0.261753 0.32775 0.283052 0.249582 0.226271 0.119645 0.111255 0.103883 0.220545 0.204019 0.132625 0.0801966
threshold=0.40660000000000002 0.62500000000000011 0.18954610150015083 0.56100000000000005 363.50000000000006 0.75925000000000009 0.10745000000000002 0.064400000000000013 0.43110000000000009 0.57790000000000019 0.21215000000000003 8572.5000000000018 0.58525000000000016 0.51970000000000016 0.7441500000000002
decision_type=2 2 2 2 2 2 2 2 2 2 2 2 2 2 2
left_child=1 7 -2 4 -4 8 -3 -1 -5 -6 13 12 -12 -10 -11
right_child=2 6 3 5 9 -7 -8 -9 10 14 11 -13 -14 -15 -16
leaf_value=0.092360122173930609 -0.1112410981947702 -0.066851145855236535 0.053630285554692639 -0.12876648269531729 -0.015409957628261292 -0.10245519339145491 0.017852179843903037 0.036615631297401467 -0.04471391734197086 -0.10634179779473232 -0.098030060778031974 -0.0003096265131049901 0.063260289464103489 0.049956154234296196 -0.056596242981180857
leaf_weight=1.726004380732775 0.43360683391802002 0.41573477536439929 0.22882273420691457 0.078365282155573257 0.2676414977759124 0.33124001417309035 2.1308837758842856 1.2595163299702106 0.19345303205773223 0.79345299699343719 0.45143048232421312 2.6850283341482282 0.094913603272289038 0.62951856618747115 0.54783159797079861
leaf_count=8 64 6 5 8 13 57 18 12 11 83 39 30 2 11 57
internal_value=0 0.0390049 -0.0320372 -0.0265874 -0.0583513 -0.0135106 0.00402439 0.0688429 -0.00638162 -0.0742774 -0.00401608 -0.0120942 -0.0700099 0.0277024 -0.0860238
internal_weight=0 5.53214 6.7353 6.3017 1.83775 4.46395 2.54662 2.98552 4.13271 1.60893 4.05434 3.23137 0.546344 0.822972 1.34128
internal_count=424 44 380 316 158 158 24 20 101 153 93 71 41 22 140
is_linear=0
shrinkage=0.1


Tree=17
num_leaves=16
num_cat=0
split_feature=7 8 8 8 7 7 0 5 5 4 4 6 2 5 7
split_gain=1.40093 0.484894 0.315326 0.24991 0.254034 0.207777 0.206133 0.129254 0.179596 0.15242 0.112316 0.0899031 0.150185 0.0696176 0.067184
threshold=0.40660000000000002 0.078250000000000014 0.53200000000000014 0.27710000000000007 0.63060000000000016 0.39195000000000008 9621.5000000000018 0.81705000000000017 0.6120000000000001 0.72120000000000017 0.59565000000000012 0.62860000000000005 1.0240360540811217 0.65165000000000006 0.52240000000000009
decision_type=2 2 2 2 2 2 2 2 2 2 2 2 2 2 2
left_child=1 5 3 4 6 11 10 8 14 -10 -2 12 -1 -11 -8
right_child=2 -3 -4 -5 -6 -7 7 -9 9 13 -12 -13 -14 -15 -16
leaf_value=0.029317848493535394 -0.0054693187714226644 0.0050218278374288966 -0.0084584769356837366 -0.096587840888073206 -0.1595326311478811 0.1135839126076941 -0.026590048502591796 -0.11816949347519834 0.053409982828465354 -0.0027596282628775952 -0.1004693996722075 0.019573615981382637 0.092879202271576172 -0.11553136427472864 -0.11162276515438226
leaf_weight=0.67549486085772581 0.17001305660233001 2.3522902163676918 3.1355506484396756 0.93256070930510748 0.1543391334125771 0.70241732895374287 0.46189321507699765 0.099004367832094542 0.64934432762674987 0.17666830448433757 0.4643611031351611 0.64137627184391011 0.82668984308838844 0.079319235868752003 0.11631530104205012
leaf_count=6 10 24 57 146 17 3 30 14 15 9 60 5 6 9 13
internal_value=0 0.038616 -0.0311733 -0.0527313 -0.0354835 0.0663827 -0.0268473 -0.00754129 -0.000158491 0.0276474 -0.0750093 0.0509155 0.0642973 -0.0377026 -0.0436957
internal_weight=0 5.19827 6.43937 3.30382 2.37126 2.84598 2.21692 1.58254 1.48354 0.905332 0.634374 2.14356 1.50218 0.255988 0.578209
internal_count=424 44 380 323 177 20 160 90 76 33 70 17 12 18 43
is_linear=0
shrinkage=0.1


Tree=18
num_leaves=16
num_cat=0
split_feature=5 2 3 8 8 5 6 8 5 7 4 4 6 7 7
split_gain=0.984054 0.435027 0.246108 0.278118 0.248933 0.20178 0.179555 0.169557 0.14059 0.361121 0.13422 0.0998549 0.0865174 0.0660022 0.0829136
threshold=0.48005000000000003 0.95572326478149117 0.53570000000000018 0.53200000000000014 0.23235000000000003 0.61900000000000011 0.89550000000000007 0.22550000000000003 0.46195000000000003 0.33110000000000001 0.59565000000000012 0.70635000000000014 0.49670000000000009 0.56140000000000012 0.59195000000000009
decision_type=2 2 2 2 2 2 2 2 2 2 2 2 2 2 2
left_child=8 10 -3 4 5 11 7 -7 9 -1 -2 -4 -13 -6 -15
right_child=1 2 3 -5 13 6 -8 -9 -10 -11 -12 12 -14 14 -16
leaf_value=0.083700029675172635 -0.011857740453928185 0.10294697210096754 -0.03508728551179166 0.0010354662285412036 -0.098046126165482306 -0.11143099448947154 0.048195751896822826 0.066188330034743698 0.089469791513017483 -0.0082954750501265922 -0.11281973566519432 -0.014723710428650963 0.057270534361657723 0.018691002744906187 -0.11227435073680006
leaf_weight=0.87633883953094593 0.17177552729844947 0.19186570681631288 0.33591840602457634 5.4566798596642911 0.6595140704885124 0.42793144565075625 0.11822404048871249 0.061463945545256138 0.8110226597636937 0.83161988481879234 0.56403421936556697 0.26314296573400497 0.45647843717597425 0.12297236453741789 0.079652110813185573
leaf_count=6 10 2 18 56 95 47 11 2 6 10 101 17 12 7 24
internal_value=0 -0.0156025 -0.00897275 -0.011663 -0.039102 -0.0164968 -0.0624054 -0.0891235 0.0551862 0.0389066 -0.0892501 0.00993033 0.0309445 -0.0827097 -0.0327918
internal_weight=0 8.90965 8.17384 7.98198 2.5253 1.66316 0.607619 0.489395 2.51898 1.70796 0.73581 1.05554 0.719621 0.862139 0.202624
internal_count=424 402 291 289 233 107 60 49 22 16 111 47 29 126 31
is_linear=0
shrinkage=0.1


Tree=19
num_leaves=16
num_cat=0
split_feature=8 2 6 3 0 7 3 3 8 0 6 8 8 0 4
split_gain=1.02972 0.285899 0.212725 0.234173 0.20523 0.191889 0.159423 0.149686 0.123499 0.131883 0.0889458 0.0818523 0.0854974 0.0732517 0.0687589
threshold=0.058200000000000009 0.18954610150015083 0.56100000000000005 0.59820000000000018 363.50000000000006 0.44240000000000007 0.96875000000000011 0.90455000000000008 0.090850000000000014 9621.5000000000018 0.57140000000000013 0.21655000000000005 0.20060000000000003 9621.5000000000018 0.66975000000000018
decision_type=2 2 2 2 2 2 2 2 2 2 2 2 2 2 2
left_child=7 -2 4 -4 -3 13 -5 -1 -8 10 -10 12 -7 -6 -11
right_child=1 2 3 6 5 11 8 -9 9 14 -12 -13 -14 -15 -16
leaf_value=0.10210878177739512 -0.11055325621515022 0.052119671603113399 0.076538039855211445 -0.078065395445916119 -0.064993251504489868 -0.079373826493060073 0.050138907772231824 0.041177478943425612 0.0094811529762188936 -0.063855748324796124 -0.11420963075978625 -0.10121076538715004 0.015916738591954596 0.017024993555534298 -0.0014158223282792137
leaf_weight=0.86138119176030159 0.28998776769731094 0.21057482436299113 0.36038812436163148 0.29508534888736626 0.1496675773523749 0.24850370106287278 0.41106761887204424 0.75794612988829679 0.08511245809495438 0.18199009390082199 0.18343059893231839 0.62411334970965981 0.15159639343619347 0.39969353028573096 5.7025563266361132
leaf_count=7 64 6 6 20 8 35 6 8 4 21 43 97 8 12 79
internal_value=0 -0.012822 -0.00967436 -0.00203329 -0.0405943 -0.0530012 -0.00616146 0.0735891 -0.00292909 -0.00647439 -0.0750069 -0.0785762 -0.0432686 -0.00532 -0.00334689
internal_weight=0 9.29377 9.00378 7.21963 1.78415 1.57357 6.85924 1.61933 6.56416 6.15309 0.268543 1.02421 0.4001 0.549361 5.88455
internal_count=424 409 345 179 166 160 173 15 153 147 47 140 43 20 100
is_linear=0
shrinkage=0.1


Tree=20
num_leaves=16
num_cat=0
split_feature=5 8 6 8 8 6 0 4 5 3 3 7 8 7 4
split_gain=0.7645 0.343723 0.327341 0.180357 0.191484 0.171289 0.142825 0.0946033 0.0845896 0.205989 0.0806071 0.119336 0.0811333 0.0789555 0.104411
threshold=0.53100000000000003 0.53200000000000014 0.24835000000000002 0.27710000000000007 0.087750000000000009 0.60020000000000007 1709.0000000000002 0.81645000000000012 0.48005000000000003 0.96875000000000011 0.64585000000000015 0.54015000000000013 0.27005000000000007 0.51190000000000013 0.78595000000000015
decision_type=2 2 2 2 2 2 2 2 2 2 2 2 2 2 2
left_child=2 3 -1 4 -2 8 -6 10 -4 -10 -8 13 -13 14 -12
right_child=1 -3 5 -5 6 -7 7 -9 9 -11 11 12 -14 -15 -16
leaf_value=-0.038139083178594206 -0.14507271744580152 -0.0019217951753118243 0.10380748885422908 -0.095678113706222534 -0.11326182728015451 0.030433696974667385 0.11082823917342832 -0.079852987808895659 0.10790447221254967 -0.041275679832376469 -0.0561104190971905 -0.080899780417242356 0.03563466618611421 0.037196263914763106 0.067124078543124022
leaf_weight=0.38557163765654001 0.13719531288370523 5.5107521142344922 0.8577988622710111 0.58594743371941138 0.15523448854219135 0.98055882100015868 0.059493202716111804 0.18212967016734194 0.22793361544609114 0.15584542206488505 0.26508551463484764 0.28632120869588107 0.075496474979445338 0.50702726468443871 0.092826329171657562
leaf_count=14 13 64 6 139 33 11 1 34 2 10 28 52 2 13 2
internal_value=0 -0.0155705 0.0469167 -0.0476208 -0.0316287 0.0616751 -0.0220427 -0.0123992 0.0863485 0.0473252 -0.00284794 -0.00836082 -0.0565838 0.0118116 -0.0241489
internal_weight=0 7.85751 2.60771 2.34676 1.76081 2.22214 1.62361 1.46838 1.24158 0.383779 1.28625 1.22676 0.361818 0.864939 0.357912
internal_count=424 381 43 317 178 29 165 132 18 12 98 97 54 43 30
is_linear=0
shrinkage=0.1


Tree=21
num_leaves=16
num_cat=0
split_feature=8 8 8 3 7 8 0 2 4 7 7 8 0 5 2
split_gain=0.740119 0.240942 0.189064 0.129034 0.231345 0.140868 0.124752 0.102811 0.0654912 0.0822165 0.112941 0.0728509 0.0629631 0.0417304 0.0478131
threshold=0.077450000000000005 0.54110000000000003 0.23235000000000003 0.77500000000000013 0.31645000000000006 0.045550000000000007 1709.0000000000002 0.95572326478149117 0.52905000000000013 0.54215000000000013 0.51970000000000016 0.22550000000000003 4998.5000000000009 0.48005000000000003 118.78395061728396
decision_type=2 2 2 2 2 2 2 2 2 2 2 2 2 2 2
left_child=3 2 6 5 -5 -1 -2 -6 -8 10 11 -10 -11 -4 -15
right_child=1 -3 13 4 7 -7 8 -9 9 12 -12 -13 -14 14 -16
leaf_value=0.1050925718227292 -0.11340703002059145 -0.0029212725292654951 0.05874279137793962 0.076270576851311889 0.03894668635779755 0.035439788583317526 0.061834942086950333 -0.052889689725526046 -0.049421750544654572 0.041644274619527084 0.031337268419509248 0.064979215072204985 -0.097699017573121244 -0.092285747909783222 -0.027740360025190106
leaf_weight=0.65175903961062454 0.12866459565702837 5.5098041454330087 0.021662879735231289 0.47035117074847199 0.18974997662007809 0.52364426851272583 0.11500777956098329 0.34092002757824957 0.47605354210827477 0.039566109771840163 0.461860875133425 0.063034649007022381 0.17973202071152627 0.70772484259214252 0.13698002370074391
leaf_count=6 29 64 1 4 3 6 5 10 48 6 12 3 38 177 12
internal_value=0 -0.014322 -0.0412782 0.0515919 0.0252072 0.0740621 -0.0193658 -0.0200521 -0.010304 -0.017103 -0.0049533 -0.036045 -0.0725585 -0.0783042 -0.0818189
internal_weight=0 7.84009 2.33029 2.17642 1.00102 1.1754 1.46392 0.53067 1.33525 1.22025 1.00095 0.539088 0.219298 0.866368 0.844705
internal_count=424 395 331 29 17 12 141 13 112 107 63 51 44 190 189
is_linear=0
shrinkage=0.1


Tree=22
num_leaves=16
num_cat=0
split_feature=8 8 6 8 6 1 0 4 6 5 5 6 5 1 2
split_gain=0.586952 0.21325 0.190794 0.169835 0.147741 0.157146 0.116999 0.070019 0.050191 0.0491092 0.0474934 0.0387465 0.130907 0.0515479 0.0355383
threshold=0.077450000000000005 0.53200000000000014 0.24835000000000002 0.27710000000000007 0.60020000000000007 6946.5000000000009 1709.0000000000002 0.8207500000000002 0.56100000000000005 0.48005000000000003 0.56690000000000007 0.68165000000000009 0.62415000000000009 301.00000000000006 8.2446443873179103
decision_type=2 2 2 2 2 2 2 2 2 2 2 2 2 2 2
left_child=2 3 -1 6 8 -6 -2 14 -4 -5 -9 12 -3 -14 -8
right_child=1 11 4 9 5 -7 7 10 -10 -11 -12 -13 13 -15 -16
leaf_value=-0.034505170694843601 -0.11291429032876187 -0.096203631222553931 0.061907398492106538 0.057387408411471857 -0.02611028082915344 0.064073388412236962 -0.027745839109843108 0.018165143481801264 0.10793913323837412 -0.094373432161611703 -0.11713190104320799 0.0026427318355090007 0.04118650953649567 -0.014069357905277902 0.0055090706726906476
leaf_weight=0.24484206177294288 0.13299772766185936 0.18006742885336269 0.4449995490722356 0.022244721651077159 0.32061233604326844 0.48627323657274246 0.54033862007781841 0.034717999631539098 0.50645115086808801 0.51445786835392937 0.1026765238493681 4.1357011846266687 0.20275359787046898 1.0091205628123132 0.79294119891710579
leaf_count=6 37 19 7 1 7 4 61 6 5 147 27 17 7 23 50
internal_value=0 -0.0125916 0.0481995 -0.0393911 0.0597159 0.0282393 -0.0230952 -0.0149726 0.0864098 -0.0880834 -0.0829439 -0.00221443 -0.0166459 -0.00482473 -0.00796815
internal_weight=0 7.66802 2.00318 2.14037 1.75834 0.806886 1.60367 1.47067 0.951451 0.536703 0.137395 5.52764 1.39194 1.21187 1.33328
internal_count=424 395 29 329 23 11 181 144 12 148 33 66 49 30 111
is_linear=0
shrinkage=0.1


Tree=23
num_leaves=16
num_cat=0
split_feature=5 2 6 6 0 6 5 8 5 4 4 4 8 8 4
split_gain=0.489656 0.307662 0.121423 0.128771 0.121384 0.261816 0.119978 0.152631 0.128128 0.105404 0.0675959 0.0573501 0.053664 0.0675085 0.0467496
threshold=0.48005000000000003 0.95572326478149117 0.24835000000000002 0.60020000000000007 363.50000000000006 0.46730000000000005 0.57690000000000008 0.087750000000000009 0.60125000000000006 0.59565000000000012 0.7441500000000002 0.57680000000000009 0.11675000000000001 0.14340000000000003 0.78795000000000004
decision_type=2 2 2 2 2 2 2 2 2 2 2 2 2 2 2
left_child=2 9 -1 -4 -3 10 11 -8 -9 -2 -6 -7 -10 -14 -12
right_child=1 4 3 -5 5 6 7 8 12 -11 14 -13 13 -15 -16
leaf_value=-0.012259366972979038 -0.0074424284017650848 0.083592982760049284 0.095354918144289591 0.034234414639860551 -0.09592616326584523 -0.015744112213441974 -0.14298450612548627 -0.12042231444741265 0.065787743286475103 -0.11407615980584021 0.0055989577078311044 0.068703767280891684 -0.11472707970787269 -0.0016323776274123365 -0.08106209033939818
leaf_weight=0.27065150253474701 0.12396125332452346 0.15001945616677392 0.61152313463389851 0.79001171886920929 0.37359434133395542 0.10527710639871646 0.079111185856163391 0.091737902141176053 0.11679151514545072 0.3675460551166907 0.15407799207605422 0.34057867131195962 0.053277219645678886 5.661337788682431 0.10444543149787933
leaf_count=7 10 3 6 9 68 7 9 22 3 101 13 14 10 120 22
internal_value=0 -0.0106244 0.0490611 0.0609028 -0.00542008 -0.00730614 -0.0012853 -0.005003 -0.00316008 -0.0871825 -0.0687235 0.0487636 -0.00131535 -0.00268676 -0.0294128
internal_weight=0 7.72176 1.67219 1.40153 7.23025 7.08023 6.44811 6.00226 5.92314 0.491507 0.632118 0.445856 5.83141 5.71462 0.258523
internal_count=424 402 22 15 291 288 185 164 155 111 103 21 133 130 35
is_linear=0
shrinkage=0.1


Tree=24
num_leaves=16
num_cat=0
split_feature=8 2 6 8 8 3 8 0 2 2 8 5 8 7 7
split_gain=0.465795 0.15926 0.128698 0.107854 0.133406 0.0888355 0.133167 0.0562049 0.0512454 0.0439646 0.111096 0.0721024 0.0664173 0.0414313 0.0404906
threshold=0.077450000000000005 0.18954610150015083 0.24835000000000002 0.53200000000000014 0.23235000000000003 0.59820000000000018 0.058200000000000009 1709.0000000000002 1.6637598752575442 8.2446443873179103 0.17885000000000004 0.49270000000000008 0.19335000000000002 0.52755000000000007 0.53515000000000013
decision_type=2 2 2 2 2 2 2 2 2 2 2 2 2 2 2
left_child=2 -2 -1 4 7 -4 8 -3 -7 10 11 -9 -11 -14 -15
right_child=1 3 5 -5 -6 6 -8 9 -10 12 -12 -13 13 14 -16
leaf_value=-0.025030624500889338 -0.10932794621440581 -0.11328017335380235 0.10012652141772821 -0.0017860556958573571 -0.070495219950327356 0.092682299040165644 -0.005634426667714792 -0.01305478792645492 0.040255597102277385 0.034238363576888364 0.022540145585819002 -0.11839581354698783 -0.11785598182796393 0.040810896773284359 -0.05558391690811329
leaf_weight=0.21578829642385233 0.1609242022386751 0.051662421319633611 0.3693581586703657 5.4256669615861028 0.56181060819653783 0.39287314005196072 0.36868200893513858 0.11414955370128133 0.35483985487371683 0.41619762743357569 0.2249525582883507 0.15083430579397827 0.046135950135067105 0.080511704087257385 0.094986021285876632
leaf_count=6 64 13 5 60 146 5 8 3 5 21 25 41 7 1 14
internal_value=0 -0.0109447 0.0471341 -0.00873558 -0.0303902 0.0576152 0.0435503 -0.0112865 0.0678023 -0.00661421 -0.0291423 -0.0730171 0.0106903 -0.0335298 -0.0113616
internal_weight=0 7.32783 1.70154 7.16691 1.74124 1.48575 1.1164 1.17943 0.747713 1.12777 0.489936 0.264984 0.637831 0.221634 0.175498
internal_count=424 395 29 331 271 23 18 125 10 112 69 44 43 22 15
is_linear=0
shrinkage=0.1


Tree=25
num_leaves=16
num_cat=0
split_feature=5 2 0 6 5 8 6 6 8 4 5 5 5 5 5
split_gain=0.379957 0.19485 0.0943892 0.200725 0.0878301 0.119739 0.0827037 0.109287 0.0632152 0.0624514 0.0495045 0.0537131 0.0999643 0.0452918 0.0708673
threshold=0.48005000000000003 0.95572326478149117 363.50000000000006 0.46730000000000005 0.53100000000000003 0.087750000000000009 0.24835000000000002 0.60020000000000007 0.21655000000000005 0.59565000000000012 0.56245000000000012 0.57690000000000008 0.60125000000000006 0.86780000000000013 0.8711000000000001
decision_type=2 2 2 2 2 2 2 2 2 2 2 2 2 2 2
left_child=6 9 -3 8 -5 -6 -1 -8 -4 -2 -7 -12 -13 -11 -15
right_child=1 2 3 4 5 10 7 -9 -10 13 11 12 -14 14 -16
leaf_value=-0.0064942695828204824 -0.014412789499594545 0.079429662235967965 -0.02639752393508393 0.062581536154936793 -0.13857589071400811 -0.1210218036288975 0.092797608177223656 0.031817140995860513 -0.095320636545659768 -0.12037315969138945 0.057700404823497801 -0.11999944564331118 -0.0019860482220560613 0.15589936112439495 -0.11092497396325565
leaf_weight=0.24208723567426194 0.11013682978227723 0.12881573848426331 0.23523910669609893 0.20410207379609335 0.065508901490829774 0.03512153704650689 0.50856861751526572 0.69622369483113289 0.30640527384821326 0.23633742483798414 0.14723980985581864 0.072681260644458123 5.7660582031821832 0.01624198816716671 0.025710931746289134
leaf_count=7 10 3 30 6 9 7 6 9 73 81 8 22 133 1 19
internal_value=0 -0.0092214 -0.0053752 -0.00697409 -0.00194461 -0.00410836 0.0468412 0.0575583 -0.065387 -0.0781509 -0.00264537 -0.00195082 -0.00345509 -0.103376 -0.00762447
internal_weight=0 7.3496 6.96117 6.83236 6.29071 6.08661 1.44688 1.20479 0.541644 0.388427 6.0211 5.98598 5.83874 0.27829 0.0419529
internal_count=424 402 291 288 185 179 22 15 103 111 170 163 155 101 20
is_linear=0
shrinkage=0.1


Tree=26
num_leaves=16
num_cat=0
split_feature=8 2 6 6 6 0 0 8 8 6 6 2 7 8 8
split_gain=0.34642 0.124457 0.0885307 0.0796299 0.0732754 0.113241 0.0859214 0.0856735 0.0611151 0.0451315 0.0373049 0.025118 0.0202372 0.0193552 0.0201563
threshold=0.077450000000000005 0.18954610150015083 0.24835000000000002 0.62860000000000005 0.56100000000000005 363.50000000000006 9621.5000000000018 0.23235000000000003 0.058200000000000009 0.5092000000000001 0.57140000000000013 0.48092734850284513 0.44600000000000006 0.090850000000000014 0.14340000000000003
decision_type=2 2 2 2 2 2 2 2 2 2 2 2 2 2 2
left_child=2 -2 -1 8 5 -3 10 9 -4 11 -6 -7 -9 -8 -15
right_child=1 4 3 -5 6 7 13 12 -10 -11 -12 -13 -14 14 -16
leaf_value=-0.018670377830712733 -0.10765908851315634 0.050016649522537017 0.090225672794474937 0.017437803355715095 0.0013958594311926061 0.068333319132058909 0.035527281828015171 -0.001080285781626359 0.034051370715673837 -0.1155144412654307 -0.094400564494004774 -0.015292030242765457 -0.09311560241073201 -0.050776715571246502 -0.0015022303912078836
leaf_weight=0.193778053857386 0.1260128738649654 0.13287389604374755 0.56887426692992427 0.40699884749483317 0.056392832193523534 0.040960311656817794 0.13909344421699632 0.025813225540332496 0.29364831652492285 0.041566608007997274 0.14562216252670623 0.29176114615984261 0.32089879817795008 0.084251962834969052 5.6632913617650047
leaf_count=6 64 6 9 8 4 3 4 4 6 12 48 41 92 11 106
internal_value=0 -0.00916815 0.0442872 0.053897 -0.00738045 -0.0348141 -0.00353315 -0.0504477 0.071101 -0.0172707 -0.0676588 -0.00499717 -0.0862634 -0.00133251 -0.00222453
internal_weight=0 7.06854 1.4633 1.26952 6.94253 0.853874 6.08865 0.721 0.862523 0.374288 0.202015 0.332721 0.346712 5.88664 5.74754
internal_count=424 395 29 23 331 158 173 152 15 56 52 44 96 121 117
is_linear=0
shrinkage=0.1


Tree=27
num_leaves=16
num_cat=0
split_feature=5 2 6 0 8 5 7 5 8 7 4 5 5 5 5
split_gain=0.293153 0.125028 0.0607638 0.128063 0.0987841 0.059703 0.12415 0.0537078 0.088147 0.0491044 0.042439 0.0421401 0.0369222 0.0328741 0.0489911
threshold=0.48005000000000003 0.95572326478149117 0.56100000000000005 363.50000000000006 0.23750000000000002 0.46195000000000003 0.33110000000000001 0.52620000000000011 0.087750000000000009 0.43495000000000006 0.59565000000000012 0.56850000000000012 0.84155000000000013 0.86780000000000013 0.8711000000000001
decision_type=2 2 2 2 2 2 2 2 2 2 2 2 2 2 2
left_child=5 10 3 -3 9 6 -1 -4 -9 -5 -2 -10 -11 -12 -15
right_child=1 2 7 4 -6 -7 -8 8 11 12 13 -13 -14 14 -16
leaf_value=0.070249850892686927 -0.015511113814406792 0.068592544115578011 0.073738724427833566 0.041773214808819216 -0.093229421693793099 0.077701936285872367 -0.0037864608460333482 -0.14462218249529923 -0.11904268517699941 -0.051464826026098788 -0.11339440236680064 -0.0012974964901235485 0.066591554569152694 0.13135798970002291 -0.10907951570229234
leaf_weight=0.41839691437780835 0.096069572493433841 0.10898830229416478 0.092710987199097761 0.10891590779647231 0.28121128876227885 0.37205629516392946 0.49381262995302677 0.043604706414043792 0.030555244768038281 0.23336271673906595 0.17500638822093606 5.8129226209130138 0.029884109506383538 0.014747131615877151 0.019923657411709428
leaf_count=6 10 3 3 8 88 6 10 7 7 38 81 134 3 1 19
internal_value=0 -0.00800692 -0.0051706 -0.0317586 -0.048498 0.0439411 0.0301713 -0.0017809 -0.0029702 -0.0146983 -0.0705519 -0.00191318 -0.0380629 -0.0957703 -0.00681004
internal_weight=0 7.0479 6.74216 0.762362 0.653374 1.28427 0.91221 5.97979 5.88708 0.372163 0.305747 5.84348 0.263247 0.209677 0.0346708
internal_count=424 402 291 140 137 22 16 151 148 49 111 141 41 101 20
is_linear=0
shrinkage=0.1


Tree=28
num_leaves=16
num_cat=0
split_feature=8 2 6 3 7 5 4 4 8 8 4 5 5 2 4
split_gain=0.262728 0.0917089 0.0705757 0.0686618 0.0901354 0.0628564 0.055969 0.078976 0.050305 0.0330469 0.033007 0.0303404 0.0926586 0.0705634 0.0445311
threshold=0.077450000000000005 0.18954610150015083 0.24835000000000002 0.59820000000000018 0.34630000000000005 0.6120000000000001 0.77600000000000013 0.78795000000000004 0.12700000000000003 0.14340000000000003 0.59565000000000012 0.61415000000000008 0.62415000000000009 9.6178234790060007 0.70065000000000011
decision_type=2 2 2 2 2 2 2 2 2 2 2 2 2 2 2
left_child=2 -2 -1 -4 -5 6 10 -8 -7 -10 -3 -11 -13 -14 -15
right_child=1 5 3 4 -6 8 7 -9 9 11 -12 12 13 14 -16
leaf_value=-0.017435802431841643 -0.10492584442791474 -0.027937240618820441 0.096093737642765409 0.077140857588535172 0.010934269004973272 0.058502079083457392 0.067591086360461003 -0.049366473784969223 -0.11553858751290774 0.037702115557895537 -0.077918130496287832 -0.084391051588836502 -0.00075329845766154366 -0.007514387194960526 -0.099125342795888596
leaf_weight=0.17636372568085779 0.095860927773173787 0.28178411908447731 0.25606975611299265 0.34006173722445954 0.52018628129735589 0.13016841083299358 0.11254187126178294 0.11855426331749186 0.026609423977788427 0.17064319306518871 0.24878450122196227 0.14362379349768151 5.3066952086228412 0.094224331434816011 0.12145391432568431
leaf_count=6 64 33 5 5 13 9 4 33 10 6 72 25 102 13 24
internal_value=0 -0.00780216 0.0413498 0.0506372 0.0371062 -0.00642388 -0.0334831 0.00759087 -0.0029851 -0.00435016 -0.0513734 -0.00384325 -0.00509448 -0.00303216 -0.0591028
internal_weight=0 6.85094 1.29268 1.11632 0.860248 6.75508 0.761665 0.231096 5.99342 5.86325 0.530569 5.83664 5.666 5.52237 0.215678
internal_count=424 395 29 23 18 331 142 37 189 180 105 170 164 139 37
is_linear=0
shrinkage=0.1


Tree=29
num_leaves=16
num_cat=0
split_feature=8 3 3 2 3 5 6 0 7 7 8 4 8 4 5
split_gain=0.226862 0.125047 0.0846193 0.0815728 0.0677036 0.0466745 0.0429225 0.0655135 0.109147 0.0635144 0.0490848 0.0318818 0.0373935 0.0270791 0.0226013
threshold=0.058200000000000009 0.59820000000000018 0.96875000000000011 0.18954610150015083 0.90455000000000008 0.46195000000000003 0.56100000000000005 4998.5000000000009 0.62180000000000013 0.53585000000000005 0.090850000000000014 0.66975000000000018 0.21215000000000003 0.63205000000000011 0.61415000000000008
decision_type=2 2 2 2 2 2 2 2 2 2 2 2 2 2 2
left_child=4 -2 5 -4 -1 -3 7 8 13 -9 -8 12 -12 -5 -13
right_child=1 2 3 6 -6 -7 10 9 -10 -11 11 14 -14 -15 -16
leaf_value=0.091225485312542154 0.061484621571337862 -0.0043605528277265854 -0.10339844582216869 0.010465095477111427 0.027740368649784897 -0.090870297087696117 0.045176042560360813 -0.022611808723455137 0.070411773207233908 -0.099921619586113078 -0.014683141384060766 0.026234132553465989 -0.11500478364894831 -0.11123154427628867 -0.0034116233321524695
leaf_weight=0.2942584240809083 0.27082847268320609 0.094065230339765438 0.084092255245195591 0.026647801394574233 0.39145421795546997 0.18506863806396723 0.21686051716096688 0.31349093501921743 0.14134599955286831 0.16076446080114692 0.12180074770003546 0.27035259618423868 0.053462196548935026 0.058256605756469071 5.2713090560864657
leaf_count=7 8 2 64 3 8 47 6 59 7 44 14 21 19 22 93
internal_value=0 -0.00518728 -0.00776772 -0.00552623 0.0549836 -0.0617174 -0.00428566 -0.0276959 0.0165804 -0.0488185 -0.00152199 -0.00329339 -0.0452852 -0.0730363 -0.00196534
internal_weight=0 7.26835 6.99752 6.71838 0.685713 0.279134 6.63429 0.700506 0.22625 0.474255 5.93379 5.71692 0.175263 0.0849044 5.54166
internal_count=424 409 401 352 15 49 288 135 32 103 153 147 33 25 114
is_linear=0
shrinkage=0.1


Tree=30
num_leaves=16
num_cat=0
split_feature=5 2 6 6 6 0 8 0 7 5 8 5 7 4 4
split_gain=0.200865 0.0725848 0.0576022 0.0789967 0.0407814 0.0846754 0.0691081 0.036832 0.0542395 0.0348166 0.0925851 0.0307975 0.0307041 0.02639 0.0314585
threshold=0.48005000000000003 0.95572326478149117 0.24835000000000002 0.60020000000000007 0.56100000000000005 363.50000000000006 0.23750000000000002 1709.0000000000002 0.46250000000000008 0.52620000000000011 0.087750000000000009 0.56850000000000012 0.43495000000000006 0.56045000000000011 0.66975000000000018
decision_type=2 2 2 2 2 2 2 2 2 2 2 2 2 2 2
left_child=2 7 -1 -4 5 -3 12 -2 -9 -6 -11 -12 -7 -13 -15
right_child=1 4 3 -5 9 6 -8 8 -10 10 11 13 -14 14 -16
leaf_value=-0.0093400459066180011 -0.10561680984300877 0.06220250111945666 0.088695839403109294 0.026969750418194896 0.067638018642879202 0.034464210871460565 -0.087982940853035319 -0.1228246629719143 0.016530740527688263 -0.14838703979964177 -0.11752501514968927 0.079233095293454514 -0.03428380527444292 -0.064729294245685007 -0.00081740598379274909
leaf_weight=0.18988654110580661 0.10342053574277077 0.087501489557325729 0.34384798305109143 0.52223063632845879 0.071275235153734573 0.091762378346174955 0.21306531579466537 0.04015811305725947 0.091722307493910193 0.043284715909976401 0.022819977370090672 0.040580799337476381 0.22245422739069909 0.078088455309625604 5.6019971204223111
leaf_count=7 79 3 6 9 3 8 88 16 16 7 7 3 41 25 106
internal_value=0 -0.00638162 0.0405399 0.0514761 -0.00439833 -0.0289002 -0.0440185 -0.0609395 -0.0259035 -0.00182693 -0.00268253 -0.00158445 -0.0142069 -0.00112196 -0.00169605
internal_weight=0 6.70813 1.05597 0.866079 6.47283 0.614783 0.527282 0.235301 0.13188 5.85805 5.78677 5.74349 0.314217 5.72067 5.68009
internal_count=424 402 22 15 291 140 137 111 32 151 148 141 49 134 131
is_linear=0
shrinkage=0.1


Tree=31
num_leaves=16
num_cat=0
split_feature=8 2 5 3 8 7 8 4 4 6 8 8 2 5 8
split_gain=0.177829 0.061703 0.0509934 0.0468117 0.0613544 0.0434914 0.0419041 0.0347282 0.0525028 0.0350747 0.0339024 0.0306421 0.0243 0.028573 0.0198719
threshold=0.077450000000000005 0.18954610150015083 0.61135000000000017 0.59820000000000018 0.058200000000000009 0.31645000000000006 0.11675000000000001 0.77600000000000013 0.78795000000000004 0.52590000000000015 0.21370000000000003 0.035550000000000005 0.40796894457099475 0.49270000000000008 0.44145000000000006
decision_type=2 2 2 2 2 2 2 2 2 2 2 2 2 2 2
left_child=3 -2 7 -1 11 -6 -4 12 -9 10 -10 -5 -3 -14 -8
right_child=1 2 6 4 5 -7 14 8 9 -11 -12 -13 13 -15 -16
leaf_value=0.073379383147922819 -0.10225480560708133 0.0093869725390551065 0.066896229161942197 0.024784075217810494 0.035317009209270105 -0.041928934243482791 -0.021302373881648531 0.056767174082679721 -0.10064071872036646 -0.13079262185381155 0.057754594714793661 0.075315590802835952 -0.019106234655038627 -0.078192766216630349 -0.001431311133481954
leaf_weight=0.27613409236073494 0.066146698169177287 0.062380292802117654 0.086194197647273429 0.26675474457442738 0.1242743656039238 0.1762711355695501 0.55696297885151569 0.092525869724340737 0.021803001523949206 0.033890823484398425 0.035538483178243041 0.21813436504453421 0.12386124627664685 0.24125325412023813 5.2199103796156123
leaf_count=7 64 6 5 6 2 9 135 4 8 14 9 5 8 89 53
internal_value=0 -0.00616178 -0.00518002 0.0379635 0.0255124 -0.00998804 -0.00231447 -0.032666 0.00368965 -0.0501404 -0.00247219 0.0475164 -0.0482935 -0.0581483 -0.00334713
internal_weight=0 6.54047 6.47432 1.06157 0.785435 0.300546 5.86307 0.611253 0.183758 0.0912323 0.0573415 0.484889 0.427495 0.365115 5.77687
internal_count=424 395 331 29 22 11 193 138 35 31 17 11 103 97 188
is_linear=0
shrinkage=0.1


Tree=32
num_leaves=16
num_cat=0
split_feature=5 2 8 6 0 8 3 0 7 5 8 5 8 8 4
split_gain=0.162022 0.0556984 0.0400301 0.0324194 0.0738083 0.0477183 0.029987 0.0295925 0.0360522 0.0277434 0.0797841 0.06099 0.0389871 0.0352774 0.0352768
threshold=0.48005000000000003 0.95572326478149117 0.064400000000000013 0.46730000000000005 491.50000000000006 0.21655000000000005 0.59820000000000018 1709.0000000000002 0.46250000000000008 0.57690000000000008 0.087750000000000009 0.60125000000000006 0.11675000000000001 0.14340000000000003 0.57680000000000009
decision_type=2 2 2 2 2 2 2 2 2 2 2 2 2 2 2
left_child=2 7 -1 4 -3 -6 -4 -2 -9 14 -11 -12 -13 -14 -5
right_child=1 3 6 9 5 -7 -8 8 -10 10 11 12 13 -15 -16
leaf_value=0.061523245696046919 -0.10355799733534626 0.057421075709470498 0.052509224417900437 -0.03060421700841013 -0.015592089285974033 -0.09010772186767263 0.0022372412171069692 -0.11704536433469646 0.00927962398707796 -0.13587039343281945 -0.12094913774485937 0.068845149029423416 -0.11092003218518914 -0.0018911988772462762 0.054596130413646971
leaf_weight=0.42465224862098683 0.082612833881284931 0.077580487355589756 0.1840742714703083 0.067162297316826769 0.18331301212310791 0.16178592608775944 0.33385492395609617 0.031004554533865303 0.08326185995247215 0.04514633718645189 0.043067579856142291 0.077714382205158361 0.02983780828071747 5.4915159962838516 0.17580075853038579
leaf_count=8 79 3 4 7 30 73 10 16 16 9 22 3 10 120 14
internal_value=0 -0.00557856 0.0387643 -0.00395518 -0.0307127 -0.0505258 0.0201041 -0.057962 -0.0249969 -0.00204803 -0.00346175 -0.00240226 -0.00149041 -0.0024804 0.0310442
internal_weight=0 6.5498 0.942581 6.35292 0.422679 0.345099 0.517929 0.196879 0.114266 5.93025 5.68728 5.64214 5.59907 5.52135 0.242963
internal_count=424 402 22 291 106 103 14 111 32 185 164 155 133 130 21
is_linear=0
shrinkage=0.1


Tree=33
num_leaves=16
num_cat=0
split_feature=8 6 6 5 8 2 0 8 7 8 2 0 5 5 8
split_gain=0.146078 0.0703202 0.0585393 0.0505237 0.0344099 0.0393292 0.0297238 0.0285737 0.0274207 0.0254579 0.0236573 0.023611 0.0227679 0.0628006 0.0277519
threshold=0.077450000000000005 0.24835000000000002 0.62860000000000005 0.61135000000000017 0.12700000000000003 0.36952288218111001 1709.0000000000002 0.058200000000000009 0.47350000000000009 0.14340000000000003 1.0240360540811217 9621.5000000000018 0.61415000000000008 0.62415000000000009 0.44145000000000006
decision_type=2 2 2 2 2 2 2 2 2 2 2 2 2 2 2
left_child=1 -1 7 6 -5 -6 -2 -3 11 -7 -10 -8 -11 -14 -15
right_child=3 2 -4 4 5 9 8 -9 10 12 -12 -13 13 14 -16
leaf_value=-0.027773823709775658 -0.12245265628983326 0.085475192193584237 0.012163275790435142 0.052252193387626225 -0.096427314455005742 -0.11773254810030426 -0.058915477993728399 0.03625113098193021 -0.010860286722688073 0.035727085771696927 -0.085314297805512418 0.0039017749365599722 -0.077031357122510399 -0.031839685515775533 -0.00041435927287977357
leaf_weight=0.1443631809670477 0.035784305015113094 0.33569387719035149 0.29167636076454073 0.11176646812236857 0.045448361634043866 0.019285169080830999 0.078371109208092093 0.18178656161762774 0.066145747958216816 0.15054668346419919 0.12027894461061805 0.25298623589333147 0.11433129815850396 0.29733918036799867 5.1192310483311303
leaf_count=6 23 9 8 13 52 10 21 6 20 10 50 37 25 93 41
internal_value=0 0.0365191 0.0479897 -0.00543112 -0.00270228 -0.00377117 -0.0343083 0.0681832 -0.0282166 -0.00303248 -0.0588971 -0.0109555 -0.00264314 -0.00368755 -0.00213943
internal_weight=0 0.95352 0.809157 6.41151 5.85795 5.74618 0.553566 0.51748 0.517782 5.70073 0.186425 0.331357 5.68145 5.5309 5.41657
internal_count=424 29 23 395 244 231 151 15 128 179 70 58 169 159 134
is_linear=0
shrinkage=0.1


Tree=34
num_leaves=16
num_cat=0
split_feature=5 6 6 2 6 0 8 0 7 7 4 4 8 4 2
split_gain=0.129992 0.0527931 0.0537185 0.0414229 0.0275713 0.0567281 0.0462859 0.0252094 0.0311211 0.0226209 0.0206529 0.0502014 0.0467336 0.0401963 0.0149723
threshold=0.48005000000000003 0.24835000000000002 0.60020000000000007 0.95572326478149117 0.56100000000000005 363.50000000000006 0.23750000000000002 1709.0000000000002 0.46250000000000008 0.43495000000000006 0.5212500000000001 0.61205000000000009 0.087750000000000009 0.66975000000000018 16.271604938271608
decision_type=2 2 2 2 2 2 2 2 2 2 2 2 2 2 2
left_child=1 -1 -3 7 5 -5 9 -2 -9 -7 -6 -12 -13 -14 -15
right_child=3 2 -4 4 10 6 -8 8 -10 -11 11 12 13 14 -16
leaf_value=-0.014701277907098366 -0.10176808818115635 0.084843385964231882 0.027192493428306215 0.056246579529141798 -0.075964629315254564 0.032736897083615345 -0.082577570885907239 -0.11657954075125117 0.0093427090571200563 -0.032694069831770027 0.066898900021128013 -0.14167937099408542 -0.10472442563340888 -0.0023101422963331618 0.021647746818803014
leaf_weight=0.16201278846710909 0.066310965456068405 0.25798250548541546 0.43273584730923176 0.071269042789935955 0.037115821847692021 0.073521651444025338 0.16001686567324214 0.026343747798819095 0.076975964242592454 0.18781182367820293 0.10645695636048902 0.023995456169359275 0.037703634065110125 5.2510849391110241 0.27448642114177335
leaf_count=7 79 6 9 3 6 8 88 16 16 41 15 5 17 89 19
internal_value=0 0.0366745 0.048725 -0.00489176 -0.00356283 -0.026265 -0.0402213 -0.0536478 -0.0227641 -0.0142862 -0.00161137 -0.00112669 -0.00242281 -0.00182217 -0.00112002
internal_weight=0 0.852731 0.690718 6.39309 6.22346 0.492619 0.42135 0.169631 0.10332 0.261333 5.73084 5.69373 5.58727 5.56327 5.52557
internal_count=424 22 15 402 291 140 137 111 32 49 151 145 130 125 108
is_linear=0
shrinkage=0.1


Tree=35
num_leaves=16
num_cat=0
split_feature=8 6 8 2 7 4 3 7 6 8 8 7 5 7 1
split_gain=0.119786 0.048204 0.0376605 0.0605039 0.0522796 0.0447881 0.036383 0.0595699 0.0353818 0.0397395 0.0390711 0.0314251 0.0269843 0.0260237 0.0235488
threshold=0.077450000000000005 0.24835000000000002 0.53200000000000014 8.2446443873179103 0.51460000000000006 0.72120000000000017 0.59820000000000018 0.34630000000000005 0.57140000000000013 0.17885000000000004 0.23235000000000003 0.44760000000000005 0.53100000000000003 0.53730000000000011 9621.5000000000018
decision_type=2 2 2 2 2 2 2 2 2 2 2 2 2 2 2
left_child=1 -1 3 8 11 -6 -3 -8 9 -2 -11 -5 -10 -7 -9
right_child=2 6 -4 4 5 13 7 14 12 10 -12 -13 -14 -15 -16
leaf_value=-0.020080988768992121 -0.094738297975153263 0.088865466247715824 -0.0013884864715828732 -0.0094629881767510551 0.037943450620183214 0.0052805381965765714 0.074439562518760424 -0.023388722089943428 -0.022561506563336827 0.029799878426844922 -0.056423647203213724 -0.10136489199133858 -0.10761022803770555 -0.10342846085427385 0.029650207966221233
leaf_weight=0.1330894159618764 0.065937893232330458 0.15208517201244831 5.270493823220022 0.084900971734896302 0.30154015216976404 0.049917234806343913 0.22017652494832873 0.14188241958618164 0.052266605198383331 0.12636130570899695 0.089974138216348365 0.066233627498149872 0.13032966497121379 0.039404211274813861 0.20417100563645363
leaf_count=6 28 5 66 8 28 7 5 8 2 21 78 25 111 21 5
internal_value=0 0.0351979 -0.00477392 -0.0224952 0.000207318 0.0195198 0.04544 0.0337762 -0.0489642 -0.0267753 -0.00606058 -0.0497383 -0.0832658 -0.0426765 0.00790417
internal_weight=0 0.851405 6.27736 1.00687 0.541996 0.390862 0.718315 0.56623 0.46487 0.282273 0.216335 0.151135 0.182596 0.0893214 0.346053
internal_count=424 29 395 329 89 56 23 18 240 127 99 33 113 28 13
is_linear=0
shrinkage=0.1


Tree=36
num_leaves=16
num_cat=0
split_feature=5 2 3 8 0 5 8 7 8 8 8 8 8 6 5
split_gain=0.106969 0.0380535 0.0269549 0.031576 0.0446743 0.0387161 0.0386326 0.0314072 0.0241492 0.0208173 0.0590604 0.0183977 0.0318127 0.0165298 0.0354602
threshold=0.48005000000000003 0.95572326478149117 0.53570000000000018 0.53200000000000014 3777.5000000000005 0.8429500000000002 0.27710000000000007 0.35810000000000003 0.064400000000000013 0.27005000000000007 0.23235000000000003 0.21250000000000002 0.17885000000000004 0.89550000000000007 0.61900000000000011
decision_type=2 2 2 2 2 2 2 2 2 2 2 2 2 2 2
left_child=8 11 -3 4 -4 6 7 -6 -1 10 13 12 -2 14 -9
right_child=1 2 3 -5 5 -7 -8 9 -10 -11 -12 -13 -14 -15 -16
leaf_value=0.05575899322705466 -0.11921881951680134 0.090400110362233652 -0.11242224911445904 -0.00070986339464257809 -0.14420488252147998 -0.10667009720559764 -0.065466088605681802 0.014620982827285934 0.019811057221644127 0.064591927760776893 -0.1200782419423962 -0.10057074549696783 0.012043165943875849 0.060191466494585066 -0.051766612955211379
leaf_weight=0.33003077469766129 0.026265842767315806 0.03067074401769776 0.050916412379592546 5.2469437428517267 0.014918696717359126 0.044197135546710342 0.10839203398791142 0.37224573257844895 0.43083057831972837 0.049842487089335918 0.039924435026478022 0.055084228282794356 0.062159814828191884 0.050981955253519118 0.10264305036980659
leaf_count=8 23 2 28 56 3 29 73 43 14 2 21 75 13 7 27
internal_value=0 -0.00430642 -0.00311123 -0.00358287 -0.0216565 -0.0157553 -0.0103176 -0.000837655 0.0354038 0.00263655 -0.00282127 -0.0552063 -0.0269467 0.00608095 0.000271886
internal_weight=0 6.25519 6.11168 6.08101 0.834062 0.783146 0.738948 0.630556 0.760861 0.615638 0.565795 0.14351 0.0884257 0.525871 0.474889
internal_count=424 402 291 289 233 205 176 103 22 100 98 111 36 77 70
is_linear=0
shrinkage=0.1


Tree=37
num_leaves=16
num_cat=0
split_feature=8 6 6 5 8 4 2 4 8 8 8 4 8 4 5
split_gain=0.0975415 0.0417119 0.0362057 0.0328305 0.0290372 0.0268385 0.0252347 0.0236136 0.0205806 0.019989 0.0187173 0.0163226 0.0157228 0.0499914 0.029774
threshold=0.077450000000000005 0.24835000000000002 0.62860000000000005 0.6120000000000001 0.058200000000000009 0.77600000000000013 0.36952288218111001 0.78795000000000004 0.21370000000000003 0.23235000000000003 0.099050000000000013 0.55110000000000015 0.44145000000000006 0.81385000000000007 0.61415000000000008
decision_type=2 2 2 2 2 2 2 2 2 2 2 2 2 2 2
left_child=1 -1 4 5 -3 -2 -5 -7 -9 -10 -8 -12 13 14 -13
right_child=3 2 -4 6 -6 7 10 8 9 -11 11 12 -14 -15 -16
leaf_value=-0.019411262784050604 -0.046715166962004215 0.082843521651906865 0.01294542052261303 -0.090642800714236318 0.027700818920989911 0.047003762951396279 0.060428544044196411 -0.10705943089433026 0.072798984591478905 -0.052479898008109288 0.072455497285993431 0.034782031440527349 -0.0010888609911624623 -0.11244432035802972 -0.02823077600449786
leaf_weight=0.12463925452902902 0.30952138162683684 0.25227910559624434 0.23952615482266992 0.032029558504291233 0.1536583723500371 0.070371519221225753 0.048185366613324621 0.025291392143117264 0.022877471055835485 0.028730550169711933 0.029162699007429072 0.11089070909656573 5.1886910065368284 0.052706517337355763 0.23159131658030674
leaf_count=6 114 9 8 56 6 6 3 14 3 18 3 5 50 42 81
internal_value=0 0.0335507 0.0437777 -0.00420117 0.0619705 -0.0299953 -0.00213161 0.00514511 -0.0331602 0.00305535 -0.00163084 -0.00216359 -0.0025533 -0.0217809 -0.00782814
internal_weight=0 0.770103 0.645464 6.15005 0.405937 0.456792 5.69326 0.147271 0.0768994 0.051608 5.66123 5.61304 5.58388 0.395189 0.342482
internal_count=424 29 23 395 15 155 240 41 35 21 184 181 178 128 86
is_linear=0
shrinkage=0.1


Tree=38
num_leaves=16
num_cat=0
split_feature=5 8 0 8 7 3 7 5 5 8 8 7 0 7 8
split_gain=0.0898538 0.028843 0.0448441 0.0343616 0.027641 0.0268382 0.0261464 0.0450271 0.0214393 0.0203622 0.0415705 0.0207025 0.0514877 0.0281446 0.0334045
threshold=0.48005000000000003 0.54110000000000003 1709.0000000000002 0.27710000000000007 0.35810000000000003 0.77500000000000013 0.31645000000000006 0.46195000000000003 0.56245000000000012 0.27005000000000007 0.23235000000000003 0.54215000000000013 4998.5000000000009 0.51970000000000016 0.22550000000000003
decision_type=2 2 2 2 2 2 2 2 2 2 2 2 2 2 2
left_child=6 2 -2 4 -4 8 -1 -8 -6 10 11 13 -13 14 -7
right_child=1 -3 3 -5 5 9 7 -9 -10 -11 -12 12 -14 -15 -16
leaf_value=0.070931370146288128 -0.10098929794663103 -0.0010520479106980592 -0.13464118278269155 -0.063190901822494594 0.10405014907289654 -0.040295723740416151 0.0039377923733995854 0.06482027022360326 0.00049031610716041148 0.054232879799988365 -0.1150889150792984 0.06462054058238241 -0.094027232725606161 0.028123341977175993 0.068861607083283566
leaf_weight=0.14987586438655842 0.064250297982653026 5.2441678897594102 0.016257379611488432 0.12228067009709775 0.039578096941113361 0.18163449884741578 0.37170008104294538 0.18044828716665506 0.040393056406173855 0.045804987428709865 0.038719152915291488 0.02866334019927308 0.071448953298386186 0.20860230003017932 0.033151800744235516
leaf_count=3 92 63 5 95 2 44 13 6 8 3 29 6 39 13 3
internal_value=0 -0.00387799 -0.0205147 -0.014259 -0.00576288 -0.00271748 0.0338895 0.0238349 0.0517426 -0.0098804 -0.0151038 -0.00770872 -0.0486045 0.00196129 -0.0234475
internal_weight=0 6.13495 0.890785 0.826534 0.704254 0.687996 0.702024 0.552148 0.0799712 0.608025 0.56222 0.523501 0.100112 0.423389 0.214786
internal_count=424 402 339 247 152 147 22 19 10 137 134 105 45 60 47
is_linear=0
shrinkage=0.1


Tree=39
num_leaves=16
num_cat=0
split_feature=5 2 0 6 8 8 8 8 5 8 5 5 4 4 8
split_gain=0.0796891 0.02808 0.0308641 0.0451043 0.0224354 0.0176551 0.0140419 0.0240584 0.00944578 0.0435416 0.0190481 0.0148344 0.013199 0.0134662 0.0119526
threshold=0.48005000000000003 0.95572326478149117 363.50000000000006 0.31235000000000007 0.064400000000000013 0.20154999999999998 0.21250000000000002 0.17885000000000004 0.53100000000000003 0.087750000000000009 0.56245000000000012 0.56340000000000012 0.55110000000000015 0.60365000000000013 0.090850000000000014
decision_type=2 2 2 2 2 2 2 2 2 2 2 2 2 2 2
left_child=4 6 -3 5 -1 -4 7 -2 -5 -10 -11 -12 -13 -14 -15
right_child=1 2 3 8 -6 -7 -8 -9 9 10 11 12 13 14 -16
leaf_value=0.053697145191826071 -0.11885035241466907 0.068796071960394736 -0.0182141572917685 0.031707891071399513 0.016841454240466958 -0.078400944004501982 -0.098871633296060968 0.0087646885381020539 -0.12807616601835631 -0.11229136420213304 0.10322792490108788 0.069674403650769989 -0.11720970348260321 0.049403261164290682 -0.0021454707099790023
leaf_weight=0.28858787938952435 0.020369376143207663 0.059822029899805673 0.090694757236633339 0.083025443600490578 0.38620387483388186 0.10535325494129211 0.04163189664541278 0.053767396602779627 0.027376687328796723 0.015518450818490126 0.013531929813325294 0.025860544992610701 0.010115185694303253 0.045352239161729702 5.4886944726749789
leaf_count=8 23 3 18 8 14 62 75 13 9 12 1 3 9 2 164
internal_value=0 -0.00361786 -0.00267122 -0.00339517 0.0326035 -0.0505576 -0.0523964 -0.0262981 -0.00177574 -0.00226983 -0.0016547 -0.0013472 -0.00160126 -0.00193372 -0.00172302
internal_weight=0 6.08111 5.96534 5.90552 0.674792 0.196048 0.115769 0.0741368 5.70947 5.62645 5.59907 5.58355 5.57002 5.54416 5.53405
internal_count=424 402 291 288 22 80 111 36 208 200 191 179 178 175 166
is_linear=0
shrinkage=0.1


Tree=40
num_leaves=16
num_cat=0
split_feature=8 6 6 1 6 2 5 0 6 8 8 0 8 5 5
split_gain=0.0741821 0.0347405 0.0271463 0.0372434 0.027206 0.0227109 0.0194653 0.0184379 0.0247746 0.0183762 0.0159653 0.0127765 0.0139431 0.0127655 0.0110098
threshold=0.077450000000000005 0.24835000000000002 0.60020000000000007 9621.5000000000018 0.56100000000000005 0.13517001230014117 0.56245000000000012 363.50000000000006 0.31235000000000007 0.20154999999999998 0.21250000000000002 6135.0000000000009 0.20060000000000003 0.56340000000000012 0.57640000000000013
decision_type=2 2 2 2 2 2 2 2 2 2 2 2 2 2 2
left_child=1 -1 4 -4 -3 -2 10 -8 9 11 -7 -9 -13 -10 -15
right_child=5 2 3 -5 -6 6 7 8 13 -11 -12 12 -14 14 -16
leaf_value=-0.018810136619758222 -0.11188334180813689 0.037345763977555992 -0.010501669180387873 0.058850107566715472 0.10386214015168814 -0.018782728267064515 0.053500118896441518 0.05695971750333248 0.068350710784149421 -0.072524260506675473 -0.090061043516883627 -0.08679283713916508 0.022282004977055833 -0.05012954414044371 -0.0016105363644339692
leaf_weight=0.11443335993681092 0.019282824694528133 0.14201718429103494 0.16567222349112853 0.14538842067122459 0.1084449520567432 0.12229397037299339 0.058775922334461828 0.023178634233772644 0.025897499872371443 0.087339048477588221 0.042290790632250719 0.024117596796713769 0.022797588258981705 0.047167103461106197 5.5377058838203084
leaf_count=6 52 7 8 3 5 22 8 4 3 52 29 11 1 17 196
internal_value=0 0.0314086 0.0416428 0.0219131 0.066146 -0.0035321 -0.00318339 -0.00222546 -0.00279329 -0.0419176 -0.037098 -0.00378079 -0.0337899 -0.00169549 -0.0020203
internal_weight=0 0.675956 0.561523 0.311061 0.250462 6.01085 5.99156 5.82698 5.7682 0.157433 0.164585 0.0700938 0.0469152 5.61077 5.58487
internal_count=424 29 23 11 12 395 343 292 284 68 51 16 12 216 213
is_linear=0
shrinkage=0.1


Tree=41
num_leaves=16
num_cat=0
split_feature=5 7 3 2 0 6 8 8 0 8 4 8 4 8 5
split_gain=0.0679731 0.0250209 0.0424706 0.023395 0.0229112 0.0352995 0.020895 0.0156882 0.0109754 0.0151181 0.0100715 0.0345885 0.022758 0.0220552 0.0214271
threshold=0.48005000000000003 0.31645000000000006 0.59820000000000018 0.95572326478149117 363.50000000000006 0.31235000000000007 0.064400000000000013 0.20154999999999998 967.50000000000011 0.17885000000000004 0.5212500000000001 0.045550000000000007 0.53350000000000009 0.087750000000000009 0.56245000000000012
decision_type=2 2 2 2 2 2 2 2 2 2 2 2 2 2 2
left_child=1 -1 -3 8 -5 7 -4 -6 -2 -10 -7 -12 -13 -14 -15
right_child=3 2 6 4 5 10 -8 -9 9 -11 11 12 13 14 -16
leaf_value=0.069976763456230648 -0.11174604012776923 0.066466102004849856 0.02416816087153122 0.064159689594167624 -0.01671220279564559 -0.046072307288433895 -0.025199897548006341 -0.077258788185003646 -0.11940430439719824 -0.010719313651818559 0.1036531492573966 0.10619755563443703 -0.11697487031329667 -0.10902083130259793 -0.0015411903932407997
leaf_weight=0.13250434957444657 0.022952657476707716 0.14494802430272102 0.19094377569854259 0.051189255667850264 0.083455947635229566 0.050657920306548365 0.15559533936902881 0.087835875805467367 0.01611854531802237 0.06213585509249242 0.031236221082508453 0.019419362768530735 0.016705718939192482 0.018610915984026977 5.5353557936614379
leaf_count=3 53 5 6 3 18 7 8 62 18 40 2 1 8 14 176
internal_value=0 0.0314109 0.0210136 -0.00326905 -0.00245054 -0.00303407 0.00200201 -0.0477596 -0.0509406 -0.0331058 -0.00168337 -0.00128335 -0.00186971 -0.00224644 -0.00190135
internal_weight=0 0.623991 0.491487 5.99567 5.89447 5.84328 0.346539 0.171292 0.101207 0.0782544 5.67199 5.62133 5.59009 5.57067 5.55397
internal_count=424 22 19 402 291 288 14 80 111 58 208 201 199 198 190
is_linear=0
shrinkage=0.1


Tree=42
num_leaves=16
num_cat=0
split_feature=8 6 6 1 6 0 7 5 1 6 7 0 5 7 7
split_gain=0.061486 0.0309938 0.0249111 0.030713 0.0222786 0.0188178 0.0470413 0.0232879 0.019059 0.0182274 0.0180804 0.0172202 0.00914542 0.00694636 0.00756244
threshold=0.077450000000000005 0.24835000000000002 0.60020000000000007 9621.5000000000018 0.56100000000000005 9621.5000000000018 0.62180000000000013 0.68535000000000013 3579.0000000000005 0.39860000000000001 0.53585000000000005 3777.5000000000005 0.56850000000000012 0.52450000000000008 0.44905
decision_type=2 2 2 2 2 2 2 2 2 2 2 2 2 2 2
left_child=1 -1 4 -4 -3 6 8 -8 -2 10 13 -9 -10 14 -7
right_child=5 2 3 -5 -6 9 7 11 12 -11 -12 -13 -14 -15 -16
leaf_value=-0.018768417963227323 -0.11504567601437753 0.038739802113678015 -0.0096235091414003712 0.056690132779797897 0.10306199408454564 0.0064316259117803316 0.081124674015139731 -0.11196819151534128 -0.017530860405866749 -0.0010145560034780863 -0.077787170640515824 0.025646253106348067 -0.082124263955771978 0.036630892667861015 -0.058032795015051535
leaf_weight=0.10633182642050076 0.049874260424985439 0.12806116393767297 0.15166151657467708 0.12946006655693054 0.092917813803069293 0.038204079959541448 0.042482651711907238 0.014566346762876492 0.065450381960545201 5.5509860007732641 0.061521673866081983 0.024200040701543912 0.03295643820456462 0.025191830878611654 0.034751066035823897
leaf_count=6 37 7 8 3 5 5 2 20 18 158 39 7 77 5 27
internal_value=0 0.0302766 0.0406631 0.0209148 0.0657862 -0.00310112 -0.0311753 0.0299827 -0.0646862 -0.00197273 -0.0352842 -0.0260619 -0.0391632 -0.00864202 -0.024275
internal_weight=0 0.608432 0.502101 0.281122 0.220979 5.94018 0.22953 0.081249 0.148281 5.71065 0.159669 0.0387664 0.0984068 0.098147 0.0729551
internal_count=424 29 23 11 12 395 161 29 132 234 76 27 95 37 32
is_linear=0
shrinkage=0.1


Tree=43
num_leaves=16
num_cat=0
split_feature=5 6 6 2 8 8 6 0 4 5 5 6 2 8 5
split_gain=0.0581658 0.022206 0.027385 0.0172257 0.0111031 0.0143563 0.0098234 0.0295134 0.0286416 0.0247963 0.0150692 0.0111168 0.0102984 0.0265657 0.0168134
threshold=0.48005000000000003 0.24835000000000002 0.60020000000000007 0.95572326478149117 0.35920000000000002 0.17885000000000004 0.56100000000000005 363.50000000000006 0.73460000000000003 0.62225000000000008 0.84155000000000013 0.49670000000000009 16.271604938271608 0.090850000000000014 0.62415000000000009
decision_type=2 2 2 2 2 2 2 2 2 2 2 2 2 2 2
left_child=1 -1 -3 4 5 -2 7 -5 10 11 -9 -10 14 -14 -8
right_child=3 2 -4 6 -6 -7 12 8 9 -11 -12 -13 13 -15 -16
leaf_value=-0.0076655701274917533 -0.11807290873826835 0.075389261752515771 0.02312625396532136 0.057562948301453531 -0.11479550896584648 -0.0058785599204645737 -0.033565226811779335 -0.074624668148616721 -0.00017439150646876865 -0.098574428213732107 0.042240780420533607 0.069641929004310169 0.084371081301421014 0.0013386459071088712 -0.0011677090315094817
leaf_weight=0.11980317067354906 0.014257616705435683 0.1515055182389915 0.29640842974185944 0.042675698176026233 0.018757830184767954 0.057006756251212209 0.16535127942915995 0.12350595530006103 0.076899285952094942 0.020805552194360644 0.012116063735447824 0.032422901829704642 0.049504083581268676 0.17385580280097201 5.1308031443913933
leaf_count=7 23 6 9 3 44 44 43 82 26 19 2 8 2 28 78
internal_value=0 0.0305757 0.0408041 -0.00293316 -0.0463427 -0.0283249 -0.00226263 -0.0196306 -0.0320268 0.00148844 -0.0641843 0.0205318 -0.00129212 0.0197414 -0.00217919
internal_weight=0 0.567717 0.447914 5.91796 0.0900222 0.0712644 5.82794 0.308425 0.26575 0.130128 0.135622 0.109322 5.51951 0.22336 5.29615
internal_count=424 22 15 402 111 67 291 140 137 53 84 34 151 30 121
is_linear=0
shrinkage=0.1


Tree=44
num_leaves=16
num_cat=0
split_feature=8 3 7 4 0 7 5 1 6 7 0 3 4 7 7
split_gain=0.0525767 0.0240216 0.0405 0.0391095 0.0176773 0.0329958 0.019879 0.0182593 0.0157047 0.0140635 0.0128809 0.00836741 0.00826737 0.00636429 0.009658
threshold=0.077450000000000005 0.59820000000000018 0.34630000000000005 0.51885000000000014 9621.5000000000018 0.62180000000000013 0.68535000000000013 3579.0000000000005 0.31235000000000007 0.53730000000000011 3777.5000000000005 0.77500000000000013 0.76605000000000012 0.52450000000000008 0.44905
decision_type=2 2 2 2 2 2 2 2 2 2 2 2 2 2 2
left_child=1 -1 -3 -4 5 7 -7 -2 9 13 -8 -5 -9 14 -6
right_child=4 2 3 11 8 6 10 12 -10 -11 -12 -13 -14 -15 -16
leaf_value=0.067716375969494869 -0.11506078782169334 0.055319173586031681 -0.058975260516946751 0.048307857406811469 0.0057815543326685433 0.076088750659661294 -0.1120731715850464 -0.020441377128129837 -0.0009377623825834059 -0.076801665273266678 0.015840557977801064 0.0025432412513437899 -0.096565345194182958 0.034497119139595654 -0.07836894691528716
leaf_weight=0.126356131862849 0.04263607504981326 0.17409893218427885 0.092919927090406418 0.070400429889559746 0.034273421391844638 0.035607733763754368 0.012397542981489096 0.071820678713265806 5.5378272738016676 0.051294250966748223 0.021568694937741384 0.092370232800021768 0.017803245711547788 0.023133200942538679 0.022653380612609908
leaf_count=7 37 7 4 3 4 2 20 40 168 36 7 8 55 4 22
internal_value=0 0.0293866 0.0181178 -0.00721248 -0.00278372 -0.0318651 0.0238822 -0.0611903 -0.00174836 -0.0359229 -0.0308474 0.022337 -0.0355629 -0.00973194 -0.0277052
internal_weight=0 0.556146 0.42979 0.255691 5.87102 0.201834 0.069574 0.13226 5.66918 0.131354 0.0339662 0.162771 0.0896239 0.08006 0.0569268
internal_count=424 29 22 15 395 161 29 132 234 66 27 11 95 30 26
is_linear=0
shrinkage=0.1


Tree=45
num_leaves=16
num_cat=0
split_feature=5 7 3 4 2 0 8 6 0 5 8 7 8 5 4
split_gain=0.0475329 0.0186019 0.0241978 0.0172865 0.0121167 0.0104906 0.0121474 0.00842348 0.0251847 0.013115 0.0297603 0.0277588 0.0158106 0.014735 0.00976344
threshold=0.48005000000000003 0.31645000000000006 0.59820000000000018 0.5072000000000001 0.95572326478149117 967.50000000000011 0.17885000000000004 0.39860000000000001 491.50000000000006 0.57690000000000008 0.087750000000000009 0.45725000000000005 0.090850000000000014 0.59550000000000003 0.7441500000000002
decision_type=2 2 2 2 2 2 2 2 2 2 2 2 2 2 2
left_child=1 -1 -3 -4 5 -2 -7 8 -6 11 -11 -9 -12 -14 -10
right_child=4 2 3 -5 7 6 -8 9 14 10 12 -13 13 -15 -16
leaf_value=0.065806174474774701 -0.11367070430974334 0.057837381134306136 -0.031848113703067608 0.020380146888332628 0.051112600340744857 -0.119014306186769 -0.0033356856414273961 0.050593197824511042 -0.064867470267454416 -0.12178729968194586 0.071225039656985553 -0.052560141592055513 -0.088882710653496927 -0.0017832104148844067 -0.012784538597051455
leaf_weight=0.10856365039944638 0.01599204486774386 0.11650797817856073 0.0923419832251966 0.2019955962896347 0.036488721380010136 0.010951061238301918 0.053065653133671731 0.11759832926327352 0.081191910023335367 0.02071508954395529 0.029569271951913723 0.033524626138387248 0.019493673113174625 5.3668638610251946 0.064653446606826037
leaf_count=3 53 5 5 9 3 18 40 14 65 9 1 13 19 142 25
internal_value=0 0.0289915 0.0192634 0.00399467 -0.00257405 -0.0412226 -0.0231243 -0.00203814 -0.0231895 -0.00134795 -0.00215568 0.02771 -0.00169811 -0.00209843 -0.041779
internal_weight=0 0.519409 0.410846 0.294338 5.85011 0.0800088 0.0640167 5.7701 0.182334 5.58776 5.43664 0.151123 5.41593 5.38636 0.145845
internal_count=424 22 19 14 402 111 58 291 93 198 171 27 162 161 90
is_linear=0
shrinkage=0.1


Tree=46
num_leaves=16
num_cat=0
split_feature=8 6 6 8 4 2 5 5 4 8 4 4 5 5 5
split_gain=0.0471177 0.0311205 0.017647 0.0211404 0.0159226 0.0116427 0.00883371 0.0189676 0.0188468 0.0139488 0.0452626 0.0284049 0.0271767 0.0223407 0.0178226
threshold=0.077450000000000005 0.24835000000000002 0.62860000000000005 0.058200000000000009 0.4603000000000001 0.13517001230014117 0.56245000000000012 0.56690000000000007 0.53350000000000009 0.44145000000000006 0.76210000000000011 0.6785500000000001 0.66015000000000013 0.59395000000000009 0.78785000000000005
decision_type=2 2 2 2 2 2 2 2 2 2 2 2 2 2 2
left_child=1 -1 3 -3 -2 -6 -7 -8 -9 10 11 14 13 -13 -10
right_child=4 2 -4 -5 5 6 7 8 9 -11 -12 12 -14 -15 -16
leaf_value=-0.02460974441467053 -0.13057342546159514 0.082328403539591477 0.015572117808422978 0.023313013577431638 -0.10867641777695169 -0.028523798516136498 0.071521410076838904 0.10567383215848054 -0.088332793070136223 -0.00092492173810124602 -0.076846472523726783 -0.055010599308618263 -0.05896359843340146 0.045452024505157479 0.012366070755818628
leaf_weight=0.088262290693819412 0.00969748239731405 0.14488429203629494 0.16664528049295768 0.10446422174572945 0.010276099030306685 0.12418342721502984 0.03529061673907552 0.016203423961996921 0.050432388816261553 5.2058219706450473 0.10464975580543978 0.025508892314974219 0.039411030040355399 0.16737940430175513 0.026978154113749042
leaf_count=6 4 9 8 6 52 50 6 1 43 73 94 12 23 27 10
internal_value=0 0.0293231 0.0407662 0.057604 -0.00254244 -0.0023286 -0.00214004 -0.00156236 -0.00201995 -0.00233044 -0.0199887 -0.000776736 0.0167054 0.0321661 -0.0532385
internal_weight=0 0.504256 0.415994 0.249349 5.81583 5.80614 5.79586 5.67168 5.63639 5.62018 0.41436 0.30971 0.232299 0.192888 0.0774105
internal_count=424 29 23 15 395 391 339 289 283 282 209 115 62 39 53
is_linear=0
shrinkage=0.1


Tree=47
num_leaves=16
num_cat=0
split_feature=5 8 0 6 0 6 5 7 8 8 5 5 8 8 7
split_gain=0.042279 0.0133005 0.0120735 0.0083126 0.00797505 0.018317 0.0103681 0.030464 0.0257178 0.0119067 0.011444 0.0112173 0.0268855 0.0109402 0.0201124
threshold=0.48005000000000003 0.064400000000000013 251.00000000000003 0.60020000000000007 363.50000000000006 0.31235000000000007 0.57690000000000008 0.44905 0.087750000000000009 0.090850000000000014 0.52275000000000016 0.62415000000000009 0.22070000000000004 0.20420000000000002 0.53730000000000011
decision_type=2 2 2 2 2 2 2 2 2 2 2 2 2 2 2
left_child=1 -1 -2 -3 -4 -6 7 10 -8 -10 -7 12 13 14 -11
right_child=2 3 4 -5 5 6 8 -9 9 11 -12 -13 -14 -15 -16
leaf_value=0.049103499184965559 -0.11860116925236573 -0.0049115371004374332 0.045173122713605331 0.029728272679855325 -0.038804331860299607 -0.028329445287872991 -0.11901227159259027 -0.031969407257052766 0.065266222624902767 -0.10728048953262403 0.06120467680082034 -0.0014516022356887849 -0.057511886352491631 0.058423522741150806 0.036618325984688442
leaf_weight=0.19097224622964848 0.0089199642679885782 0.12078649154864252 0.035363993898499646 0.16244730353355408 0.13541090408398293 0.016357601183699333 0.018849205021979176 0.070555538834014442 0.026186057293671072 0.015366050269221776 0.11217424775531981 5.1806668120334507 0.11237335302939755 0.03686677198857069 0.026401188806630671
leaf_count=8 23 8 8 6 95 6 11 31 2 9 17 134 60 3 3
internal_value=0 0.0287079 -0.00234898 0.0149559 -0.00216978 -0.00246089 -0.00158456 0.0208279 -0.00240831 -0.00200113 0.0498101 -0.00232905 -0.0261279 0.0187219 -0.0163216
internal_weight=0 0.474206 5.79549 0.283234 5.78657 5.75121 5.6158 0.199087 5.41671 5.39786 0.128532 5.37167 0.191007 0.078634 0.0417672
internal_count=424 22 402 14 379 371 276 54 222 211 23 209 75 15 12
is_linear=0
shrinkage=0.1


Tree=48
num_leaves=16
num_cat=0
split_feature=5 6 8 8 4 8 6 1 0 5 8 4 5 5 2
split_gain=0.0545687 0.0316076 0.0239845 0.0232686 0.0214242 0.0417491 0.0131442 0.0144536 0.00837995 0.00967189 0.00814644 0.0381744 0.0160444 0.0174842 0.012929
threshold=0.56690000000000007 0.24835000000000002 0.087750000000000009 0.064400000000000013 0.90240000000000009 0.077450000000000005 0.62860000000000005 9621.5000000000018 2655.0000000000005 0.51685000000000014 0.44145000000000006 0.81935000000000013 0.59550000000000003 0.8429500000000002 0.48092734850284513
decision_type=2 2 2 2 2 2 2 2 2 2 2 2 2 2 2
left_child=1 3 -2 -1 5 6 7 -3 -7 -10 11 12 -4 -14 -15
right_child=2 4 10 -5 -6 8 -8 -9 9 -11 -12 -13 13 14 -16
leaf_value=-0.14062872155706765 -0.11968945181608946 0.088674142334111694 -0.060009050425552768 -0.002610726408323133 0.090012417777049034 0.025002177099543939 0.022050274740263855 0.037164156216978536 -0.026166076295166887 -0.1125840739515873 -0.0017650275732751604 -0.11178851852017753 0.009942619143097145 0.05845786434246019 -0.10436135957269399
leaf_weight=0.013727819547057041 0.017613299787626491 0.10016060341149569 0.048281306007993297 0.11085522282519378 0.069301594106946141 0.020176156809611712 0.1473429948091507 0.11942751077003777 0.050297328940359876 0.017442130978452042 5.1928595504177792 0.038130617729621008 0.2743579933703586 0.0061458766504074438 0.023622490029083565
leaf_count=1 12 6 37 24 2 7 5 5 8 23 83 78 105 4 24
internal_value=0 0.0274563 -0.00318009 -0.0178189 0.0382176 0.030326 0.0451557 0.0606594 -0.0315682 -0.0484177 -0.00281255 -0.0167411 -0.00645695 0.00204467 -0.0707463
internal_weight=0 0.648731 5.60101 0.124583 0.524148 0.454847 0.366931 0.219588 0.0879156 0.0677395 5.5834 0.390538 0.352408 0.304126 0.0297684
internal_count=424 81 343 25 56 54 16 11 38 31 331 248 170 133 28
is_linear=0
shrinkage=0.1


Tree=49
num_leaves=16
num_cat=0
split_feature=5 7 6 8 8 5 4 8 2 6 2 7 3 7 2
split_gain=0.0420447 0.0327297 0.0201672 0.0207521 0.0190268 0.015724 0.0150411 0.010863 0.0102225 0.00696509 0.00763956 0.00688595 0.0220973 0.0193519 0.00624189
threshold=0.57690000000000008 0.44905 0.24835000000000002 0.064400000000000013 0.087750000000000009 0.59550000000000003 0.61535000000000017 0.090850000000000014 1.1986988623466479 0.49670000000000009 1.2922404360780606 0.43110000000000009 0.59820000000000018 0.33110000000000001 1.1986988623466479
decision_type=2 2 2 2 2 2 2 2 2 2 2 2 2 2 2
left_child=1 2 8 -4 -2 9 14 -7 -1 10 -6 12 -5 -14 -3
right_child=4 6 3 11 5 7 -8 -9 -10 -11 -12 -13 13 -15 -16
leaf_value=-0.046711117237398563 -0.11321829943900477 0.017513527076516509 0.063519553587816441 0.065014675593520976 0.11184383178481803 0.064608903585164149 -0.11073844775385361 -0.0028588047987158464 0.014985080557349413 -0.12228410975081128 -0.10983729180674101 0.035785032864825948 0.038268691402868565 -0.033485623819121936 -0.049547772496131397
leaf_weight=0.047239373525371664 0.0156817234965273 0.030627996413386427 0.1799138430505991 0.055802756367484108 0.0031538845505564286 0.023974058451130875 0.021825383406394394 5.2407599709113128 0.062240242259576917 0.015861407184274867 0.0030656595772597939 0.21724409386661137 0.058473948389291763 0.10521957960008876 0.025381313389516436
leaf_count=4 12 7 9 4 6 2 30 273 7 23 4 9 2 17 15
internal_value=0 0.0213099 0.0279158 0.0349377 -0.00323101 -0.00290476 -0.0403174 -0.00255158 -0.0116362 -0.0871149 0.00257556 0.0231636 0.0106716 -0.00785383 -0.0128761
internal_weight=0 0.803969 0.726134 0.616654 5.3025 5.28681 0.0778347 5.26473 0.10948 0.022081 0.00621954 0.43674 0.219496 0.163694 0.0560093
internal_count=424 104 52 41 320 308 52 275 11 33 10 32 23 19 22
is_linear=0
shrinkage=0.1


Tree=50
num_leaves=16
num_cat=0
split_feature=8 6 6 8 4 0 0 0 2 4 4 6 7 6 4
split_gain=0.0373167 0.0174479 0.014788 0.0139882 0.0105748 0.00811425 0.00711466 0.0131313 0.0115265 0.00895638 0.00920302 0.00858115 0.012126 0.0085202 0.00759285
threshold=0.077450000000000005 0.24835000000000002 0.62860000000000005 0.058200000000000009 0.4603000000000001 251.00000000000003 363.50000000000006 9621.5000000000018 0.40796894457099475 0.70535000000000003 0.70065000000000011 0.31235000000000007 0.57880000000000009 0.52590000000000015 0.52905000000000013
decision_type=2 2 2 2 2 2 2 2 2 2 2 2 2 2 2
left_child=1 -1 3 -3 -2 -6 -7 8 -8 10 -10 12 -9 -13 -15
right_child=4 2 -4 -5 5 6 7 11 9 -11 -12 13 -14 14 -16
leaf_value=-0.014205532970716453 -0.1245559274952116 0.078728733833123593 0.013544531098033281 0.025702094260546968 -0.11080163055488984 0.044475873607698078 0.0041937815978934593 -0.0080448503433709333 -0.055797787208551768 -0.095997703791181499 0.061295296032329777 0.023695479211185012 -0.082353238437662096 0.054085943946288288 -0.0017953865180508476
leaf_weight=0.077372254221700021 0.0070504249306394531 0.11447956482879817 0.14144970697816461 0.087979633826762438 0.0068472251296042277 0.032920213183388003 0.044333874160656594 0.07610681909136463 0.025041930581210181 0.035731171104998793 0.0091702444478869438 0.13742529685259786 0.030867068853694946 0.024429965065792092 5.1588090696895961
leaf_count=6 4 9 8 6 23 8 57 42 16 53 1 28 24 4 135
internal_value=0 0.0287002 0.0383531 0.0556857 -0.00216341 -0.00200881 -0.00187519 -0.00215052 -0.0356972 -0.0609822 -0.0244121 -0.00144421 -0.0294864 -0.000880413 -0.001532
internal_weight=0 0.421281 0.343909 0.202459 5.58873 5.58168 5.57484 5.54192 0.114277 0.0699433 0.0342122 5.42764 0.106974 5.32066 5.18324
internal_count=424 29 23 15 395 391 368 360 127 70 17 233 66 167 139
is_linear=0
shrinkage=0.1


Tree=51
num_leaves=16
num_cat=0
split_feature=5 7 5 2 8 8 4 8 8 4 4 5 5 8 8
split_gain=0.0339548 0.0134192 0.0235572 0.00666923 0.00961171 0.0120787 0.00513492 0.0161503 0.0166449 0.0139251 0.0141414 0.01733 0.00601304 0.0112332 0.00997045
threshold=0.48005000000000003 0.33110000000000001 0.46195000000000003 0.95572326478149117 0.35920000000000002 0.17885000000000004 0.5212500000000001 0.045550000000000007 0.087750000000000009 0.53350000000000009 0.66975000000000018 0.78785000000000005 0.57690000000000008 0.22970000000000004 0.090850000000000014
decision_type=2 2 2 2 2 2 2 2 2 2 2 2 2 2 2
left_child=1 -1 -3 4 5 -2 -5 -8 -9 -10 11 -11 13 -12 -14
right_child=3 2 -4 6 -6 -7 7 8 9 10 12 -13 14 -15 -16
leaf_value=0.054289019449592503 -0.12005199516028245 -0.0053475475696590641 0.056656285199740246 -0.040685781656869091 -0.11373906609000604 0.0064476274589087132 0.10263614692461696 -0.11368568570996603 0.10490675202498741 -0.082301051487821103 -0.030180853229408444 0.020778371742906518 0.065795441302066479 0.031571940073397912 -0.0019753780687069649
leaf_weight=0.13077670708298672 0.0091219894602544427 0.18325474113225937 0.092056630877777934 0.033516096940729656 0.012233039433340309 0.043750559747422813 0.014873904641717561 0.013242281565908232 0.012285784818231948 0.046172293397830688 0.038114802940981352 0.025218123031663708 0.021800316870212444 0.12968112141243182 5.1532499001768883
leaf_count=6 23 10 6 8 44 44 2 11 1 59 14 7 1 10 178
internal_value=0 0.0279136 0.0153848 -0.00204121 -0.0338588 -0.0153771 -0.00166376 -0.00142399 -0.00170852 -0.00143526 -0.00167657 -0.045889 -0.00108581 0.0175448 -0.00168989
internal_weight=0 0.406088 0.275311 5.55326 0.0651056 0.0528725 5.48815 5.45464 5.43976 5.42652 5.41424 0.0713904 5.34285 0.167796 5.17505
internal_count=424 22 16 402 111 67 291 283 281 270 269 66 203 24 179
is_linear=0
shrinkage=0.1


Tree=52
num_leaves=16
num_cat=0
split_feature=8 6 6 0 6 4 5 4 5 5 8 5 6 6 5
split_gain=0.0319047 0.0150047 0.0107122 0.0173872 0.014008 0.00875063 0.00572066 0.0119676 0.0118331 0.00628438 0.0102796 0.00970051 0.0163685 0.01501 0.00496424
threshold=0.077450000000000005 0.24835000000000002 0.60020000000000007 9621.5000000000018 0.56100000000000005 0.4603000000000001 0.56245000000000012 0.53350000000000009 0.54675000000000018 0.57690000000000008 0.22970000000000004 0.61135000000000017 0.43425000000000008 0.31235000000000007 0.61415000000000008
decision_type=2 2 2 2 2 2 2 2 2 2 2 2 2 2 2
left_child=1 -1 4 -4 -3 -2 8 -8 -7 10 -9 12 13 -11 -13
right_child=5 2 3 -5 -6 6 7 9 -10 11 -12 14 -14 -15 -16
leaf_value=-0.013288387169077499 -0.12352454835815684 0.033592874878677424 0.05540240154791274 -0.0057147311129173541 0.10164782356280377 -0.012065117339113631 0.10444317173992031 -0.026471348971760934 -0.11306409901155408 -0.041109118726590482 0.034227299041470066 0.024437120942720797 -0.087999404604140685 0.09854980164360215 -0.0020351154753200395
leaf_weight=0.07275024487171311 0.0059142322279511763 0.080048861098475754 0.084809005260467529 0.10317973422934301 0.048612808051984757 0.08858039007463947 0.01066590379923571 0.037413245474453904 0.013348229877010453 0.02082762905047264 0.10973585402098252 0.071833662543212884 0.03449160302625387 0.01220534392632544 5.1154249326882564
leaf_count=6 4 7 3 8 5 31 1 15 22 21 14 12 42 5 228
internal_value=0 0.0276648 0.0370738 0.0218576 0.0593064 -0.0019514 -0.00182102 -0.00137903 -0.0252916 -0.00158797 0.0187944 -0.00215873 -0.0398168 0.0104934 -0.00166853
internal_weight=0 0.389401 0.31665 0.187989 0.128662 5.52044 5.51453 5.4126 0.101929 5.40193 0.147149 5.25478 0.0675246 0.033033 5.18726
internal_count=424 29 23 11 12 395 391 338 53 337 29 308 68 26 240
is_linear=0
shrinkage=0.1


Tree=53
num_leaves=16
num_cat=0
split_feature=5 3 7 0 0 6 5 4 4 2 8 2 5 7 7
split_gain=0.0302572 0.0101247 0.018788 0.00687624 0.00748 0.00854104 0.0104979 0.0119095 0.00717509 0.00697528 0.00411637 0.0148898 0.00721363 0.0164413 0.0140865
threshold=0.48005000000000003 0.59820000000000018 0.33110000000000001 251.00000000000003 363.50000000000006 0.31235000000000007 0.84155000000000013 0.7441500000000002 0.76150000000000007 16.271604938271608 0.14340000000000003 1.0240360540811217 0.54250000000000009 0.51970000000000016 0.52755000000000007
decision_type=2 2 2 2 2 2 2 2 2 2 2 2 2 2 2
left_child=1 -1 -3 -2 -5 6 7 -6 -9 -10 11 -7 -13 -14 -15
right_child=3 2 -4 4 5 10 -8 8 9 -11 -12 12 13 14 -16
leaf_value=0.057714114259583997 -0.11076210926996644 0.048989507812927435 -0.0027291821272687391 0.048237158694609622 -0.073869869124483956 -0.12447402356861599 0.037217375449284391 0.12815589265891325 -0.1131421985432727 0.0014965093904395854 -0.001029883647024621 0.028570917926029143 -0.12162041031072444 0.066110603253822509 -0.039938767375145595
leaf_weight=0.085461334325373173 0.0057934868236769735 0.11934574600309122 0.17071197833865881 0.029761155718006083 0.053578394465148338 0.012218053470860357 0.020108472774154507 0.0037657612119801334 0.006270111342018935 0.034575991274323314 5.2298647015413735 0.035824931226670742 0.014436813304200768 0.019636215642094612 0.034587181580718607
leaf_count=5 23 6 11 8 60 20 8 2 18 7 228 4 11 1 12
internal_value=0 0.0274636 0.0185507 -0.00187496 -0.00176015 -0.00203243 -0.0286099 -0.0420907 -0.00392421 -0.0161012 -0.00144438 -0.0200191 -0.00780462 -0.0267843 -0.00153453
internal_weight=0 0.375519 0.290058 5.50042 5.49463 5.46487 0.118299 0.0981903 0.0446119 0.0408461 5.34657 0.116703 0.104485 0.0686602 0.0542234
internal_count=424 22 17 402 379 371 95 87 27 25 276 48 28 24 13
is_linear=0
shrinkage=0.1


Tree=54
num_leaves=16
num_cat=0
split_feature=8 6 6 1 6 4 5 4 5 5 5 8 8 8 8
split_gain=0.0277511 0.0160692 0.00843165 0.0162 0.0130257 0.00745595 0.00465831 0.0102189 0.00984328 0.00481667 0.0147223 0.00980509 0.00969763 0.00523226 0.00650569
